{"learner":{"attributes":{"scikit_learn":"{\"_estimator_type\": \"classifier\"}"},"feature_names":["high_freq_powerovr","amount_mean_ovr_pos","low_freq_powerovr","dominant_power26","weekly_spend_slope_group_9_pos","log_amount_mean_group_9_neg","pct_amount_abs_13.0","weekly_txn_freq_11_neg","weekly_txn_freq_2","weekend_spend_pct_group_10_pos","weekend_spend_pct_1","weekday_spend_std_group_6","amount_max_15","pct_amount_pos_0.0","power_ratio16","weekend_spend_pct_15","txn_count_group_10_pos","weekday_spend_std_group_10","high_freq_power3","pct_amount_abs_26.0","amount_skew_6","amount_median_1","log_amount_mean_11_pos","amount_skew_5","txn_active_day_pct_group_9_pos","high_to_low_spend_ratio_group_8","amount_std_4","amount_gini_1_neg","amount_gini_7","log_amount_mean_23","monthly_txn_freq_19","pct_amount_total_10.0","monthly_avg_spend_15","amount_kurtosis_group_2","weekly_txn_freq_18","outlier_count_ovr_neg","pct_amount_total_20.0","txn_active_day_pct_13","txn_active_day_pct_26","weekend_spend_pct_group_7","log_amount_mean_group_3_neg","cat_concentration_group_8","monthly_spend_slope_18","txn_burstiness_19","log_amount_mean_28","power_ratio13","monthly_avg_spend_group_3_neg","rank_total_10.0","outlier_count_group_8","high_to_low_spend_ratio_group_9","week_series_category_25_trend","dominant_freq22","amount_median_6","amount_min_2","txn_positive_ratio_1","amount_min_4","amount_max_group_2","rank_total_26.0","outlier_count_4","rank_pos_3.0","total_balance_x","low_dollar_txn_pct_12_neg","log_amount_mean_21","power_ratio24","amount_cv_group_2","monthly_avg_spend_20","pct_amount_total_3.0","weekly_spend_slope_26","log_amount_mean_14","amount_cv_group_10_neg","monthly_spend_slope_0_pos","weekly_avg_spend_16","weekday_spend_std_35","txn_gap_iqr_22","monthly_avg_spend_11_pos","high_to_low_spend_ratio_22","amount_skew_group_1","amount_gini_18","high_freq_power1","week_series_category_13_trend","amount_kurtosis_17","amount_max_22","amount_skew_group_3","net_spending_ratio_1","amount_median_15","amount_std_19","txn_active_day_pct_group_10","txn_gap_iqr_20","power_ratio17","week_series_category_6_trend","txn_burstiness_13","monthly_txn_freq_18","power_ratio1","amount_cv_1_neg","log_amount_mean_18","txn_duration_days_2","amount_std_group_10","weekday_spend_std_group_9_neg","cat_concentration_group_2","amount_skew_7","amount_kurtosis_4","high_freq_power15","power_ratio11","monthly_txn_freq_group_9_neg","dominant_powerovr","high_to_low_spend_ratio_7","amount_mean_12_neg","week_series_category_2_trend","monthly_txn_freq_13","pct_amount_total_26.0","monthly_spend_slope_group_8","dominant_freq24","week_series_category_20_trend","rank_neg_17.0","monthly_spend_slope_26","weekly_txn_freq_group_6","dominant_power23","weekend_spend_pct_group_10_neg","cat_concentration_group_6","amount_std_3_pos","dominant_power1","weekly_avg_spend_0","monthly_txn_freq_group_1","amount_min_18","week_series_category_23_trend"],"feature_types":["float","float","float","float","float","float","float","float","float","float","float","float","float","float","float","float","float","float","float","float","float","float","float","float","float","float","float","float","float","float","float","float","float","float","float","float","float","float","float","float","float","float","float","float","float","float","float","float","float","float","float","float","float","float","float","float","float","float","float","float","float","float","float","float","float","float","float","float","float","float","float","float","float","float","float","float","float","float","float","float","float","float","float","float","float","float","float","float","float","float","float","float","float","float","float","float","float","float","float","float","float","float","float","float","float","float","float","float","float","float","float","float","float","float","float","float","float","float","float","float","float","float","float","float","float"],"gradient_booster":{"model":{"gbtree_model_param":{"num_parallel_tree":"1","num_trees":"222"},"iteration_indptr":[0,1,2,3,4,5,6,7,8,9,10,11,12,13,14,15,16,17,18,19,20,21,22,23,24,25,26,27,28,29,30,31,32,33,34,35,36,37,38,39,40,41,42,43,44,45,46,47,48,49,50,51,52,53,54,55,56,57,58,59,60,61,62,63,64,65,66,67,68,69,70,71,72,73,74,75,76,77,78,79,80,81,82,83,84,85,86,87,88,89,90,91,92,93,94,95,96,97,98,99,100,101,102,103,104,105,106,107,108,109,110,111,112,113,114,115,116,117,118,119,120,121,122,123,124,125,126,127,128,129,130,131,132,133,134,135,136,137,138,139,140,141,142,143,144,145,146,147,148,149,150,151,152,153,154,155,156,157,158,159,160,161,162,163,164,165,166,167,168,169,170,171,172,173,174,175,176,177,178,179,180,181,182,183,184,185,186,187,188,189,190,191,192,193,194,195,196,197,198,199,200,201,202,203,204,205,206,207,208,209,210,211,212,213,214,215,216,217,218,219,220,221,222],"tree_info":[0,0,0,0,0,0,0,0,0,0,0,0,0,0,0,0,0,0,0,0,0,0,0,0,0,0,0,0,0,0,0,0,0,0,0,0,0,0,0,0,0,0,0,0,0,0,0,0,0,0,0,0,0,0,0,0,0,0,0,0,0,0,0,0,0,0,0,0,0,0,0,0,0,0,0,0,0,0,0,0,0,0,0,0,0,0,0,0,0,0,0,0,0,0,0,0,0,0,0,0,0,0,0,0,0,0,0,0,0,0,0,0,0,0,0,0,0,0,0,0,0,0,0,0,0,0,0,0,0,0,0,0,0,0,0,0,0,0,0,0,0,0,0,0,0,0,0,0,0,0,0,0,0,0,0,0,0,0,0,0,0,0,0,0,0,0,0,0,0,0,0,0,0,0,0,0,0,0,0,0,0,0,0,0,0,0,0,0,0,0,0,0,0,0,0,0,0,0,0,0,0,0,0,0,0,0,0,0,0,0,0,0,0,0,0,0,0,0,0,0,0,0],"trees":[{"base_weights":[-2.5853554E-3,8.271678E-1,-5.4554385E-1,1.1224438E0,-4.614625E-1,1.13341615E-1,-9.202708E-1,-8.792711E-3,1.1770561E0,5.457184E-1,-1.5169011E0,-2.5150394E-1,1.0172755E0,-5.1172805E-1,-1.641905E0,-8.551525E-3,1.2237197E0,-8.997232E-3,1.0929233E0,-9.833347E-3,8.372942E-3,4.078317E-1,-1.2216895E0,-8.903865E-3,1.337966E0,-8.037489E-1,7.424444E-1,-1.85786E0,3.0920783E-1,1.2656907E0,-8.3575435E-3,8.027308E-3,-1.0663297E-1,-9.3706865E-3,7.14369E-1,3.3731404E-1,-9.893901E-3,3.0920783E-1,1.6377835E0,-1.1056266E0,4.3496928E-1,1.1113509E0,-8.792711E-3,-4.0328598E-1,-1.0003932E-2,7.963874E-3,-8.658156E-3,1.326556E0,5.6728024E-2,-8.551525E-3,7.6156524E-3,9.2424417E-1,-8.869026E-3,-9.02512E-3,7.581078E-3,-8.706049E-3,8.354127E-3,2.4674921E-3,9.0822335E-3,3.887852E-1,-1.5955033E0,8.504468E-3,-1.0384529E0,8.2017906E-2,8.476104E-3,7.6156524E-3,-8.93674E-3,7.528476E-1,1.500108E0,-8.903865E-3,6.8863793E-3,-8.427483E-3,1.0940435E0,-9.345454E-3,1.1909305E0,4.4249764E-1,-1.8385278E0,8.372942E-3,-9.530464E-3,-8.967814E-3,7.963874E-3,5.3146896E-3,-9.02512E-3,1.6126826E0,8.32004E-1,-4.569917E-1,1.3810829E0,-0E0,8.183613E-3,7.963874E-3,-8.427483E-3,-9.997863E-3,5.6759883E-3,1.645481E0,2.4674921E-3,-8.706049E-3,1.3390703E0,-9.02512E-3,8.372942E-3,1.639148E0,3.7398103E-1,-8.3575435E-3,8.372942E-3,8.474297E-3,2.4674921E-3,6.032846E-4,8.669162E-3,9.091643E-3,2.1128505E-3,-8.706049E-3,9.187594E-3],"categories":[],"categories_nodes":[],"categories_segments":[],"categories_sizes":[],"default_left":[0,0,0,0,0,0,0,0,0,0,0,0,0,0,0,0,0,0,0,0,0,0,0,0,0,0,0,0,0,0,0,0,0,0,0,0,0,0,0,0,0,0,0,0,0,0,0,0,0,0,0,0,0,0,0,0,0,0,0,0,0,0,0,0,0,0,0,0,0,0,0,0,0,0,0,0,0,0,0,0,0,0,0,0,0,0,0,0,0,0,0,0,0,0,0,0,0,0,0,0,0,0,0,0,0,0,0,0,0,0,0],"id":0,"left_children":[1,3,5,7,9,11,13,-1,15,17,19,21,23,25,27,-1,29,-1,31,-1,-1,33,35,-1,37,39,41,43,45,47,-1,-1,49,-1,51,53,-1,55,57,59,61,63,-1,65,-1,-1,-1,67,69,-1,-1,71,-1,-1,-1,-1,-1,-1,-1,73,75,-1,77,79,-1,-1,-1,81,83,-1,-1,-1,85,-1,87,89,91,-1,-1,-1,-1,-1,-1,93,95,97,99,101,-1,-1,-1,-1,-1,103,-1,-1,105,-1,-1,107,109,-1,-1,-1,-1,-1,-1,-1,-1,-1,-1],"loss_changes":[5.8943475E2,1.975899E2,1.9613438E2,6.681421E1,1.03693085E2,9.533332E1,1.4687802E2,0E0,5.6460876E1,6.3696487E1,6.773033E1,1.3158772E2,7.540665E1,1.1919396E2,7.810687E1,0E0,5.0368713E1,0E0,2.5555481E1,0E0,0E0,8.44598E1,9.773902E1,0E0,2.1419357E1,9.946367E1,5.6764336E1,2.7786865E1,4.8692223E1,2.8562622E1,0E0,0E0,3.2800587E1,0E0,5.638386E1,6.8477974E1,0E0,5.194019E1,8.521362E0,1.5708035E2,9.68441E1,3.015641E1,0E0,3.9427765E1,0E0,0E0,0E0,3.573767E1,5.0232998E1,0E0,0E0,4.4836067E1,0E0,0E0,0E0,0E0,0E0,0E0,0E0,9.559069E1,8.11792E1,0E0,5.691586E1,5.8160137E1,0E0,0E0,0E0,7.044559E1,1.9321594E1,0E0,0E0,0E0,4.321489E1,0E0,2.0340527E1,4.315689E1,6.3594025E1,0E0,0E0,0E0,0E0,0E0,0E0,7.057495E0,5.8768513E1,4.382728E1,1.9008255E1,3.2233383E1,0E0,0E0,0E0,0E0,0E0,7.6106567E0,0E0,0E0,1.5950211E1,0E0,0E0,1.0501953E1,5.618307E1,0E0,0E0,0E0,0E0,0E0,0E0,0E0,0E0,0E0,0E0],"parents":[2147483647,0,0,1,1,2,2,3,3,4,4,5,5,6,6,8,8,9,9,10,10,11,11,12,12,13,13,14,14,16,16,18,18,21,21,22,22,24,24,25,25,26,26,27,27,28,28,29,29,32,32,34,34,35,35,37,37,38,38,39,39,40,40,41,41,43,43,47,47,48,48,51,51,59,59,60,60,62,62,63,63,67,67,68,68,72,72,74,74,75,75,76,76,83,83,84,84,85,85,86,86,87,87,93,93,96,96,99,99,100,100],"right_children":[2,4,6,8,10,12,14,-1,16,18,20,22,24,26,28,-1,30,-1,32,-1,-1,34,36,-1,38,40,42,44,46,48,-1,-1,50,-1,52,54,-1,56,58,60,62,64,-1,66,-1,-1,-1,68,70,-1,-1,72,-1,-1,-1,-1,-1,-1,-1,74,76,-1,78,80,-1,-1,-1,82,84,-1,-1,-1,86,-1,88,90,92,-1,-1,-1,-1,-1,-1,94,96,98,100,102,-1,-1,-1,-1,-1,104,-1,-1,106,-1,-1,108,110,-1,-1,-1,-1,-1,-1,-1,-1,-1,-1],"split_conditions":[2.350342E2,6.9950502E-3,3.1533806E0,-3.9084274E1,3.5453213E1,5.508982E-1,2.17E0,-8.792711E-3,-2.5595462E-1,1.8925E1,1E0,3E2,-1.2481741E2,1.9517681E-1,6.4193326E-1,-8.551525E-3,1.0246E2,-8.997232E-3,-6.167121E1,-9.833347E-3,8.372942E-3,-4.7314037E-2,-2.4384917E2,-8.903865E-3,-1.5E0,4E0,1.8384777E-1,-8.6554E2,5.629E1,1.148961E-2,-8.3575435E-3,8.027308E-3,6.4287984E-1,-9.3706865E-3,1.7804854E-1,-2.7568332E2,-9.893901E-3,3.5E1,2.2727273E0,-1.06732175E-1,-2.8E1,-5.42545E1,-8.792711E-3,7.440678E6,-1.0003932E-2,7.963874E-3,-8.658156E-3,4E0,7.060865E-1,-8.551525E-3,7.6156524E-3,-1.0038E2,-8.869026E-3,-9.02512E-3,7.581078E-3,-8.706049E-3,8.354127E-3,2.4674921E-3,9.0822335E-3,-6.537405E-1,-1.2057734E0,8.504468E-3,-1.99E1,1.6249922E-1,8.476104E-3,7.6156524E-3,-8.93674E-3,3.407E1,1.3412872E1,-8.903865E-3,6.8863793E-3,-8.427483E-3,2E0,-9.345454E-3,2.9E1,2E-2,9.3724895E-1,8.372942E-3,-9.530464E-3,-8.967814E-3,7.963874E-3,5.3146896E-3,-9.02512E-3,7.4011E2,3.6950319E-3,8.250341E0,1.418919E-1,2.362002E-1,8.183613E-3,7.963874E-3,-8.427483E-3,-9.997863E-3,5.6759883E-3,4.1872487E0,2.4674921E-3,-8.706049E-3,7.432024E-1,-9.02512E-3,8.372942E-3,4.1973493E-7,1.637697E-1,-8.3575435E-3,8.372942E-3,8.474297E-3,2.4674921E-3,6.032846E-4,8.669162E-3,9.091643E-3,2.1128505E-3,-8.706049E-3,9.187594E-3],"split_indices":[1,19,40,65,17,54,55,0,70,52,41,60,32,88,41,0,55,0,32,0,0,89,32,0,12,59,11,123,60,124,0,0,28,0,45,32,0,35,103,124,81,32,0,78,0,0,0,16,27,0,0,84,0,0,0,0,0,0,0,82,31,0,56,49,0,0,0,60,43,0,0,0,103,0,35,55,28,0,0,0,0,0,0,60,9,22,51,15,0,0,0,0,0,40,0,0,98,0,0,9,45,0,0,0,0,0,0,0,0,0,0],"split_type":[0,0,0,0,0,0,0,0,0,0,0,0,0,0,0,0,0,0,0,0,0,0,0,0,0,0,0,0,0,0,0,0,0,0,0,0,0,0,0,0,0,0,0,0,0,0,0,0,0,0,0,0,0,0,0,0,0,0,0,0,0,0,0,0,0,0,0,0,0,0,0,0,0,0,0,0,0,0,0,0,0,0,0,0,0,0,0,0,0,0,0,0,0,0,0,0,0,0,0,0,0,0,0,0,0,0,0,0,0,0,0],"sum_hessian":[1.3075574E3,5.165126E2,7.910448E2,4.207614E2,9.575117E1,2.8621936E2,5.0482544E2,7.2499847E0,4.135114E2,4.878678E1,4.6964382E1,2.0364575E2,8.25736E1,3.2368237E2,1.8114307E2,5.9999876E0,4.0751144E2,8.749982E0,4.00368E1,4.1749912E1,5.21447E0,1.2100248E2,8.264327E1,7.9999833E0,7.4573616E1,2.6321667E2,6.046572E1,1.6346414E2,1.7678925E1,4.0226144E2,5.249989E0,2.8572344E1,1.1464457E1,1.3749971E1,1.0725251E2,2.6393387E1,5.624988E1,1.7678925E1,5.6894688E1,2.1217989E2,5.1036777E1,5.3215736E1,7.2499847E0,1.3714452E1,1.497497E2,1.1178938E1,6.4999866E0,3.8233252E2,1.992892E1,5.9999876E0,5.4644694E0,9.9502525E1,7.749984E0,8.999981E0,1.7393406E1,6.7499857E0,1.0928939E1,7.964464E0,4.8930225E1,5.2036777E1,1.6014311E2,2.7822346E1,2.3214432E1,1.967892E1,3.3536816E1,5.4644694E0,8.249983E0,9.057358E1,2.9175894E2,7.9999833E0,1.1928937E1,5.4999886E0,9.400253E1,1.3249972E1,3.8786804E1,1.6678926E1,1.4346419E2,5.21447E0,1.7999962E1,8.499982E0,1.1178938E1,8.15736E1,8.999981E0,2.4797215E2,4.3786793E1,1.4214451E1,7.9788086E1,1.0464459E1,2.8322346E1,1.1178938E1,5.4999886E0,1.3724971E2,6.214468E0,2.4000769E2,7.964464E0,6.7499857E0,3.7036808E1,8.999981E0,5.21447E0,6.2609158E1,1.7178926E1,5.249989E0,5.21447E0,2.3204323E2,7.964464E0,9.464461E0,2.7572346E1,5.4394695E1,8.214463E0,6.7499857E0,1.042894E1],"tree_param":{"num_deleted":"0","num_feature":"125","num_nodes":"111","size_leaf_vector":"1"}},{"base_weights":[2.4371245E-3,8.644996E-1,-5.922907E-1,1.0494376E0,-1.072875E0,1.583833E-1,-1.0522933E0,-9.0608625E-3,1.1099474E0,-9.724995E-3,4.290589E-3,-4.738408E-1,7.017117E-1,6.816416E-2,-1.2739216E0,-8.841571E-3,1.159833E0,5.146624E-1,-1.3873633E0,9.359402E-1,-9.296638E-3,-9.507712E-3,6.866419E-1,-1.4317051E0,4.9211687E-1,1.199603E0,-8.536477E-3,1.2269293E0,-9.375496E-3,-9.8610725E-3,5.943195E-3,-8.933678E-3,1.1124687E0,-9.105105E-3,1.2130656E0,4.1241962E-2,-1.6633954E0,1.4643478E0,-9.032836E-3,1.2386453E0,-8.468334E-3,-1.4458208E-1,8.311538E-3,-8.390569E-3,1.2384695E0,-1.4318316E-1,1.6273271E0,-1.1924812E0,7.937325E-3,-1.7774205E0,-0E0,2.4574865E-3,9.469723E-3,1.4011477E0,7.2338E-1,-8.624373E-3,8.335276E-3,-0E0,1.465824E0,8.336125E-3,-8.612908E-3,9.454602E-3,2.4580457E-3,8.33711E-3,-9.599021E-3,-1.9071208E0,-1.9685754E-1,7.2395266E-3,-9.008587E-3,9.9374443E-1,1.5802928E0,-9.335854E-3,1.084273E0,-9.0672495E-3,7.926268E-3,1.5966017E0,9.175601E-5,-8.9588E-1,-9.985725E-3,-9.258865E-3,7.930852E-3,6.45435E-3,-9.089584E-3,1.6314561E0,7.130703E-1,1.3383993E0,-8.849142E-3,1.6953908E0,1.819404E-3,7.5848685E-3,-9.373031E-3,8.672071E-3,4.758819E-3,8.334821E-3,3.3687337E-4,7.5992355E-3,-0E0,8.986581E-3,2.8250455E-3],"categories":[],"categories_nodes":[],"categories_segments":[],"categories_sizes":[],"default_left":[0,0,0,0,0,0,0,0,0,0,0,0,0,0,0,0,0,0,0,0,0,0,0,0,0,0,0,0,0,0,0,0,0,0,0,0,0,0,0,0,0,0,0,0,0,0,0,0,0,0,0,0,0,0,0,0,0,0,0,0,0,0,0,0,0,0,0,0,0,0,0,0,0,0,0,0,0,0,0,0,0,0,0,0,0,0,0,0,0,0,0,0,0,0,0,0,0,0,0],"id":1,"left_children":[1,3,5,7,9,11,13,-1,15,-1,-1,17,19,21,23,-1,25,27,29,31,-1,-1,33,35,37,39,-1,41,-1,-1,-1,-1,43,-1,45,47,49,51,-1,53,-1,55,-1,-1,57,59,61,63,-1,65,67,-1,-1,69,71,-1,-1,73,75,-1,-1,-1,-1,-1,-1,77,79,-1,-1,81,83,-1,85,-1,-1,87,-1,89,-1,-1,-1,-1,-1,91,93,95,-1,97,-1,-1,-1,-1,-1,-1,-1,-1,-1,-1,-1],"loss_changes":[6.855054E2,1.9638672E2,2.737321E2,8.671991E1,8.010625E1,1.03521385E2,1.2284204E2,0E0,7.074762E1,0E0,0E0,1.2618175E2,9.720294E1,9.788677E1,1.15492065E2,0E0,5.5556458E1,1.1354257E2,1.0779242E2,7.213249E1,0E0,0E0,8.271118E1,1.3000311E2,7.627616E1,5.4446106E1,0E0,3.1230362E1,0E0,0E0,0E0,0E0,5.0249954E1,0E0,3.0523163E1,9.874332E1,6.195587E1,7.448124E0,0E0,3.7131958E1,0E0,3.653341E1,0E0,0E0,3.826593E1,3.6486126E1,9.054985E0,6.0002853E1,0E0,6.0817993E1,5.687052E1,0E0,0E0,2.3041748E1,1.0762154E2,0E0,0E0,6.270308E1,2.0439163E1,0E0,0E0,0E0,0E0,0E0,0E0,1.758081E1,7.2498215E1,0E0,0E0,9.032877E1,8.371643E0,0E0,7.445149E1,0E0,0E0,1.0833496E1,0E0,5.016617E1,0E0,0E0,0E0,0E0,0E0,1.0939087E1,8.089075E0,2.1251999E1,0E0,7.074768E0,0E0,0E0,0E0,0E0,0E0,0E0,0E0,0E0,0E0,0E0,0E0],"parents":[2147483647,0,0,1,1,2,2,3,3,4,4,5,5,6,6,8,8,11,11,12,12,13,13,14,14,16,16,17,17,18,18,19,19,22,22,23,23,24,24,25,25,27,27,32,32,34,34,35,35,36,36,37,37,39,39,41,41,44,44,45,45,46,46,47,47,49,49,50,50,53,53,54,54,57,57,58,58,65,65,66,66,69,69,70,70,72,72,75,75,77,77,83,83,84,84,85,85,87,87],"right_children":[2,4,6,8,10,12,14,-1,16,-1,-1,18,20,22,24,-1,26,28,30,32,-1,-1,34,36,38,40,-1,42,-1,-1,-1,-1,44,-1,46,48,50,52,-1,54,-1,56,-1,-1,58,60,62,64,-1,66,68,-1,-1,70,72,-1,-1,74,76,-1,-1,-1,-1,-1,-1,78,80,-1,-1,82,84,-1,86,-1,-1,88,-1,90,-1,-1,-1,-1,-1,92,94,96,-1,98,-1,-1,-1,-1,-1,-1,-1,-1,-1,-1,-1],"split_conditions":[2.383619E2,1.9443318E-2,3.145754E0,-2.5595462E-1,-1.3E-1,-9.57E0,2.22619E0,-9.0608625E-3,-3.2482708E-1,-9.724995E-3,4.290589E-3,-2.3E1,3.4051018E0,-8.70342E-1,7.659575E-1,-8.841571E-3,3.832053E-1,7.044293E-1,4.4E1,-5.4419427E0,-9.296638E-3,-9.507712E-3,6.3556666E0,6E-2,1E-2,6.842105E-2,-8.536477E-3,5.5652175E0,-9.375496E-3,-9.8610725E-3,5.943195E-3,-8.933678E-3,-2.3458748E2,-9.105105E-3,1.7379582E-2,-4E-1,2.4615386E0,1.7621661E0,-9.032836E-3,1.029E2,-8.468334E-3,1.4260249E-1,8.311538E-3,-8.390569E-3,4.0335428E2,4.9842997E-3,8.56E0,8.571429E-2,7.937325E-3,2.50036E0,1E0,2.4574865E-3,9.469723E-3,1.8181819E-1,1.9388783E0,-8.624373E-3,8.335276E-3,2.407933E0,1.9105558E-1,8.336125E-3,-8.612908E-3,9.454602E-3,2.4580457E-3,8.33711E-3,-9.599021E-3,7.440678E6,2.1768554E-1,7.2395266E-3,-9.008587E-3,2.55E0,2.3635182E0,-9.335854E-3,5.2E2,-9.0672495E-3,7.926268E-3,3.555269E0,9.175601E-5,-2.3752167E0,-9.985725E-3,-9.258865E-3,7.930852E-3,6.45435E-3,-9.089584E-3,8.623482E-1,3.4142137E4,1.2937293E9,-8.849142E-3,7.5438595E-1,1.819404E-3,7.5848685E-3,-9.373031E-3,8.672071E-3,4.758819E-3,8.334821E-3,3.3687337E-4,7.5992355E-3,-0E0,8.986581E-3,2.8250455E-3],"split_indices":[1,19,40,70,56,21,5,0,67,0,0,81,44,82,54,0,82,98,35,109,0,0,80,53,55,111,0,91,0,0,0,0,32,0,110,21,8,29,0,60,0,51,0,0,96,25,53,86,0,112,122,0,0,54,5,0,0,29,92,0,0,0,0,0,0,78,92,0,0,60,29,0,95,0,0,94,0,69,0,0,0,0,0,98,0,0,0,118,0,0,0,0,0,0,0,0,0,0,0],"split_type":[0,0,0,0,0,0,0,0,0,0,0,0,0,0,0,0,0,0,0,0,0,0,0,0,0,0,0,0,0,0,0,0,0,0,0,0,0,0,0,0,0,0,0,0,0,0,0,0,0,0,0,0,0,0,0,0,0,0,0,0,0,0,0,0,0,0,0,0,0,0,0,0,0,0,0,0,0,0,0,0,0,0,0,0,0,0,0,0,0,0,0,0,0,0,0,0,0,0,0],"sum_hessian":[1.3354237E3,5.4557904E2,7.898446E2,4.9865155E2,4.692752E1,2.9964218E2,4.9020242E2,9.749669E0,4.889019E2,3.2748768E1,1.4178751E1,1.3789122E2,1.6175095E2,8.0463875E1,4.0973856E2,7.749778E0,4.811521E2,6.596473E1,7.192649E1,1.4875137E2,1.2999578E1,1.8749279E1,6.1714596E1,3.7663144E2,3.3107105E1,4.7515225E2,5.9998536E0,5.1215263E1,1.4749468E1,5.9247856E1,1.2678634E1,8.499716E0,1.4025165E2,1.0249611E1,5.1464985E1,5.082115E1,3.258103E2,2.360748E1,9.499626E0,4.694024E2,5.7498393E0,1.1714225E1,3.950104E1,5.4998155E0,1.3475185E2,1.1714179E1,3.9750805E1,2.7963593E1,2.285756E1,3.04882E2,2.0928322E1,7.964327E0,1.5643152E1,3.5493674E2,1.1446567E2,6.499784E0,5.2144413E0,2.0928509E1,1.1382333E2,5.2144437E0,6.499735E0,3.1786478E1,7.9643273E0,5.214447E0,2.2749146E1,2.812036E2,2.3678368E1,1.1678677E1,9.249644E0,1.1093117E2,2.4400557E2,1.3499647E1,1.0096602E2,9.749679E0,1.117883E1,1.03859055E2,9.96428E0,2.0213867E1,2.6098975E2,1.2499503E1,1.1178864E1,1.0118138E2,9.749787E0,2.2907683E2,1.4928738E1,9.321622E1,7.7498E0,9.539489E1,8.464161E0,5.464441E0,1.4749425E1,2.0121922E2,2.7857607E1,5.21444E0,9.714297E0,8.275194E1,1.0464281E1,8.7680534E1,7.7143593E0],"tree_param":{"num_deleted":"0","num_feature":"125","num_nodes":"99","size_leaf_vector":"1"}},{"base_weights":[-7.366092E-3,5.7764006E-1,-6.7293006E-1,8.2538855E-1,-4.50123E-1,1.0034454E-2,-1.0192637E0,-8.7037826E-1,9.5090586E-1,5.4078716E-1,-1.6207291E0,4.2348674E-1,-1.4769325E0,8.5179824E-1,-1.1635593E0,-9.599075E-3,5.0365455E-3,1.3449295E0,5.971982E-1,1.2088995E0,-9.379454E-3,5.13447E-3,-9.8154405E-3,-9.311232E-3,6.5226084E-1,6.851565E-3,-9.727639E-3,-2.804376E-1,8.902258E-3,-1.3680074E0,5.016095E-1,1.6028847E0,1.0883102E0,-1.01600654E-1,1.0554755E0,1.5231718E0,-8.289867E-3,-9.082556E-3,8.5077196E-1,-8.746492E-3,8.291983E-3,-1.5645859E0,1.9857177E-1,-9.136951E-3,1.4106882E0,8.555324E-3,1.4371562E-3,-8.577944E-3,1.2461121E0,1.0592653E0,-9.8049587E-1,1.2619673E0,-7.1366906E-1,8.936915E-1,9.562678E-3,-8.801068E-3,1.0178125E0,-1.6862215E0,7.119007E-1,1.079381E0,-9.133303E-3,1.1953264E-3,9.346695E-3,9.369081E-3,1.0991085E0,-2.0747486E-1,1.5177712E0,-9.750721E-3,5.4843986E-1,1.4147668E0,-3.185894E-1,8.312661E-3,-9.22933E-3,-0E0,8.70319E-3,1.2314372E0,-5.4276824E-1,-1.7537891E0,7.6260776E-3,3.365211E-4,8.319454E-3,9.141457E-3,-0E0,6.0150297E-3,5.4431264E-4,-8.682981E-3,8.390009E-3,8.942565E-3,2.5007757E-3,-8.475554E-3,6.8423576E-3,8.8955647E-1,1.6911232E0,8.29194E-3,-8.839359E-3,-8.293634E-3,8.296086E-3,1.4090911E0,-2.0947044E-1,-9.042466E-3,8.381083E-3,-1.1848071E-1,-1.8926889E0,8.291983E-3,-8.35901E-3,7.83508E-3,-9.023536E-3,2.8045522E-3,8.995368E-3,1.54759E0,1.2623622E-4,-8.689524E-3,8.376417E-3,8.290754E-3,-9.171692E-3,-9.942147E-3,1.757372E-3,8.396974E-3,1.4584826E-3],"categories":[],"categories_nodes":[],"categories_segments":[],"categories_sizes":[],"default_left":[0,0,0,0,0,0,0,0,0,0,0,0,0,0,0,0,0,0,0,0,0,0,0,0,0,0,0,0,0,0,0,0,0,0,0,0,0,0,0,0,0,0,0,0,0,0,0,0,0,0,0,0,0,0,0,0,0,0,0,0,0,0,0,0,0,0,0,0,0,0,0,0,0,0,0,0,0,0,0,0,0,0,0,0,0,0,0,0,0,0,0,0,0,0,0,0,0,0,0,0,0,0,0,0,0,0,0,0,0,0,0,0,0,0,0,0,0,0,0],"id":2,"left_children":[1,3,5,7,9,11,13,15,17,19,21,23,25,27,29,-1,-1,31,33,35,-1,-1,-1,-1,37,-1,-1,39,-1,41,43,45,47,49,51,53,-1,-1,55,-1,-1,57,59,-1,61,-1,-1,-1,63,65,67,69,71,73,-1,-1,75,77,79,81,-1,-1,-1,-1,83,85,87,-1,89,91,93,-1,-1,95,-1,97,99,101,-1,-1,-1,-1,103,-1,-1,-1,-1,-1,-1,-1,-1,105,107,-1,-1,-1,-1,109,111,-1,-1,113,115,-1,-1,-1,-1,-1,-1,117,-1,-1,-1,-1,-1,-1,-1,-1,-1],"loss_changes":[5.153619E2,1.7970592E2,1.4733911E2,1.21445496E2,1.5970157E2,1.2772338E2,1.1206244E2,7.727896E1,7.183093E1,1.1969333E2,5.616185E1,8.499346E1,5.9866516E1,3.1916471E1,1.3148468E2,0E0,0E0,1.3374207E1,9.080721E1,5.3968536E1,0E0,0E0,0E0,0E0,7.314879E1,0E0,0E0,3.9177216E1,0E0,1.0645648E2,8.951198E1,1.3202942E1,5.741066E1,1.1410803E2,6.3251022E1,9.373413E0,0E0,0E0,6.0925423E1,0E0,0E0,8.569299E1,6.83481E1,0E0,1.4113255E1,0E0,0E0,0E0,7.478485E0,2.8983574E1,9.498653E1,3.8117203E1,4.9067505E1,1.628429E1,0E0,0E0,4.4753616E1,6.433807E1,8.05629E0,2.2555862E1,0E0,0E0,0E0,0E0,8.312645E0,3.8214207E1,7.0653534E0,0E0,4.581559E1,1.7491669E1,4.013805E1,0E0,0E0,3.1691412E1,0E0,3.0835846E1,4.562251E1,6.280237E1,0E0,0E0,0E0,0E0,3.2613964E1,0E0,0E0,0E0,0E0,0E0,0E0,0E0,0E0,9.163861E1,7.1319885E0,0E0,0E0,0E0,0E0,1.873668E1,3.818551E1,0E0,0E0,7.183303E1,4.7821655E1,0E0,0E0,0E0,0E0,0E0,0E0,1.2153519E1,0E0,0E0,0E0,0E0,0E0,0E0,0E0,0E0,0E0],"parents":[2147483647,0,0,1,1,2,2,3,3,4,4,5,5,6,6,7,7,8,8,9,9,10,10,11,11,12,12,13,13,14,14,17,17,18,18,19,19,24,24,27,27,29,29,30,30,31,31,32,32,33,33,34,34,35,35,38,38,41,41,42,42,44,44,48,48,49,49,50,50,51,51,52,52,53,53,56,56,57,57,58,58,59,59,64,64,65,65,66,66,68,68,69,69,70,70,73,73,75,75,76,76,77,77,82,82,91,91,92,92,97,97,98,98,101,101,102,102,109,109],"right_children":[2,4,6,8,10,12,14,16,18,20,22,24,26,28,30,-1,-1,32,34,36,-1,-1,-1,-1,38,-1,-1,40,-1,42,44,46,48,50,52,54,-1,-1,56,-1,-1,58,60,-1,62,-1,-1,-1,64,66,68,70,72,74,-1,-1,76,78,80,82,-1,-1,-1,-1,84,86,88,-1,90,92,94,-1,-1,96,-1,98,100,102,-1,-1,-1,-1,104,-1,-1,-1,-1,-1,-1,-1,-1,106,108,-1,-1,-1,-1,110,112,-1,-1,114,116,-1,-1,-1,-1,-1,-1,118,-1,-1,-1,-1,-1,-1,-1,-1,-1],"split_conditions":[1.6531871E9,4.6146824E-3,1.1E2,-2.3912523E-2,-4.5664424E-1,3.900091E0,-1.907871E0,9.8434925E-2,2.55E0,4.817884E-2,3E0,-4.3049857E-2,2.0089986E0,3.7196836E0,2.8787878E-1,-9.599075E-3,5.0365455E-3,-1.143296E0,4.1412497E-1,8.1495065E-3,-9.379454E-3,5.13447E-3,-9.8154405E-3,-9.311232E-3,-1.3635797E2,6.851565E-3,-9.727639E-3,1.08419E-1,8.902258E-3,8.686941E-1,1.825E1,6.073689E-2,-2.48E0,-1.132284E0,4.0192105E-4,3E0,-8.289867E-3,-9.082556E-3,3.824557E8,-8.746492E-3,8.291983E-3,1.1758179E1,1.6905228E1,-9.136951E-3,3.0416667E0,8.555324E-3,1.4371562E-3,-8.577944E-3,-1.1862847E0,6E0,4.884709E7,3.7006052E0,3.4142137E4,1.2112957E2,9.562678E-3,-8.801068E-3,1.124809E9,1.0000001E0,1.3638723E-1,8.840529E-1,-9.133303E-3,1.1953264E-3,9.346695E-3,9.369081E-3,1.191925E-4,7.5E-1,1.2998676E5,-9.750721E-3,-1.33E0,2.4285715E0,4E0,8.312661E-3,-9.22933E-3,1.0310941E0,8.70319E-3,1.9671486E-1,2E0,-2.236068E-1,7.6260776E-3,3.365211E-4,8.319454E-3,9.141457E-3,1.5748818E8,6.0150297E-3,5.4431264E-4,-8.682981E-3,8.390009E-3,8.942565E-3,2.5007757E-3,-8.475554E-3,6.8423576E-3,2.748353E7,5.237955E1,8.29194E-3,-8.839359E-3,-8.293634E-3,8.296086E-3,6.602651E-2,1.0420231E-1,-9.042466E-3,8.381083E-3,-1.5074817E0,1E1,8.291983E-3,-8.35901E-3,7.83508E-3,-9.023536E-3,2.8045522E-3,8.995368E-3,-3.5722668E1,1.2623622E-4,-8.689524E-3,8.376417E-3,8.290754E-3,-9.171692E-3,-9.942147E-3,1.757372E-3,8.396974E-3,1.4584826E-3],"split_indices":[0,6,60,67,76,5,31,25,60,49,16,67,94,94,61,0,0,69,83,19,0,0,0,0,46,0,0,19,0,83,73,25,12,100,39,59,0,0,2,0,0,72,33,0,30,0,0,0,64,113,104,5,0,33,0,0,18,75,42,83,0,0,0,0,83,61,101,0,12,30,16,0,0,4,0,92,58,20,0,0,0,0,2,0,0,0,0,0,0,0,0,0,116,0,0,0,0,25,25,0,0,100,59,0,0,0,0,0,0,46,0,0,0,0,0,0,0,0,0],"split_type":[0,0,0,0,0,0,0,0,0,0,0,0,0,0,0,0,0,0,0,0,0,0,0,0,0,0,0,0,0,0,0,0,0,0,0,0,0,0,0,0,0,0,0,0,0,0,0,0,0,0,0,0,0,0,0,0,0,0,0,0,0,0,0,0,0,0,0,0,0,0,0,0,0,0,0,0,0,0,0,0,0,0,0,0,0,0,0,0,0,0,0,0,0,0,0,0,0,0,0,0,0,0,0,0,0,0,0,0,0,0,0,0,0,0,0,0,0,0,0],"sum_hessian":[1.3221852E3,7.03123E2,6.1906226E2,5.672385E2,1.3588446E2,2.077755E2,4.1128674E2,3.8425713E1,5.288128E2,7.342588E1,6.2458576E1,1.633157E2,4.445979E1,2.885645E1,3.824303E2,2.4997435E1,1.3428279E1,2.4832083E2,2.80492E2,5.7927444E1,1.549844E1,6.464369E0,5.599421E1,1.4248438E1,1.4906728E2,5.7141666E0,3.874562E1,1.2713298E1,1.614315E1,3.4111032E2,4.1319965E1,1.2074896E2,1.2757188E2,1.1063806E2,1.6985394E2,5.2677948E1,5.249494E0,1.0498776E1,1.385685E2,7.4991183E0,5.2141795E0,3.0350473E2,3.7605606E1,1.1248712E1,3.0071253E1,1.1203487E2,8.714091E0,6.2495227E0,1.2132236E2,4.7249428E1,6.338863E1,1.526404E2,1.7213549E1,2.1142366E1,3.1535582E1,7.7492156E0,1.3081927E2,2.8857666E2,1.4928072E1,2.6606674E1,1.099893E1,8.96409E0,2.1107162E1,2.1107468E1,1.0021489E2,1.2213763E1,3.5035667E1,3.9246593E1,2.4142035E1,1.3967667E2,1.2963729E1,5.2143354E0,1.1999214E1,1.046373E1,1.06786375E1,1.1560591E2,1.5213368E1,2.831122E2,5.464427E0,9.713697E0,5.214374E0,1.5893042E1,1.0713634E1,9.075083E1,9.464052E0,6.9993396E0,5.214423E0,2.7071486E1,7.964181E0,5.999377E0,1.8142658E1,4.999897E1,8.967769E1,5.2141795E0,7.749549E0,5.2495146E0,5.2142153E0,1.0339206E2,1.2213847E1,9.998916E0,5.2144527E0,2.267718E1,2.6043503E2,5.2141795E0,5.4994535E0,4.0499687E1,9.499284E0,7.71402E0,8.196367E1,9.342796E1,9.964098E0,6.999383E0,5.2144637E0,1.0928534E1,1.1748646E1,2.5197124E2,8.463806E0,8.471383E1,8.714135E0],"tree_param":{"num_deleted":"0","num_feature":"125","num_nodes":"119","size_leaf_vector":"1"}},{"base_weights":[-7.237837E-2,7.372587E-1,-5.997885E-1,1.0315361E0,-4.1277952E-2,-8.299524E-1,3.7055337E-1,1.1375519E0,-8.4022343E-1,-1.0835098E0,1.0320342E0,-1.0322193E0,4.976009E-1,-8.2286257E-1,1.072438E0,-8.646674E-3,1.2008321E0,6.8258853E-3,-9.282033E-3,2.7020237E-1,-9.743797E-3,-8.577487E-3,1.3463978E0,-2.9056957E-1,-1.3670892E0,1.1729455E0,-9.399723E-3,-9.6824365E-3,7.2561116E-3,1.2865293E0,-8.492981E-3,-4.9506888E-1,1.279769E0,-8.890094E-3,6.5698246E-3,-2.6465565E-2,1.6547043E0,4.4900754E-1,-1.6103336E0,-1.4596044E0,6.5019806E-3,1.4570516E0,-1.0198789E-1,2.563409E-1,1.5385624E0,-8.9780865E-3,8.360683E-3,1.0091971E0,1.566844E0,-8.400172E-3,8.258435E-3,9.416338E-3,2.0998952E-3,8.4262043E-1,-9.334917E-3,7.5362865E-3,-9.766776E-3,-1.5541775E0,5.855764E-1,1.1278953E-3,8.478161E-3,8.282943E-3,-8.490256E-3,-8.709932E-3,8.743387E-3,8.712997E-3,9.167931E-4,1.1359758E0,-8.729385E-3,8.485516E-3,7.925591E-1,-8.549108E-3,1.0484767E0,-9.885813E-3,-1.0931126E0,-0E0,8.28683E-3,1.2342991E0,-1.154782E-1,8.256767E-3,-8.307978E-3,1.313669E0,-3.6493725E-1,6.7721623E-1,-1.3832595E0,-8.242848E-3,8.250107E-3,9.3000245E-1,7.9899235E-3,8.283619E-3,-8.609457E-3,-2.2037748E-2,1.5526134E0,-8.808078E-3,7.596076E-3,-8.631634E-3,9.074556E-3,-1.5080931E0,6.8210666E-3,5.2016308E-3,3.0308746E-4,-8.386055E-3,8.286559E-3,8.578343E-3,2.0798207E-3,-8.280201E-3,4.60985E-3],"categories":[],"categories_nodes":[],"categories_segments":[],"categories_sizes":[],"default_left":[0,0,0,0,0,0,0,0,0,0,0,0,0,0,0,0,0,0,0,0,0,0,0,0,0,0,0,0,0,0,0,0,0,0,0,0,0,0,0,0,0,0,0,0,0,0,0,0,0,0,0,0,0,0,0,0,0,0,0,0,0,0,0,0,0,0,0,0,0,0,0,0,0,0,0,0,0,0,0,0,0,0,0,0,0,0,0,0,0,0,0,0,0,0,0,0,0,0,0,0,0,0,0,0,0,0,0],"id":3,"left_children":[1,3,5,7,9,11,13,15,17,19,21,23,25,27,29,-1,31,-1,-1,33,-1,-1,35,37,39,41,-1,-1,-1,43,-1,45,47,-1,-1,49,51,53,55,57,-1,59,61,63,65,-1,-1,67,69,-1,-1,-1,-1,71,-1,-1,-1,73,75,-1,-1,-1,-1,-1,-1,-1,-1,77,-1,-1,79,-1,81,-1,83,85,-1,87,89,-1,-1,91,93,95,97,-1,-1,99,-1,-1,-1,101,103,-1,-1,-1,-1,105,-1,-1,-1,-1,-1,-1,-1,-1,-1],"loss_changes":[5.5196155E2,1.1748505E2,1.754971E2,7.432486E1,1.569488E2,1.7096692E2,1.2638511E2,6.429126E1,4.5459354E1,8.3731415E1,6.0242035E1,1.3532483E2,1.3443576E2,1.3984274E2,5.7191277E1,0E0,4.7062866E1,0E0,0E0,5.938171E1,0E0,0E0,2.760073E1,1.700341E2,9.4362854E1,2.4928215E1,0E0,0E0,0E0,2.1483337E1,0E0,4.43795E1,2.2676819E1,0E0,0E0,3.3336197E1,1.1311157E1,1.0062401E2,6.5573685E1,7.217749E1,0E0,1.3356102E1,3.510989E1,5.697875E1,1.6529327E1,0E0,0E0,6.078807E1,1.1438965E1,0E0,0E0,0E0,0E0,5.0468193E1,0E0,0E0,0E0,6.2084473E1,1.0177576E1,0E0,0E0,0E0,0E0,0E0,0E0,0E0,0E0,2.1318893E1,0E0,0E0,4.8092003E1,0E0,3.43329E1,0E0,8.668489E1,3.1319572E1,0E0,1.3633804E1,3.5630474E1,0E0,0E0,2.5245071E1,3.824877E1,6.503586E1,5.0469513E1,0E0,0E0,6.6674194E0,0E0,0E0,0E0,3.338639E1,8.898727E0,0E0,0E0,0E0,0E0,4.6251587E1,0E0,0E0,0E0,0E0,0E0,0E0,0E0,0E0,0E0],"parents":[2147483647,0,0,1,1,2,2,3,3,4,4,5,5,6,6,7,7,8,8,9,9,10,10,11,11,12,12,13,13,14,14,16,16,19,19,22,22,23,23,24,24,25,25,29,29,31,31,32,32,35,35,36,36,37,37,38,38,39,39,41,41,42,42,43,43,44,44,47,47,48,48,53,53,57,57,58,58,67,67,70,70,72,72,74,74,75,75,77,77,78,78,81,81,82,82,83,83,84,84,87,87,91,91,92,92,97,97],"right_children":[2,4,6,8,10,12,14,16,18,20,22,24,26,28,30,-1,32,-1,-1,34,-1,-1,36,38,40,42,-1,-1,-1,44,-1,46,48,-1,-1,50,52,54,56,58,-1,60,62,64,66,-1,-1,68,70,-1,-1,-1,-1,72,-1,-1,-1,74,76,-1,-1,-1,-1,-1,-1,-1,-1,78,-1,-1,80,-1,82,-1,84,86,-1,88,90,-1,-1,92,94,96,98,-1,-1,100,-1,-1,-1,102,104,-1,-1,-1,-1,106,-1,-1,-1,-1,-1,-1,-1,-1,-1],"split_conditions":[2.383619E2,1.029E2,1.2049117E-1,6.769042E-3,3.555248E-2,2.4253732E-1,3E1,-2.158533E-1,5.145631E-1,1.9373355E6,1.6923077E0,2E-2,3.5241E2,2.7586207E-1,3.3613634E0,-8.646674E-3,-2.3912523E-2,6.8258853E-3,-9.282033E-3,7.5845E-2,-9.743797E-3,-8.577487E-3,1.3934836E0,1.598E1,1E0,3.383334E7,-9.399723E-3,-9.6824365E-3,7.2561116E-3,2.25E2,-8.492981E-3,2.3978953E0,5E-1,-8.890094E-3,6.5698246E-3,4.566745E-3,1.2937293E9,3.4283912E0,1.701015E1,5.147238E-1,6.5019806E-3,4.1910672E2,-3.62E-1,1E0,1.4546608E2,-8.9780865E-3,8.360683E-3,8.623482E-1,1.2629804E1,-8.400172E-3,8.258435E-3,9.416338E-3,2.0998952E-3,1.1191631E2,-9.334917E-3,7.5362865E-3,-9.766776E-3,5.6E0,6.223236E2,1.1278953E-3,8.478161E-3,8.282943E-3,-8.490256E-3,-8.709932E-3,8.743387E-3,8.712997E-3,9.167931E-4,2.254123E-1,-8.729385E-3,8.485516E-3,-1.7629863E0,-8.549108E-3,6.073689E-2,-9.885813E-3,2.8255734E7,5.2E1,8.28683E-3,2.0459963E1,-4.8789527E-2,8.256767E-3,-8.307978E-3,4.8928554E8,5.397063E2,4.001E1,4.4456577E0,-8.242848E-3,8.250107E-3,1.3606912E-1,7.9899235E-3,8.283619E-3,-8.609457E-3,5.4757434E-1,8E-1,-8.808078E-3,7.596076E-3,-8.631634E-3,9.074556E-3,9.3793374E-1,6.8210666E-3,5.2016308E-3,3.0308746E-4,-8.386055E-3,8.286559E-3,8.578343E-3,2.0798207E-3,-8.280201E-3,4.60985E-3],"split_indices":[1,60,42,124,42,38,52,70,98,104,30,55,60,61,68,0,67,0,0,25,0,0,29,52,61,101,0,0,0,95,0,29,55,0,0,4,0,94,17,15,0,1,42,7,17,0,0,98,43,0,0,0,0,17,0,0,0,103,17,0,0,0,0,0,0,0,0,75,0,0,64,0,25,0,78,35,0,17,4,0,0,0,121,52,23,0,0,86,0,0,0,10,98,0,0,0,0,102,0,0,0,0,0,0,0,0,0],"split_type":[0,0,0,0,0,0,0,0,0,0,0,0,0,0,0,0,0,0,0,0,0,0,0,0,0,0,0,0,0,0,0,0,0,0,0,0,0,0,0,0,0,0,0,0,0,0,0,0,0,0,0,0,0,0,0,0,0,0,0,0,0,0,0,0,0,0,0,0,0,0,0,0,0,0,0,0,0,0,0,0,0,0,0,0,0,0,0,0,0,0,0,0,0,0,0,0,0,0,0,0,0,0,0,0,0,0,0],"sum_hessian":[1.2915879E3,5.0882004E2,7.827678E2,3.697996E2,1.3902045E2,6.333907E2,1.4937717E2,3.5058752E2,1.921206E1,7.0882515E1,6.813793E1,5.502564E2,8.3134254E1,5.488359E1,9.4493576E1,6.99876E0,3.4358878E2,5.7137847E0,1.3498277E1,2.71398E1,4.3742718E1,6.499124E0,6.163881E1,1.7222527E2,3.7803116E2,6.513845E1,1.7995802E1,3.724221E1,1.764138E1,8.824488E1,6.248695E0,1.47128525E1,3.2887592E2,8.748312E0,1.8391487E1,1.0962889E1,5.067592E1,1.10273705E2,6.195156E1,3.6585315E2,1.2178E1,5.3675743E1,1.1462708E1,1.8177135E1,7.006775E1,9.498372E0,5.214481E0,1.7209888E2,1.5677704E2,5.749084E0,5.213805E0,4.2462254E1,8.213667E0,9.477667E1,1.5497029E1,5.4640346E0,5.6487526E1,3.5017645E2,1.5676678E1,8.963214E0,4.471253E1,5.2140937E0,6.2486153E0,7.49827E0,1.0678865E1,6.085427E1,9.213479E0,1.650995E2,6.9993796E0,1.3488553E2,2.1891521E1,6.498708E0,8.827797E1,1.8420819E2,1.6596828E2,1.0462546E1,5.214132E0,1.5363591E2,1.1463587E1,1.664199E1,5.2495313E0,7.4814865E1,1.3463105E1,2.2890066E1,1.430782E2,5.248857E0,5.213689E0,8.456813E1,6.906779E1,5.2141004E0,6.2494864E0,1.0962992E1,6.385187E1,7.998704E0,5.4644017E0,6.998432E0,1.5891634E1,1.3736458E2,5.713619E0,7.4854744E1,9.713384E0,5.7488623E0,5.2141294E0,5.5638863E1,8.213007E0,1.3065051E2,6.714078E0],"tree_param":{"num_deleted":"0","num_feature":"125","num_nodes":"107","size_leaf_vector":"1"}},{"base_weights":[-1.8529072E-2,8.048895E-1,-5.514745E-1,9.8707014E-1,-2.8162944E-1,1.12769485E-1,-9.2186916E-1,-9.026757E-3,1.0551865E0,7.907652E-1,-9.579431E-3,-1.0427719E0,4.8008582E-1,-1.2747421E0,-2.8047198E-1,1.18265E0,1.9073683E-1,1.458866E0,-8.87197E-3,-9.693532E-3,6.237217E-1,6.3772404E-1,-9.202373E-3,-1.5225015E0,2.256215E-1,8.675108E-1,-9.129501E-1,5.487669E-1,1.3983229E0,-9.355365E-3,1.0624166E0,9.24627E-3,1.122997E-3,-8.605049E-3,8.515449E-3,8.370802E-1,-9.683434E-1,-1.7915198E0,4.8036066E-1,-9.165845E-3,1.0364782E0,1.275119E0,-8.782312E-3,-1.3266528E0,1.186481E0,7.660129E-1,-8.78776E-3,1.4559739E0,-0E0,-8.283457E-3,1.5104165E0,-8.725572E-3,9.60523E-1,-9.356515E-3,8.300812E-3,-1.8700671E0,3.5852266E-3,-8.972064E-3,7.737043E-3,8.2440805E-3,-9.272306E-2,-2.1615122E-2,8.059894E-3,5.126366E-3,-1.7028074E0,9.12966E-3,1.4537253E-3,9.77346E-1,-3.6589226E-1,1.5018225E0,5.3583505E-4,-8.330297E-3,8.219468E-3,2.4300837E-3,8.916765E-3,1.0504841E0,-8.214795E-3,-9.851965E-3,-9.492024E-2,-8.458918E-3,8.3412845E-3,-8.332233E-3,8.231556E-3,-9.768772E-3,8.305255E-3,3.8130423E-3,8.480693E-3,-8.793704E-3,8.264476E-3,1.1286108E-3,1.5437822E0,1.2654648E0,2.4510819E-1,-8.440046E-3,8.295885E-3,1.5816734E0,1.7178683E-3,1.4264302E0,-2.3084225E-1,7.5062276E-3,-9.200015E-3,8.2352385E-3,3.6025967E-3,2.553042E-3,7.855222E-3,-8.650163E-3,8.4066875E-3],"categories":[],"categories_nodes":[],"categories_segments":[],"categories_sizes":[],"default_left":[0,0,0,0,0,0,0,0,0,0,0,0,0,0,0,0,0,0,0,0,0,0,0,0,0,0,0,0,0,0,0,0,0,0,0,0,0,0,0,0,0,0,0,0,0,0,0,0,0,0,0,0,0,0,0,0,0,0,0,0,0,0,0,0,0,0,0,0,0,0,0,0,0,0,0,0,0,0,0,0,0,0,0,0,0,0,0,0,0,0,0,0,0,0,0,0,0,0,0,0,0,0,0,0,0,0,0],"id":4,"left_children":[1,3,5,7,9,11,13,-1,15,17,-1,19,21,23,25,27,29,31,-1,-1,33,35,-1,37,39,41,43,45,47,-1,49,-1,-1,-1,-1,51,53,55,57,-1,59,61,-1,63,65,67,-1,69,71,-1,73,-1,75,-1,-1,77,-1,-1,-1,-1,79,81,-1,-1,83,-1,-1,85,87,89,-1,-1,-1,-1,-1,91,-1,-1,93,-1,-1,-1,-1,-1,-1,-1,-1,-1,-1,-1,95,97,99,-1,-1,101,-1,103,105,-1,-1,-1,-1,-1,-1,-1,-1],"loss_changes":[5.7984467E2,1.0339456E2,1.982219E2,8.481497E1,1.3085454E2,1.2182784E2,1.1546423E2,0E0,4.676477E1,7.7880684E1,0E0,1.0285468E2,7.937882E1,1.2464636E2,1.3469815E2,4.9774048E1,1.03010475E2,1.4953545E1,0E0,0E0,6.137462E1,6.625667E1,0E0,1.5538226E2,7.877062E1,7.074075E1,1.0519963E2,4.8854713E1,2.3522095E1,0E0,5.1023838E1,0E0,0E0,0E0,0E0,5.8682144E1,5.4444267E1,5.1273987E1,8.243689E1,0E0,2.452198E1,2.5217285E1,0E0,9.038109E1,9.179306E0,2.2254704E1,0E0,1.5418335E1,3.2219337E1,0E0,7.2388916E0,0E0,4.1625854E1,0E0,0E0,3.473419E1,0E0,0E0,0E0,0E0,3.5209892E1,3.294756E1,0E0,0E0,7.076814E1,0E0,0E0,9.334724E0,4.0775497E1,1.2443909E1,0E0,0E0,0E0,0E0,0E0,2.8231094E1,0E0,0E0,3.4943356E1,0E0,0E0,0E0,0E0,0E0,0E0,0E0,0E0,0E0,0E0,0E0,9.70282E0,3.334105E1,9.788055E1,0E0,0E0,8.369812E0,0E0,1.2630661E1,3.869398E1,0E0,0E0,0E0,0E0,0E0,0E0,0E0,0E0],"parents":[2147483647,0,0,1,1,2,2,3,3,4,4,5,5,6,6,8,8,9,9,11,11,12,12,13,13,14,14,15,15,16,16,17,17,20,20,21,21,23,23,24,24,25,25,26,26,27,27,28,28,30,30,35,35,36,36,37,37,38,38,40,40,41,41,43,43,44,44,45,45,47,47,48,48,50,50,52,52,55,55,60,60,61,61,64,64,67,67,68,68,69,69,75,75,78,78,90,90,91,91,92,92,95,95,97,97,98,98],"right_children":[2,4,6,8,10,12,14,-1,16,18,-1,20,22,24,26,28,30,32,-1,-1,34,36,-1,38,40,42,44,46,48,-1,50,-1,-1,-1,-1,52,54,56,58,-1,60,62,-1,64,66,68,-1,70,72,-1,74,-1,76,-1,-1,78,-1,-1,-1,-1,80,82,-1,-1,84,-1,-1,86,88,90,-1,-1,-1,-1,-1,92,-1,-1,94,-1,-1,-1,-1,-1,-1,-1,-1,-1,-1,-1,96,98,100,-1,-1,102,-1,104,106,-1,-1,-1,-1,-1,-1,-1,-1],"split_conditions":[2.350342E2,5.388869E5,3.1533806E0,-9E1,3.5453213E1,-7.521577E-3,1.7626257E-1,-9.026757E-3,1.452132E1,-1.4573649E0,-9.579431E-3,1.0444445E1,3.2043354E9,2.1684438E-1,2.9182963E0,5.783929E-3,1.0497324E-2,3.105E1,-8.87197E-3,-9.693532E-3,3.0426176E0,7.9808794E-2,-9.202373E-3,1.8099304E1,3.2345743E0,4.257732E-1,6.532708E2,2.167723E0,9.0277776E-2,-9.355365E-3,7.3111784E-1,9.24627E-3,1.122997E-3,-8.605049E-3,8.515449E-3,-6.158787E0,2.2262772E2,1E0,6.0644783E-2,-9.165845E-3,2.8956099E0,5.75E0,-8.782312E-3,-2.5096803E0,3.7606735E0,3.407E1,-8.78776E-3,4.7310966E-1,2.300622E2,-8.283457E-3,1.5383393E-1,-8.725572E-3,5.5401665E-1,-9.356515E-3,8.300812E-3,1.4265734E-1,3.5852266E-3,-8.972064E-3,7.737043E-3,8.2440805E-3,1.4111485E-1,7.141797E-1,8.059894E-3,5.126366E-3,1.7E1,9.12966E-3,1.4537253E-3,7.3561993E0,3.557917E3,-5.077376E0,5.3583505E-4,-8.330297E-3,8.219468E-3,2.4300837E-3,8.916765E-3,9.999E-1,-8.214795E-3,-9.851965E-3,2.718194E-1,-8.458918E-3,8.3412845E-3,-8.332233E-3,8.231556E-3,-9.768772E-3,8.305255E-3,3.8130423E-3,8.480693E-3,-8.793704E-3,8.264476E-3,1.1286108E-3,3.9137335E0,3.1223516E0,1.27E1,-8.440046E-3,8.295885E-3,4.178829E0,1.7178683E-3,3.9175232E2,3.4440727E1,7.5062276E-3,-9.200015E-3,8.2352385E-3,3.6025967E-3,2.553042E-3,7.855222E-3,-8.650163E-3,8.4066875E-3],"split_indices":[1,3,40,84,17,42,79,0,43,64,0,91,2,88,5,83,9,60,0,0,40,25,0,100,62,41,17,68,37,0,98,0,0,0,0,109,43,61,13,0,68,91,0,31,40,60,0,10,1,0,88,0,49,0,0,51,0,0,0,0,9,28,0,0,113,0,0,17,3,109,0,0,0,0,0,105,0,0,10,0,0,0,0,0,0,0,0,0,0,0,62,68,60,0,0,40,0,96,11,0,0,0,0,0,0,0,0],"split_type":[0,0,0,0,0,0,0,0,0,0,0,0,0,0,0,0,0,0,0,0,0,0,0,0,0,0,0,0,0,0,0,0,0,0,0,0,0,0,0,0,0,0,0,0,0,0,0,0,0,0,0,0,0,0,0,0,0,0,0,0,0,0,0,0,0,0,0,0,0,0,0,0,0,0,0,0,0,0,0,0,0,0,0,0,0,0,0,0,0,0,0,0,0,0,0,0,0,0,0,0,0,0,0,0,0,0,0],"sum_hessian":[1.3204977E3,5.181753E2,8.023224E2,4.444066E2,7.3768684E1,2.866582E2,5.156642E2,9.998097E0,4.3440848E2,4.4278496E1,2.9490185E1,6.8373726E1,2.1828448E2,3.3150052E2,1.8416364E2,3.7763037E2,5.6778114E1,3.5530857E1,8.747642E0,4.4985226E1,2.33885E1,2.0503848E2,1.3245999E1,2.84938E2,4.656255E1,6.4917816E1,1.1924583E2,9.731084E1,2.8031955E2,1.6495794E1,4.0282322E1,2.656874E1,8.962114E0,6.997748E0,1.639075E1,1.8307881E2,2.1959671E1,2.5158566E2,3.3352318E1,1.2745653E1,3.3816895E1,5.6670753E1,8.247065E0,1.00106064E2,1.913976E1,8.956221E1,7.7486277E0,2.696075E2,1.0712028E1,5.249304E0,3.5033016E1,7.747471E0,1.7533134E2,1.6745419E1,5.214253E0,2.4437251E2,7.213147E0,1.024583E1,2.310649E1,2.2354507E1,1.1462387E1,1.0961171E1,4.570958E1,1.3424401E1,8.668166E1,1.0427387E1,8.712372E0,7.6100815E1,1.34613905E1,2.6014523E2,9.46229E0,5.49885E0,5.213178E0,7.963781E0,2.7069235E1,1.7008304E2,5.2482953E0,2.3291083E2,1.1461689E1,6.247929E0,5.214458E0,5.7477756E0,5.213395E0,8.146738E1,5.2142863E0,5.9710327E1,1.639049E1,8.247507E0,5.213884E0,8.962834E0,2.5118239E2,1.3323228E2,3.6850758E1,6.2474756E0,5.2142134E0,2.4271906E2,8.463322E0,1.207702E2,1.2462081E1,2.3355423E1,1.3495335E1,2.2779161E2,1.492745E1,1.6175049E1,1.0459515E2,7.2477393E0,5.214342E0],"tree_param":{"num_deleted":"0","num_feature":"125","num_nodes":"107","size_leaf_vector":"1"}},{"base_weights":[2.353308E-2,7.841167E-1,-4.477638E-1,1.0860415E0,-6.0113335E-1,-2.479339E-2,-9.621019E-1,1.179379E0,-3.235531E-1,-9.588023E-3,2.1173887E-1,4.2671844E-1,-8.2922024E-1,-1.4273943E0,-1.5038761E-1,1.240455E0,-4.2746693E-1,-9.210495E-3,7.1508605E-3,-1.1442856E0,1.4813702E0,-1.8300526E-1,1.1933334E0,-1.4856455E0,-1.6301075E-2,-9.783606E-3,-5.480068E-1,-1.141464E0,4.555243E-1,1.3495365E-1,1.2962846E0,-8.8630635E-3,8.197011E-3,-9.442683E-3,8.267617E-3,2.4094884E-3,9.063031E-3,2.6277465E-1,-1.4338274E0,1.3790636E0,-8.602974E-3,-9.748442E-3,6.263359E-1,-9.362853E-3,6.167231E-1,8.672125E-1,-1.5320594E0,5.2621244E-3,-9.599803E-3,-9.029675E-3,8.22057E-1,9.052674E-3,-8.83553E-3,1.8257774E-1,1.3538884E0,5.150918E-1,-9.112372E-3,-9.598138E-3,6.9338023E-3,4.7154683E-1,1.5988923E0,8.337135E-3,-0E0,1.0955595E0,-8.833872E-3,8.215057E-3,-8.670977E-3,6.788954E-3,-9.656316E-3,-8.621025E-3,1.1241101E0,-8.823366E-3,9.033564E-3,8.827775E-1,1.504228E0,7.330484E-1,-8.8013485E-3,-8.753749E-3,7.9879835E-3,1.7373263E0,8.6640636E-4,7.959178E-3,-2.1253939E-1,1.3908004E0,-9.214797E-2,5.521498E-3,-2.7532372E-1,7.992919E-3,8.18915E-1,-8.5052E-3,9.222111E-1,9.262526E-3,2.7708071E-3,8.176981E-3,-8.563118E-3,1.336948E-4,8.439919E-3,-8.409942E-3,8.288173E-3,-8.667463E-3,7.544875E-3,-8.433697E-3,7.6862243E-3,1.4025381E0,1.957978E-1,5.7319284E-4,8.330869E-3,-9.059799E-3,5.5254363E-3],"categories":[],"categories_nodes":[],"categories_segments":[],"categories_sizes":[],"default_left":[0,0,0,0,0,0,0,0,0,0,0,0,0,0,0,0,0,0,0,0,0,0,0,0,0,0,0,0,0,0,0,0,0,0,0,0,0,0,0,0,0,0,0,0,0,0,0,0,0,0,0,0,0,0,0,0,0,0,0,0,0,0,0,0,0,0,0,0,0,0,0,0,0,0,0,0,0,0,0,0,0,0,0,0,0,0,0,0,0,0,0,0,0,0,0,0,0,0,0,0,0,0,0,0,0,0,0,0,0],"id":5,"left_children":[1,3,5,7,9,11,13,15,17,-1,19,21,23,25,27,29,31,-1,-1,33,35,37,39,41,43,-1,45,47,49,51,53,-1,-1,-1,-1,-1,-1,55,57,59,-1,-1,61,-1,63,65,67,-1,-1,-1,69,-1,-1,71,73,75,-1,-1,-1,77,79,-1,-1,81,-1,-1,-1,-1,-1,-1,83,-1,-1,85,87,89,-1,-1,-1,91,-1,-1,93,95,97,-1,99,-1,101,-1,103,-1,-1,-1,-1,-1,-1,-1,-1,-1,-1,-1,-1,105,107,-1,-1,-1,-1],"loss_changes":[4.8225424E2,2.1618167E2,1.79729E2,5.6603455E1,9.888832E1,1.6639383E2,1.3977118E2,3.9986755E1,7.075226E1,0E0,9.926266E1,1.3753088E2,8.690034E1,1.0424713E2,8.334466E1,2.2513245E1,4.1709476E1,0E0,0E0,5.800279E1,7.2515106E0,9.1898735E1,7.12973E1,8.752614E1,8.884518E1,0E0,1.24750244E2,8.978424E1,7.037397E1,6.402457E1,2.2093811E1,0E0,0E0,0E0,0E0,0E0,0E0,6.2348763E1,5.91644E1,2.2492859E1,0E0,0E0,9.663918E0,0E0,6.405847E1,7.348957E1,6.0237747E1,0E0,0E0,0E0,5.7348297E1,0E0,0E0,6.1983437E1,2.1893127E1,5.3191456E1,0E0,0E0,0E0,6.425644E1,1.7742722E1,0E0,0E0,3.0987087E1,0E0,0E0,0E0,0E0,0E0,0E0,2.2704887E1,0E0,0E0,2.2041634E1,1.180603E1,4.5774254E1,0E0,0E0,0E0,8.076752E0,0E0,0E0,3.674275E1,2.003939E1,3.4780296E1,0E0,3.5875816E1,0E0,5.371985E1,0E0,3.0954048E1,0E0,0E0,0E0,0E0,0E0,0E0,0E0,0E0,0E0,0E0,0E0,0E0,1.6263298E1,6.9234566E1,0E0,0E0,0E0,0E0],"parents":[2147483647,0,0,1,1,2,2,3,3,4,4,5,5,6,6,7,7,8,8,10,10,11,11,12,12,13,13,14,14,15,15,16,16,19,19,20,20,21,21,22,22,23,23,24,24,26,26,27,27,28,28,29,29,30,30,37,37,38,38,39,39,42,42,44,44,45,45,46,46,50,50,53,53,54,54,55,55,59,59,60,60,63,63,70,70,73,73,74,74,75,75,79,79,82,82,83,83,84,84,86,86,88,88,90,90,103,103,104,104],"right_children":[2,4,6,8,10,12,14,16,18,-1,20,22,24,26,28,30,32,-1,-1,34,36,38,40,42,44,-1,46,48,50,52,54,-1,-1,-1,-1,-1,-1,56,58,60,-1,-1,62,-1,64,66,68,-1,-1,-1,70,-1,-1,72,74,76,-1,-1,-1,78,80,-1,-1,82,-1,-1,-1,-1,-1,-1,84,-1,-1,86,88,90,-1,-1,-1,92,-1,-1,94,96,98,-1,100,-1,102,-1,104,-1,-1,-1,-1,-1,-1,-1,-1,-1,-1,-1,-1,106,108,-1,-1,-1,-1],"split_conditions":[1E0,2.9232E2,4.8879427E8,7.298964E1,3.1860036E-1,-1.3141563E0,1.3205699E1,1.4745303E-2,-8.393349E0,-9.588023E-3,-9.647795E-1,2.528509E-2,3.443956E0,-5E1,-1.2019417E2,-6.5870514E0,6.71E2,-9.210495E-3,7.1508605E-3,3.9097617E0,1.6712778E1,1.127075E-2,4.21793E0,3.784071E-1,-4.52E0,-9.783606E-3,-5.064738E-2,2.6744096E0,-6.376821E-1,-7.86541E1,-1.1230479E2,-8.8630635E-3,8.197011E-3,-9.442683E-3,8.267617E-3,2.4094884E-3,9.063031E-3,2.0156384E-16,1.7224196E2,-4E0,-8.602974E-3,-9.748442E-3,3.8625887E-1,-9.362853E-3,7.432024E-1,1.108173E9,-5.2178965E0,5.2621244E-3,-9.599803E-3,-9.029675E-3,7.663057E0,9.052674E-3,-8.83553E-3,2.857143E0,1E-2,1.9791032E-1,-9.112372E-3,-9.598138E-3,6.9338023E-3,3.3831832E-1,6.0000002E-2,8.337135E-3,-0E0,5.2899006E-3,-8.833872E-3,8.215057E-3,-8.670977E-3,6.788954E-3,-9.656316E-3,-8.621025E-3,-8.5377945E1,-8.823366E-3,9.033564E-3,1.15E0,8.00931E-2,3.08E0,-8.8013485E-3,-8.753749E-3,7.9879835E-3,3.2195E1,8.6640636E-4,7.959178E-3,-4.4E0,2.9825215E0,3E0,5.521498E-3,1.4705883E-1,7.992919E-3,-9.086935E-1,-8.5052E-3,3.210324E2,9.262526E-3,2.7708071E-3,8.176981E-3,-8.563118E-3,1.336948E-4,8.439919E-3,-8.409942E-3,8.288173E-3,-8.667463E-3,7.544875E-3,-8.433697E-3,7.6862243E-3,1.372011E0,-1.1786394E0,5.7319284E-4,8.330869E-3,-9.059799E-3,5.5254363E-3],"split_indices":[122,60,104,121,86,93,90,124,71,0,93,117,94,46,106,109,95,0,0,23,97,19,40,15,12,0,124,94,36,46,32,0,0,0,0,0,0,76,11,12,0,0,15,0,98,78,93,0,0,0,97,0,0,34,25,63,0,0,0,39,25,0,0,6,0,0,0,0,0,0,32,0,0,60,109,53,0,0,0,52,0,0,12,68,58,0,61,0,64,0,96,0,0,0,0,0,0,0,0,0,0,0,0,29,64,0,0,0,0],"split_type":[0,0,0,0,0,0,0,0,0,0,0,0,0,0,0,0,0,0,0,0,0,0,0,0,0,0,0,0,0,0,0,0,0,0,0,0,0,0,0,0,0,0,0,0,0,0,0,0,0,0,0,0,0,0,0,0,0,0,0,0,0,0,0,0,0,0,0,0,0,0,0,0,0,0,0,0,0,0,0,0,0,0,0,0,0,0,0,0,0,0,0,0,0,0,0,0,0,0,0,0,0,0,0,0,0,0,0,0,0],"sum_hessian":[1.343409E3,5.144154E2,8.2899365E2,4.22914E2,9.1501396E1,4.5605975E2,3.7293387E2,3.9724356E2,2.5670444E1,3.523148E1,5.6269917E1,2.9169687E2,1.6436288E2,2.3616344E2,1.3677042E2,3.8328354E2,1.3960016E1,1.3993891E1,1.1676553E1,2.6953718E1,2.9316198E1,1.6219438E2,1.2950249E2,9.01386E1,7.422428E1,1.4816331E2,8.8000114E1,5.2151672E1,8.461875E1,1.9173473E1,3.6411008E2,8.747295E0,5.212721E0,2.1739796E1,5.2139225E0,7.9622116E0,2.1353987E1,1.19500046E2,4.2694336E1,1.2225661E2,7.245881E0,7.471349E1,1.542511E1,1.8990007E1,5.5234276E1,3.5811104E1,5.218901E1,1.3174452E1,3.8977222E1,1.1243991E1,7.3374756E1,1.0427128E1,8.746345E0,1.8674099E1,3.4543597E2,1.0725614E2,1.2243905E1,3.6980194E1,5.7141457E0,2.4886992E1,9.736962E1,5.214447E0,1.0210663E1,4.6487896E1,8.74638E0,2.8065386E1,7.74572E0,5.712877E0,4.6476135E1,7.246716E0,6.6128044E1,8.247769E0,1.042633E1,8.58102E1,2.5962576E2,9.851087E1,8.745267E0,7.9967527E0,1.689024E1,8.815725E1,9.212367E0,3.427927E1,1.2208625E1,5.4667393E1,1.14606495E1,7.309831E1,1.2711886E1,2.3052205E2,2.9103731E1,6.497321E0,9.201356E1,8.0446205E1,7.7110424E0,5.212253E0,6.9963717E0,9.961225E0,4.470617E1,6.2465043E0,5.2141447E0,7.247672E0,5.464214E0,5.998284E0,2.3105448E1,5.441823E1,3.7595325E1,9.461434E0,4.4956795E1,1.1244997E1,2.6350327E1],"tree_param":{"num_deleted":"0","num_feature":"125","num_nodes":"109","size_leaf_vector":"1"}},{"base_weights":[-3.61514E-2,7.6322657E-1,-5.519281E-1,9.707878E-1,-9.577853E-3,-9.08639E-1,-7.01092E-2,1.0405937E0,-9.06994E-3,-1.4759403E-1,-1.3634988E0,5.489104E-1,-8.487204E-1,-8.6649135E-3,1.0899945E0,5.629877E-1,-1.297281E0,-1.5481972E0,7.380178E-1,7.18413E-1,-9.027407E-3,9.546756E-2,-9.67501E-3,1.1323725E0,-8.426964E-3,8.254522E-1,-8.923121E-3,4.760498E-3,-9.6239755E-3,-1.841491E0,-2.2926655E-1,-1.3421366E-1,8.650554E-3,-8.7567875E-3,8.5730416E-1,-9.1664065E-3,5.453201E-1,1.1689612E0,-8.206808E-3,-7.141774E-1,1.183402E0,5.6244982E-3,-9.768831E-3,8.6418563E-1,-9.320486E-3,-8.401957E-3,7.490888E-3,-8.631726E-3,9.930125E-1,-8.781093E-3,9.278762E-1,1.2210665E0,-3.9405587E-1,-9.089225E-3,8.232984E-3,1.4788595E0,1.9136535E-1,7.458207E-3,-8.125091E-3,-8.265088E-3,1.1025469E0,-0E0,1.4869361E0,9.582444E-1,1.5174704E0,-8.799397E-3,8.221788E-3,8.478756E-3,1.1661325E-3,-8.628965E-3,7.8356145E-3,2.4341477E-1,1.3644446E0,7.818864E-3,-8.893379E-3,9.0621775E-3,1.844243E-3,-8.710349E-3,1.0595552E0,1.5928473E0,2.5057272E-5,-9.10798E-3,7.2671985E-3,-6.1120953E-2,1.5223093E0,5.729642E-3,-8.344888E-3,8.278513E-3,1.972268E-3,-8.332865E-3,8.179356E-3,1.8423343E-3,8.131178E-3],"categories":[],"categories_nodes":[],"categories_segments":[],"categories_sizes":[],"default_left":[0,0,0,0,0,0,0,0,0,0,0,0,0,0,0,0,0,0,0,0,0,0,0,0,0,0,0,0,0,0,0,0,0,0,0,0,0,0,0,0,0,0,0,0,0,0,0,0,0,0,0,0,0,0,0,0,0,0,0,0,0,0,0,0,0,0,0,0,0,0,0,0,0,0,0,0,0,0,0,0,0,0,0,0,0,0,0,0,0,0,0,0,0],"id":6,"left_children":[1,3,5,7,-1,9,11,13,-1,15,17,19,21,-1,23,25,27,29,31,33,-1,35,-1,37,-1,39,-1,-1,-1,41,43,45,-1,-1,47,-1,49,51,-1,53,55,-1,-1,57,-1,-1,-1,-1,59,-1,61,63,65,-1,-1,67,69,-1,-1,-1,71,73,75,77,79,-1,-1,-1,-1,-1,-1,81,83,-1,-1,-1,-1,-1,85,87,-1,-1,-1,89,91,-1,-1,-1,-1,-1,-1,-1,-1],"loss_changes":[5.368719E2,2.82454E2,1.3538994E2,9.224283E1,0E0,1.5599896E2,1.6370773E2,6.3808075E1,0E0,1.4091414E2,1.1141559E2,7.472581E1,1.5376309E2,0E0,5.4081543E1,6.502074E1,9.227705E1,9.924884E1,2.0946018E1,6.044523E1,0E0,6.877828E1,0E0,4.621411E1,0E0,5.371927E1,0E0,0E0,0E0,6.232025E1,8.796107E1,3.2284393E1,0E0,0E0,5.9002487E1,0E0,5.796988E1,3.7084167E1,0E0,4.8143673E1,2.155828E1,0E0,0E0,4.586313E1,0E0,0E0,0E0,0E0,4.685202E1,0E0,3.024039E1,3.0761902E1,4.1064285E1,0E0,0E0,1.3423843E1,5.1561085E1,0E0,0E0,0E0,3.3294403E1,6.1390816E1,1.045401E1,6.352661E1,2.1581512E1,0E0,0E0,0E0,0E0,0E0,0E0,9.331983E1,2.7574799E1,0E0,0E0,0E0,0E0,0E0,4.728076E1,9.223663E0,0E0,0E0,0E0,3.3389072E1,9.229889E0,0E0,0E0,0E0,0E0,0E0,0E0,0E0,0E0],"parents":[2147483647,0,0,1,1,2,2,3,3,5,5,6,6,7,7,9,9,10,10,11,11,12,12,14,14,15,15,16,16,17,17,18,18,19,19,21,21,23,23,25,25,29,29,30,30,31,31,34,34,36,36,37,37,39,39,40,40,43,43,48,48,50,50,51,51,52,52,55,55,56,56,60,60,61,61,62,62,63,63,64,64,71,71,72,72,78,78,79,79,83,83,84,84],"right_children":[2,4,6,8,-1,10,12,14,-1,16,18,20,22,-1,24,26,28,30,32,34,-1,36,-1,38,-1,40,-1,-1,-1,42,44,46,-1,-1,48,-1,50,52,-1,54,56,-1,-1,58,-1,-1,-1,-1,60,-1,62,64,66,-1,-1,68,70,-1,-1,-1,72,74,76,78,80,-1,-1,-1,-1,-1,-1,82,84,-1,-1,-1,-1,-1,86,88,-1,-1,-1,90,92,-1,-1,-1,-1,-1,-1,-1,-1],"split_conditions":[2.383619E2,1.820348E-2,5.0260854E-1,1.2974335E2,-9.577853E-3,1.2763235E-1,-9.95E0,-9.9E1,-9.06994E-3,1.1007864E-3,-3.6187482E-1,2.2754915E1,5.882353E-1,-8.6649135E-3,6.842105E-2,3.451E1,-1.4137696E0,3.7E1,1.4264487E-1,-7.8225E1,-9.027407E-3,-2.1317927E-2,-9.67501E-3,3.832053E-1,-8.426964E-3,3.9735672E2,-8.923121E-3,4.760498E-3,-9.6239755E-3,-1.3156E1,1.8480846E1,4.7457626E-1,8.650554E-3,-8.7567875E-3,-1.0438983E0,-9.1664065E-3,4.105263E0,9.0277776E-2,-8.206808E-3,3.2023704E0,6.9565875E2,5.6244982E-3,-9.768831E-3,2.8272889E0,-9.320486E-3,-8.401957E-3,7.490888E-3,-8.631726E-3,7.034494E-2,-8.781093E-3,-1.99E0,1.2987985E-2,1.6838147E10,-9.089225E-3,8.232984E-3,3.4866005E-3,5E-1,7.458207E-3,-8.125091E-3,-8.265088E-3,1.3510548E0,-8.6125046E-1,5.589131E-1,-6.625763E-1,1.9423367E-1,-8.799397E-3,8.221788E-3,8.478756E-3,1.1661325E-3,-8.628965E-3,7.8356145E-3,2.9875139E-2,-2.405245E0,7.818864E-3,-8.893379E-3,9.0621775E-3,1.844243E-3,-8.710349E-3,1.771831E-1,5.4757434E-1,2.5057272E-5,-9.10798E-3,7.2671985E-3,9.632612E10,-8.38E0,5.729642E-3,-8.344888E-3,8.278513E-3,1.972268E-3,-8.332865E-3,8.179356E-3,1.8423343E-3,8.131178E-3],"split_indices":[1,19,77,17,0,92,81,84,0,6,64,66,118,0,111,55,80,35,51,21,0,112,0,82,0,1,0,0,0,112,97,38,0,0,112,0,91,37,0,29,1,0,0,68,0,0,0,0,88,0,12,9,0,0,0,110,86,0,0,0,29,70,77,109,112,0,0,0,0,0,0,9,69,0,0,0,0,0,14,10,0,0,0,0,12,0,0,0,0,0,0,0,0],"split_type":[0,0,0,0,0,0,0,0,0,0,0,0,0,0,0,0,0,0,0,0,0,0,0,0,0,0,0,0,0,0,0,0,0,0,0,0,0,0,0,0,0,0,0,0,0,0,0,0,0,0,0,0,0,0,0,0,0,0,0,0,0,0,0,0,0,0,0,0,0,0,0,0,0,0,0,0,0,0,0,0,0,0,0,0,0,0,0,0,0,0,0,0,0],"sum_hessian":[1.3012592E3,5.096401E2,7.91619E2,4.7341342E2,3.622668E1,4.5365286E2,3.3796616E2,4.62418E2,1.0995433E1,1.7063313E2,2.830197E2,1.8784541E2,1.5012076E2,7.4966116E0,4.549214E2,1.0524922E2,6.53839E1,2.606339E2,2.23858E1,1.75855E2,1.1990403E1,7.967605E1,7.044472E1,4.4867468E2,6.2466984E0,9.5255226E1,9.9939995E0,1.3674737E1,5.1709167E1,2.1255275E2,4.8081177E1,1.1709267E1,1.0676533E1,8.743075E0,1.6711192E2,1.448921E1,6.518684E1,4.4342725E2,5.2474422E0,1.7456497E1,7.779873E1,6.2131844E0,2.0633957E2,2.859657E1,1.9484608E1,6.2461324E0,5.4631343E0,7.7439437E0,1.5936798E2,8.744146E0,5.6442688E1,4.2971786E2,1.3709386E1,1.2243078E1,5.213419E0,5.9127384E1,1.867134E1,2.335075E1,5.24582E0,5.745711E0,1.5362227E2,2.1167734E1,3.5274956E1,2.3050143E2,1.9921642E2,8.496164E0,5.213221E0,5.016547E1,8.961917E0,7.4953995E0,1.1175941E1,3.683923E1,1.1678304E2,1.11751175E1,9.992618E0,2.6812956E1,8.461999E0,7.7462983E0,2.2275514E2,1.8925621E2,9.960214E0,1.3239952E1,2.359928E1,1.1208077E1,1.0557497E2,2.1725664E2,5.498507E0,1.8104456E2,8.211649E0,5.9957657E0,5.2123117E0,8.462157E0,9.711281E1],"tree_param":{"num_deleted":"0","num_feature":"125","num_nodes":"93","size_leaf_vector":"1"}},{"base_weights":[7.5735076E-4,6.947421E-1,-5.698626E-1,9.259105E-1,-3.8508993E-1,-9.878989E-1,3.095613E-1,1.3318609E0,5.1519203E-1,2.1862097E-1,-9.480122E-3,-1.2641761E0,1.0063154E-1,-8.505792E-1,1.0931416E0,-8.2996E-3,1.4098802E0,-1.3316873E-1,1.0596856E0,-9.087453E-3,6.8802345E-1,-1.349688E0,7.093588E-3,8.343489E-1,-1.2865324E0,9.756052E-1,-1.6129737E0,1.2281003E0,-8.29795E-3,1.0088401E0,1.6059208E0,-1.0661303E0,5.3744787E-1,1.192292E0,-8.221994E-3,-8.401362E-3,9.953749E-1,-1.8164806E0,-9.143885E-1,1.2993872E0,-8.840696E-3,-9.440522E-3,6.372835E-3,-2.5087591E-2,8.397924E-3,-9.638637E-3,6.7006135E-3,1.5121998E0,3.764637E-1,5.736276E-3,-0E0,8.453428E-3,1.379545E-3,-9.579977E-3,5.768963E-3,-8.833644E-3,9.322683E-1,1.4062822E0,8.452697E-3,5.5638418E-2,1.4983805E0,-0E0,-9.719554E-3,-1.1841558E0,2.796289E-1,1.5360521E0,3.552749E-4,-8.32861E-3,8.192599E-3,5.566298E-4,1.6492525E0,1.3636694E0,-8.939243E-3,1.2272147E0,-8.21917E-3,1.5616592E0,4.6276107E-1,7.802091E-3,-8.854791E-3,-8.796721E-3,8.52715E-3,2.0663363E-3,9.013347E-3,-1.6069806E0,2.9190186E-1,7.834581E-3,-9.073613E-3,4.020746E-3,9.198886E-3,8.873544E-3,2.097754E-3,8.9701265E-3,2.0507316E-3,3.6832488E-1,8.206986E-3,1.6607139E0,2.0975517E-3,8.942281E-3,-8.343931E-3,6.1121755E-3,-1.7567918E0,8.19093E-3,-8.2554233E-1,-8.410218E-3,7.83973E-3,8.989824E-3,2.018697E-3,-9.69069E-3,4.9796756E-3,8.2436465E-3,-9.116219E-3],"categories":[],"categories_nodes":[],"categories_segments":[],"categories_sizes":[],"default_left":[0,0,0,0,0,0,0,0,0,0,0,0,0,0,0,0,0,0,0,0,0,0,0,0,0,0,0,0,0,0,0,0,0,0,0,0,0,0,0,0,0,0,0,0,0,0,0,0,0,0,0,0,0,0,0,0,0,0,0,0,0,0,0,0,0,0,0,0,0,0,0,0,0,0,0,0,0,0,0,0,0,0,0,0,0,0,0,0,0,0,0,0,0,0,0,0,0,0,0,0,0,0,0,0,0,0,0,0,0,0,0],"id":7,"left_children":[1,3,5,7,9,11,13,15,17,19,-1,21,23,25,27,-1,29,31,33,-1,35,37,-1,39,41,43,45,47,-1,49,51,53,55,57,-1,-1,59,61,63,65,-1,-1,-1,67,-1,-1,-1,69,71,-1,-1,-1,-1,-1,-1,-1,73,75,77,79,81,-1,-1,83,85,87,-1,-1,-1,-1,89,91,-1,93,-1,95,97,-1,-1,-1,-1,-1,-1,99,101,-1,-1,-1,-1,-1,-1,-1,-1,103,-1,105,-1,-1,-1,-1,107,-1,109,-1,-1,-1,-1,-1,-1,-1,-1],"loss_changes":[5.266179E2,1.505364E2,2.687248E2,8.078699E1,9.695047E1,1.4978162E2,2.1420891E2,5.8849487E1,8.840029E1,7.1592155E1,0E0,9.142688E1,1.0232286E2,1.3319812E2,5.2990784E1,0E0,1.6062958E1,7.158847E1,4.925795E1,0E0,4.543013E1,7.4868835E1,0E0,8.082956E1,5.3546745E1,2.0559559E1,6.1089752E1,3.084636E1,0E0,9.883163E0,1.3302155E1,9.0407326E1,5.989343E1,3.1828766E1,0E0,0E0,2.5046227E1,3.8386414E1,6.549849E1,1.5243568E1,0E0,0E0,0E0,3.2779E1,0E0,0E0,0E0,1.782257E1,7.5912346E1,0E0,0E0,0E0,0E0,0E0,0E0,0E0,4.3888046E1,1.4075745E1,5.86726E1,6.2261974E1,9.112793E0,0E0,0E0,1.0379521E2,9.946448E1,7.1481094E0,0E0,0E0,0E0,0E0,1.0275726E1,7.7333374E0,0E0,1.5862694E1,0E0,8.569321E0,4.9213844E1,0E0,0E0,0E0,0E0,0E0,0E0,5.5869385E1,5.6093178E1,0E0,0E0,0E0,0E0,0E0,0E0,0E0,0E0,4.4525517E1,0E0,1.0964081E1,0E0,0E0,0E0,0E0,5.7209106E1,0E0,5.04874E1,0E0,0E0,0E0,0E0,0E0,0E0,0E0,0E0],"parents":[2147483647,0,0,1,1,2,2,3,3,4,4,5,5,6,6,7,7,8,8,9,9,11,11,12,12,13,13,14,14,16,16,17,17,18,18,20,20,21,21,23,23,24,24,25,25,26,26,27,27,29,29,30,30,31,31,32,32,33,33,36,36,37,37,38,38,39,39,43,43,47,47,48,48,56,56,57,57,58,58,59,59,60,60,63,63,64,64,65,65,70,70,71,71,73,73,75,75,76,76,83,83,84,84,93,93,95,95,100,100,102,102],"right_children":[2,4,6,8,10,12,14,16,18,20,-1,22,24,26,28,-1,30,32,34,-1,36,38,-1,40,42,44,46,48,-1,50,52,54,56,58,-1,-1,60,62,64,66,-1,-1,-1,68,-1,-1,-1,70,72,-1,-1,-1,-1,-1,-1,-1,74,76,78,80,82,-1,-1,84,86,88,-1,-1,-1,-1,90,92,-1,94,-1,96,98,-1,-1,-1,-1,-1,-1,100,102,-1,-1,-1,-1,-1,-1,-1,-1,104,-1,106,-1,-1,-1,-1,108,-1,110,-1,-1,-1,-1,-1,-1,-1,-1],"split_conditions":[7.480827E1,1.9636797E8,5E-1,3.13E0,-2.03E0,-1.1865E1,-3.1177757E1,-9.803922E-2,1.7924528E0,1.2946701E-1,-9.480122E-3,1.8E-1,2.9232E2,1.1838583E-1,4.394449E0,-8.2996E-3,5.7416266E-1,-4E-2,3.290809E6,-9.087453E-3,1.776754E-2,7.419355E-1,7.093588E-3,1.2459321E-1,4.7462616E-2,1.9014E3,8E0,4.9518697E-2,-8.29795E-3,2.0558434E-3,6.3333817E1,3.8356894E-1,4.7550432E-2,1.3412872E1,-8.221994E-3,-8.401362E-3,5.473146E2,-9.45238E1,4.1E1,1.0243262E-1,-8.840696E-3,-9.440522E-3,6.372835E-3,1.5074627E0,8.397924E-3,-9.638637E-3,6.7006135E-3,9.4938144E-2,3.5714287E-1,5.736276E-3,-0E0,8.453428E-3,1.379545E-3,-9.579977E-3,5.768963E-3,-8.833644E-3,1.8119538E-2,4.4977512E-2,-1.9269957E-1,3.885024E0,1.473396E-1,-0E0,-9.719554E-3,1.0296E2,3.2537374E0,4.669876E-1,3.552749E-4,-8.32861E-3,8.192599E-3,5.566298E-4,3.2789026E2,-2.7366663E1,-8.939243E-3,-9.9E-1,-8.21917E-3,1.19348764E-1,1.8985507E0,7.802091E-3,-8.854791E-3,-8.796721E-3,8.52715E-3,2.0663363E-3,9.013347E-3,7.432024E-1,6.267929E-5,7.834581E-3,-9.073613E-3,4.020746E-3,9.198886E-3,8.873544E-3,2.097754E-3,8.9701265E-3,2.0507316E-3,6.370656E-3,8.206986E-3,7.733333E-1,2.0975517E-3,8.942281E-3,-8.343931E-3,6.1121755E-3,7.6E-1,8.19093E-3,-1.3156E1,-8.410218E-3,7.83973E-3,8.989824E-3,2.018697E-3,-9.69069E-3,4.9796756E-3,8.2436465E-3,-9.116219E-3],"split_indices":[17,104,54,60,12,84,71,70,34,88,0,51,60,33,40,0,98,81,3,0,49,98,0,14,6,60,47,25,0,25,121,39,86,43,0,0,96,121,35,49,0,0,0,34,0,0,0,29,27,0,0,0,0,0,0,0,9,37,70,72,14,0,0,52,40,41,0,0,0,0,85,71,0,56,0,10,34,0,0,0,0,0,0,98,49,0,0,0,0,0,0,0,0,89,0,98,0,0,0,0,41,0,112,0,0,0,0,0,0,0,0],"split_type":[0,0,0,0,0,0,0,0,0,0,0,0,0,0,0,0,0,0,0,0,0,0,0,0,0,0,0,0,0,0,0,0,0,0,0,0,0,0,0,0,0,0,0,0,0,0,0,0,0,0,0,0,0,0,0,0,0,0,0,0,0,0,0,0,0,0,0,0,0,0,0,0,0,0,0,0,0,0,0,0,0,0,0,0,0,0,0,0,0,0,0,0,0,0,0,0,0,0,0,0,0,0,0,0,0,0,0,0,0,0,0],"sum_hessian":[1.3283534E3,5.9991595E2,7.284374E2,4.9477762E2,1.05138336E2,4.9426306E2,2.3417432E2,2.4721178E2,2.4756586E2,7.4915695E1,3.0222643E1,3.946782E2,9.958487E1,9.399675E1,1.4017757E2,5.7463317E0,2.4146544E2,1.1259184E2,1.3497401E2,1.3486987E1,6.1428703E1,3.830051E2,1.1673093E1,6.564948E1,3.3935387E1,2.734334E1,6.665341E1,1.3418309E2,5.994476E0,8.179515E1,1.5967029E2,4.73991E1,6.519274E1,1.2922995E2,5.744056E0,6.493817E0,5.4934887E1,1.8303078E2,1.9997433E2,5.6157074E1,9.492406E0,2.797217E1,5.963217E0,1.0959435E1,1.6383905E1,6.0943794E1,5.709619E0,9.95951E1,3.458799E1,7.1836624E1,9.958528E0,1.5096265E2,8.707647E0,3.4726925E1,1.2672177E1,8.995046E0,5.6197693E1,1.0881121E2,2.0418741E1,1.9913757E1,3.502113E1,1.0209449E1,1.7282132E2,1.6363615E2,3.633818E1,4.6446877E1,9.710197E0,5.7468133E0,5.2126226E0,9.457185E0,9.013791E1,2.4096346E1,1.0491645E1,5.0950222E1,5.247473E0,9.2393166E1,1.6418045E1,1.117468E1,9.244062E0,9.241557E0,1.0672201E1,8.208151E0,2.6812979E1,1.275507E2,3.6085457E1,2.285219E1,1.34859915E1,1.4423591E1,3.2023285E1,8.192684E1,8.211071E0,1.5885608E1,8.210737E0,1.717321E1,3.377701E1,8.41806E1,8.212566E0,1.0422409E1,5.9956355E0,5.960564E0,1.2159013E2,1.6636028E1,1.9449429E1,5.9965625E0,1.1176647E1,7.597117E1,8.209433E0,1.1513E2,6.4601316E0,5.2135916E0,1.4235838E1],"tree_param":{"num_deleted":"0","num_feature":"125","num_nodes":"111","size_leaf_vector":"1"}},{"base_weights":[-3.354689E-2,5.1046515E-1,-7.723365E-1,1.009319E0,-2.4858761E-1,-1.3491317E0,-3.13429E-1,-6.066554E-1,1.130363E0,1.7249714E-1,-1.4073352E0,-1.5647084E0,9.300724E-1,1.2796681E0,-5.7668424E-1,-9.287253E-3,7.095656E-3,1.1962522E0,-8.773906E-3,-3.3735386E-1,1.0654994E0,-9.595363E-3,4.092458E-1,-1.7285352E0,4.098633E-1,9.1003515E-3,-0E0,8.3229635E-3,-0E0,-1.340265E0,2.397079E-1,1.2362304E0,-8.1922915E-3,2.13666E-1,-1.463881E0,1.3053876E0,-8.298042E-3,7.4481377E-3,-8.133697E-3,-4.400942E-2,-9.684863E-3,-8.309079E-3,8.592004E-3,8.144963E-3,-8.052402E-3,5.8312137E-3,-1.5996405E0,-3.228664E-1,1.4470838E0,2.8407547E-1,1.299884E0,-9.192917E-3,6.909865E-1,-9.547976E-3,7.464234E-3,1.5343773E-1,8.460816E-3,7.0887385E-3,-8.8345995E-3,3.3694902E-1,-9.653094E-3,2.3473002E-1,-9.316416E-3,6.557001E-1,9.327412E-3,-8.783973E-3,6.6889455E-3,1.3451223E0,-1.1344663E-1,-8.888822E-3,1.1028552E0,-8.731402E-3,8.52754E-3,-8.374073E-3,8.142928E-3,1.0718107E0,-9.2544705E-3,8.154079E-3,8.016882E-5,1.1413108E0,1.5759405E0,8.0712885E-3,-8.408686E-3,-8.18764E-3,1.3873323E0,1.4876066E0,-1.2352793E-1,1.2275934E0,-8.2989475E-3,8.211369E-3,2.0259162E-3,4.6758646E-1,8.577216E-3,2.114481E-3,8.928222E-3,-8.361798E-3,8.230527E-3,6.6004996E-3,-2.9729842E-4,8.512035E-3,-8.197795E-3],"categories":[],"categories_nodes":[],"categories_segments":[],"categories_sizes":[],"default_left":[0,0,0,0,0,0,0,0,0,0,0,0,0,0,0,0,0,0,0,0,0,0,0,0,0,0,0,0,0,0,0,0,0,0,0,0,0,0,0,0,0,0,0,0,0,0,0,0,0,0,0,0,0,0,0,0,0,0,0,0,0,0,0,0,0,0,0,0,0,0,0,0,0,0,0,0,0,0,0,0,0,0,0,0,0,0,0,0,0,0,0,0,0,0,0,0,0,0,0,0,0],"id":8,"left_children":[1,3,5,7,9,11,13,15,17,19,21,23,25,27,29,-1,-1,31,-1,33,35,-1,37,39,41,-1,43,-1,-1,45,47,49,-1,51,53,55,-1,-1,-1,57,-1,-1,-1,-1,-1,-1,59,61,63,65,67,-1,69,-1,-1,71,-1,-1,-1,73,-1,75,-1,77,-1,-1,-1,79,81,-1,83,-1,-1,-1,-1,85,-1,-1,-1,87,89,-1,-1,-1,91,93,95,97,-1,-1,-1,99,-1,-1,-1,-1,-1,-1,-1,-1,-1],"loss_changes":[5.316961E2,2.8890424E2,1.4708853E2,9.079007E1,1.4829506E2,1.23155396E2,1.3169937E2,8.16012E1,8.1941345E1,1.0156474E2,7.448125E1,7.484613E1,1.7392302E1,2.0389702E1,1.6962537E2,0E0,0E0,4.8278076E1,0E0,8.857126E1,5.3857803E1,0E0,3.926143E1,6.642615E1,4.8500217E1,0E0,3.0185963E1,0E0,0E0,9.235327E1,8.995503E1,2.3693787E1,0E0,9.199457E1,6.124009E1,3.0710709E1,0E0,0E0,0E0,5.7593613E1,0E0,0E0,0E0,0E0,0E0,0E0,7.936603E1,7.738771E1,1.0780472E1,5.9205875E1,2.5789795E1,0E0,7.900566E1,0E0,0E0,5.843147E1,0E0,0E0,0E0,4.7687218E1,0E0,1.1427677E2,0E0,8.473029E0,0E0,0E0,0E0,1.4529297E1,3.389147E1,0E0,5.317829E1,0E0,0E0,0E0,0E0,2.4666965E1,0E0,0E0,0E0,4.9923706E1,8.720764E0,0E0,0E0,0E0,1.5540939E1,8.667862E0,3.49309E1,2.1722595E1,0E0,0E0,0E0,4.5286934E1,0E0,0E0,0E0,0E0,0E0,0E0,0E0,0E0,0E0],"parents":[2147483647,0,0,1,1,2,2,3,3,4,4,5,5,6,6,7,7,8,8,9,9,10,10,11,11,12,12,13,13,14,14,17,17,19,19,20,20,22,22,23,23,24,24,26,26,29,29,30,30,31,31,33,33,34,34,35,35,39,39,46,46,47,47,48,48,49,49,50,50,52,52,55,55,59,59,61,61,63,63,67,67,68,68,70,70,75,75,79,79,80,80,84,84,85,85,86,86,87,87,91,91],"right_children":[2,4,6,8,10,12,14,16,18,20,22,24,26,28,30,-1,-1,32,-1,34,36,-1,38,40,42,-1,44,-1,-1,46,48,50,-1,52,54,56,-1,-1,-1,58,-1,-1,-1,-1,-1,-1,60,62,64,66,68,-1,70,-1,-1,72,-1,-1,-1,74,-1,76,-1,78,-1,-1,-1,80,82,-1,84,-1,-1,-1,-1,86,-1,-1,-1,88,90,-1,-1,-1,92,94,96,98,-1,-1,-1,100,-1,-1,-1,-1,-1,-1,-1,-1,-1],"split_conditions":[1.8032268E-3,1.029E2,4.834085E-1,-5.9284654E-4,3.7006052E0,5.025E2,-2.5096803E0,-7E-2,1.631019E1,2E0,1.2398376E-1,1.4265734E-1,-5.1979995E-1,-9.95E0,1.9400626E-2,-9.287253E-3,7.095656E-3,8.054741E-1,-8.773906E-3,-1.15E2,2.65906E0,-9.595363E-3,-2.197904E0,-2.773297E-1,2.0555556E0,9.1003515E-3,1E0,8.3229635E-3,-0E0,-1.25E0,6.843261E-2,-1.0765351E2,-8.1922915E-3,-7.390176E-1,1.8025827E-1,4.0778558E2,-8.298042E-3,7.4481377E-3,-8.133697E-3,5.582192E-1,-9.684863E-3,-8.309079E-3,8.592004E-3,8.144963E-3,-8.052402E-3,5.8312137E-3,2.187375E0,3.7713718E0,-2.5823E2,8.029715E-1,4.099215E-2,-9.192917E-3,6.4593806E0,-9.547976E-3,7.464234E-3,7.499E1,8.460816E-3,7.0887385E-3,-8.8345995E-3,2.1420156E-4,-9.653094E-3,-6.66984E1,-9.316416E-3,-1.2599173E0,9.327412E-3,-8.783973E-3,6.6889455E-3,2.2619555E-4,-1.41393E3,-8.888822E-3,-2.7582018E1,-8.731402E-3,8.52754E-3,-8.374073E-3,8.142928E-3,1.25913284E2,-9.2544705E-3,8.154079E-3,8.016882E-5,1.65005E-1,1.182014E2,8.0712885E-3,-8.408686E-3,-8.18764E-3,2.7391305E0,1.4423076E1,2.3578385E-1,1.2777778E0,-8.2989475E-3,8.211369E-3,2.0259162E-3,6.1337404E-2,8.577216E-3,2.114481E-3,8.928222E-3,-8.361798E-3,8.230527E-3,6.6004996E-3,-2.9729842E-4,8.512035E-3,-8.197795E-3],"split_indices":[6,60,77,114,5,52,31,56,11,21,19,51,114,81,110,0,0,110,0,123,22,0,66,42,108,0,8,0,0,124,10,32,0,36,19,96,0,0,0,98,0,0,0,0,0,0,68,5,123,75,19,0,26,0,0,52,0,0,0,31,0,106,0,23,0,0,0,9,60,0,65,0,0,0,0,17,0,0,0,14,17,0,0,0,30,80,92,8,0,0,0,92,0,0,0,0,0,0,0,0,0],"split_type":[0,0,0,0,0,0,0,0,0,0,0,0,0,0,0,0,0,0,0,0,0,0,0,0,0,0,0,0,0,0,0,0,0,0,0,0,0,0,0,0,0,0,0,0,0,0,0,0,0,0,0,0,0,0,0,0,0,0,0,0,0,0,0,0,0,0,0,0,0,0,0,0,0,0,0,0,0,0,0,0,0,0,0,0,0,0,0,0,0,0,0,0,0,0,0,0,0,0,0,0,0],"sum_hessian":[1.321197E3,7.604294E2,5.6076764E2,4.5933374E2,3.0109564E2,2.4720958E2,3.1355807E2,3.1402866E1,4.2793085E2,2.2075787E2,8.0337776E1,2.26327E2,2.088258E1,4.3721317E1,2.6983676E2,1.9728434E1,1.1674434E1,4.18939E2,8.991873E0,1.4023923E2,8.0518654E1,6.3421177E1,1.6916597E1,2.0940977E2,1.6917212E1,1.0428241E1,1.0454338E1,3.3517094E1,1.0204222E1,1.3969524E2,1.3014153E2,4.1369223E2,5.2467475E0,9.406834E1,4.617089E1,7.452439E1,5.994262E0,1.1423479E1,5.4931183E0,2.190938E1,1.875004E2,6.2420363E0,1.0675175E1,5.2113876E0,5.242951E0,1.2672052E1,1.2702318E2,8.866509E1,4.1476433E1,2.6874321E1,3.8681793E2,1.7228E1,7.684033E1,4.0708485E1,5.4624043E0,1.8915516E1,5.5608875E1,1.1672942E1,1.0236438E1,1.741477E1,1.09608406E2,6.494888E1,2.3716211E1,1.5166676E1,2.6309757E1,8.743273E0,1.8131048E1,3.753633E2,1.1454613E1,1.0488508E1,6.635182E1,8.243811E0,1.0671704E1,6.4924E0,1.0922371E1,4.6718994E1,1.822989E1,5.211649E0,9.955027E0,2.0303804E2,1.7232527E2,5.2088284E0,6.245784E0,5.742404E0,6.060942E1,3.5013634E1,1.17053585E1,1.975406E2,5.4974265E0,1.6411575E2,8.209518E0,1.6413893E1,4.4195526E1,8.210424E0,2.680321E1,6.491981E0,5.213377E0,1.8633127E2,1.1209342E1,1.0671139E1,5.742754E0],"tree_param":{"num_deleted":"0","num_feature":"125","num_nodes":"101","size_leaf_vector":"1"}},{"base_weights":[8.658058E-3,7.5646144E-1,-4.2500502E-1,9.626254E-1,-1.3881549E-1,-6.775752E-1,3.588932E-1,1.0337685E0,-8.801138E-3,1.1413002E0,-1.4490062E0,-9.637565E-1,4.627558E-1,-9.189706E-3,5.735247E-1,6.933543E-1,1.4824107E0,-8.238548E-3,1.5605568E0,-9.514316E-3,5.5114296E-3,-1.3859545E0,-3.255947E-1,-9.2633086E-1,1.1598599E0,8.001386E-1,-9.114863E-3,-8.974691E-3,8.3085036E-1,1.5545182E0,8.3633006E-4,8.924578E-3,2.660109E-3,-1.5641254E0,6.973474E-3,-1.5725625E0,2.2587901E-1,-9.3728835E-3,5.2638543E-3,1.3612036E0,-7.997704E-3,-3.6665118E-1,1.1565738E0,-8.461628E-3,9.1607785E-1,8.123173E-3,2.0935729E-3,-1.820236E0,-7.298696E-1,-9.530676E-3,7.3988633E-3,9.9062485E-1,-6.61625E-1,1.6438171E0,3.0871257E-1,-9.280671E-3,1.1253057E0,1.3822734E0,-8.6714495E-3,4.1274062E-1,1.4050874E0,-9.642301E-3,-2.2741231E-1,1.5796189E-1,-9.383435E-3,1.2715214E0,-8.369269E-3,7.145636E-1,-9.416299E-3,2.1491405E-3,9.124324E-3,-8.465578E-3,8.944932E-3,1.1126153E-3,8.966307E-3,1.5300429E0,-8.032527E-3,6.631173E-1,-8.990941E-3,1.5552243E0,-0E0,8.136801E-3,-8.427443E-3,1.1113786E0,-8.936705E-3,1.5033865E0,-0E0,-8.442493E-3,7.705459E-3,1.629875E0,1.1211945E-3,2.8040165E-1,7.200267E-3,8.505926E-3,1.1384244E-3,-0E0,8.927485E-3,8.358639E-3,2.1250094E-3,-8.0942325E-3,8.372333E-3,8.674078E-3,2.0458368E-3,3.3346587E-3,-8.823659E-3],"categories":[],"categories_nodes":[],"categories_segments":[],"categories_sizes":[],"default_left":[0,0,0,0,0,0,0,0,0,0,0,0,0,0,0,0,0,0,0,0,0,0,0,0,0,0,0,0,0,0,0,0,0,0,0,0,0,0,0,0,0,0,0,0,0,0,0,0,0,0,0,0,0,0,0,0,0,0,0,0,0,0,0,0,0,0,0,0,0,0,0,0,0,0,0,0,0,0,0,0,0,0,0,0,0,0,0,0,0,0,0,0,0,0,0,0,0,0,0,0,0,0,0,0,0],"id":9,"left_children":[1,3,5,7,9,11,13,15,-1,17,19,21,23,-1,25,27,29,-1,31,-1,-1,33,35,37,39,41,-1,-1,43,45,-1,-1,-1,47,-1,49,51,-1,-1,53,-1,55,57,-1,59,-1,-1,61,63,-1,-1,65,67,69,71,-1,73,75,-1,77,79,-1,81,83,-1,85,-1,87,-1,-1,-1,-1,-1,-1,-1,89,-1,91,-1,93,-1,-1,-1,95,-1,97,99,-1,-1,101,-1,103,-1,-1,-1,-1,-1,-1,-1,-1,-1,-1,-1,-1,-1],"loss_changes":[4.298726E2,9.057037E1,1.6628517E2,7.698535E1,1.5389203E2,2.0776779E2,9.516208E1,5.683835E1,0E0,5.5160583E1,5.2555008E1,1.35323E2,1.24036194E2,0E0,1.0072244E2,7.5764366E1,1.4259705E1,0E0,6.471657E0,0E0,0E0,1.5188757E2,1.4138739E2,7.989082E1,4.8363243E1,7.1936966E1,0E0,0E0,4.5547302E1,8.102234E0,0E0,0E0,0E0,5.8578125E1,0E0,6.2835297E1,9.6657074E1,0E0,0E0,2.2047379E1,0E0,8.9729004E1,8.66355E1,0E0,4.8721497E1,0E0,0E0,3.0110779E1,7.087958E1,0E0,0E0,5.8112976E1,1.1019572E2,1.0435699E1,5.5179058E1,0E0,1.0069143E1,5.5364365E1,0E0,5.632264E1,2.1065872E1,0E0,3.6474148E1,7.2387764E1,0E0,2.0804054E1,0E0,6.1140217E1,0E0,0E0,0E0,0E0,0E0,0E0,0E0,1.3704437E1,0E0,2.5657627E1,0E0,1.4550552E1,0E0,0E0,0E0,1.874601E1,0E0,7.889679E0,3.1851856E1,0E0,0E0,9.948456E0,0E0,4.8885036E1,0E0,0E0,0E0,0E0,0E0,0E0,0E0,0E0,0E0,0E0,0E0,0E0,0E0],"parents":[2147483647,0,0,1,1,2,2,3,3,4,4,5,5,6,6,7,7,9,9,10,10,11,11,12,12,14,14,15,15,16,16,18,18,21,21,22,22,23,23,24,24,25,25,28,28,29,29,33,33,35,35,36,36,39,39,41,41,42,42,44,44,47,47,48,48,51,51,52,52,53,53,54,54,56,56,57,57,59,59,60,60,62,62,63,63,65,65,67,67,75,75,77,77,79,79,83,83,85,85,86,86,89,89,91,91],"right_children":[2,4,6,8,10,12,14,16,-1,18,20,22,24,-1,26,28,30,-1,32,-1,-1,34,36,38,40,42,-1,-1,44,46,-1,-1,-1,48,-1,50,52,-1,-1,54,-1,56,58,-1,60,-1,-1,62,64,-1,-1,66,68,70,72,-1,74,76,-1,78,80,-1,82,84,-1,86,-1,88,-1,-1,-1,-1,-1,-1,-1,90,-1,92,-1,94,-1,-1,-1,96,-1,98,100,-1,-1,102,-1,104,-1,-1,-1,-1,-1,-1,-1,-1,-1,-1,-1,-1,-1],"split_conditions":[2.3195897E2,1.3714855E1,-3.243625E1,2.0156384E-16,1.51E0,1.2049117E-1,-7E1,4.6366844E-1,-8.801138E-3,2.7953314E-2,1.945E2,5.091691E-1,3E1,-9.189706E-3,7.148561E-1,-5.146569E-1,3.7603421E0,-8.238548E-3,-1.595315E0,-9.514316E-3,5.5114296E-3,1E0,4.647059E0,3.142857E-2,3.3613634E0,4.0997687E2,-9.114863E-3,-8.974691E-3,-1.5074817E0,3.5216938E8,8.3633006E-4,8.924578E-3,2.660109E-3,-8.955832E-1,6.973474E-3,2.3E1,1.5E1,-9.3728835E-3,5.2638543E-3,3.7280746E1,-7.997704E-3,2.813554E9,1.275E1,-8.461628E-3,2.8E-1,8.123173E-3,2.0935729E-3,1.2267034E3,3.908403E-2,-9.530676E-3,7.3988633E-3,3.24E0,4.8142556E7,-2.0135744E-1,1.3939354E-1,-9.280671E-3,5.5E1,8.232065E-2,-8.6714495E-3,7.1666664E-1,7.1633235E-2,-9.642301E-3,-2.236068E-1,1.6601056E8,-9.383435E-3,3.9957728E0,-8.369269E-3,2.1535208E7,-9.416299E-3,2.1491405E-3,9.124324E-3,-8.465578E-3,8.944932E-3,1.1126153E-3,8.966307E-3,2.3425916E-2,-8.032527E-3,4.4610777E-1,-8.990941E-3,1.5441928E5,-0E0,8.136801E-3,-8.427443E-3,2.4316171E-3,-8.936705E-3,-1.344009E0,1.406E1,-8.442493E-3,7.705459E-3,1.34341E3,1.1211945E-3,1.15E0,7.200267E-3,8.505926E-3,1.1384244E-3,-0E0,8.927485E-3,8.358639E-3,2.1250094E-3,-8.0942325E-3,8.372333E-3,8.674078E-3,2.0458368E-3,3.3346587E-3,-8.823659E-3],"split_indices":[1,43,32,76,60,42,21,77,0,39,73,77,52,0,27,82,5,0,64,0,0,61,103,124,68,1,0,0,100,104,0,0,0,64,0,57,52,0,0,97,0,78,87,0,55,0,0,119,49,0,0,55,101,112,39,0,35,112,0,98,38,0,20,2,0,5,0,101,0,0,0,0,0,0,0,66,0,41,0,101,0,0,0,112,0,69,52,0,0,60,0,60,0,0,0,0,0,0,0,0,0,0,0,0,0],"split_type":[0,0,0,0,0,0,0,0,0,0,0,0,0,0,0,0,0,0,0,0,0,0,0,0,0,0,0,0,0,0,0,0,0,0,0,0,0,0,0,0,0,0,0,0,0,0,0,0,0,0,0,0,0,0,0,0,0,0,0,0,0,0,0,0,0,0,0,0,0,0,0,0,0,0,0,0,0,0,0,0,0,0,0,0,0,0,0,0,0,0,0,0,0,0,0,0,0,0,0,0,0,0,0,0,0],"sum_hessian":[1.3235529E3,4.8628006E2,8.3727277E2,3.9590176E2,9.03783E1,6.340301E2,2.0324269E2,3.864126E2,9.48917E0,4.546533E1,4.4912975E1,5.0743582E2,1.2659425E2,1.7475319E1,1.8576736E2,2.2155957E2,1.6485303E2,5.4954653E0,3.9969864E1,3.8703316E1,6.209658E0,3.0424603E2,2.031898E2,4.1874004E1,8.4720245E1,1.7028955E2,1.5477819E1,1.0989486E1,2.1057008E2,1.5564648E2,9.206544E0,3.226376E1,7.706105E0,2.8636133E2,1.788469E1,6.2368176E1,1.4082162E2,2.870498E1,1.3169022E1,7.947993E1,5.2403216E0,3.9351833E1,1.3093771E2,6.246088E0,2.04324E2,1.4743536E2,8.211113E0,2.1784785E2,6.851348E1,5.69078E1,5.4603753E0,7.60566E1,6.476503E1,6.1818115E1,1.7661812E1,1.9975716E1,1.937612E1,1.2195261E2,8.98511E0,1.0200912E2,1.0231488E2,2.0539975E2,1.2448094E1,3.831196E1,3.0201523E1,6.931736E1,6.7392387E0,3.007292E1,3.4692112E1,8.210083E0,5.3608032E1,7.239246E0,1.0422565E1,8.952365E0,1.0423756E1,1.16710915E2,5.2416873E0,9.22651E1,9.744023E0,9.21088E1,1.0206079E1,5.2111435E0,7.2369504E0,2.6081776E1,1.2230181E1,5.8611668E1,1.0705694E1,7.237886E0,2.2835033E1,1.0775786E2,8.953061E0,6.2713436E1,2.9551662E1,8.314858E1,8.9602165E0,1.0200839E1,1.5880938E1,5.0403713E1,8.207956E0,5.491223E0,5.214471E0,9.955216E1,8.205694E0,5.3471504E1,9.24193E0],"tree_param":{"num_deleted":"0","num_feature":"125","num_nodes":"105","size_leaf_vector":"1"}},{"base_weights":[3.369556E-2,5.611204E-1,-7.3662364E-1,-8.0128014E-1,7.372252E-1,-1.5417268E0,-3.7961644E-1,-1.5395818E0,4.1504633E-1,8.2409245E-1,-9.27588E-3,-9.588268E-3,6.5378505E-1,-8.533439E-1,3.3215076E-1,-9.502549E-3,8.013609E-3,1.3904648E0,-8.7637E-3,9.051268E-1,-1.1119391E0,7.6612732E-3,-8.164456E-3,-1.388383E0,2.900679E-1,7.584287E-1,-9.284396E-3,9.192944E-3,2.0734535E-3,9.8307455E-1,-6.0995716E-1,-9.273581E-3,6.369066E-3,5.2908295E-1,-1.7489082E0,9.547872E-1,-9.099715E-3,9.2484903E-1,-8.46048E-3,-8.7524277E-1,1.0475614E0,-9.241187E-3,6.160692E-3,7.6875146E-3,-8.402424E-3,-9.579202E-3,6.065335E-3,1.3454188E0,-8.33804E-3,-8.1992345E-3,1.0738276E0,-9.112808E-3,8.17458E-3,1.327303E0,7.78464E-1,8.244188E-3,3.757921E-4,-4.0826103E-1,1.289468E0,1.4130086E0,5.735107E-1,8.9785576E-1,-9.019907E-3,8.012726E-3,-8.601365E-3,-8.838779E-3,1.4567516E0,1.1579086E0,8.428676E-3,-8.847344E-3,7.663335E-3,2.237278E-1,1.2957803E0,-8.135569E-3,8.136538E-3,1.5733205E0,1.3566165E-3,6.3530873E-3,-0E0,-6.4360052E-3,4.3758047E-3,7.4020997E-3,1.2750167E-3,1.7294612E-3,8.591584E-3],"categories":[],"categories_nodes":[],"categories_segments":[],"categories_sizes":[],"default_left":[0,0,0,0,0,0,0,0,0,0,0,0,0,0,0,0,0,0,0,0,0,0,0,0,0,0,0,0,0,0,0,0,0,0,0,0,0,0,0,0,0,0,0,0,0,0,0,0,0,0,0,0,0,0,0,0,0,0,0,0,0,0,0,0,0,0,0,0,0,0,0,0,0,0,0,0,0,0,0,0,0,0,0,0,0],"id":10,"left_children":[1,3,5,7,9,11,13,15,17,19,-1,-1,21,23,25,-1,-1,27,-1,29,31,-1,-1,33,35,37,-1,-1,-1,39,41,-1,-1,43,45,47,-1,49,-1,51,53,-1,-1,-1,-1,-1,-1,55,-1,-1,57,-1,-1,59,61,-1,-1,63,65,67,69,71,-1,-1,-1,73,75,77,-1,-1,-1,79,81,-1,-1,83,-1,-1,-1,-1,-1,-1,-1,-1,-1],"loss_changes":[5.48093E2,1.9262343E2,1.5565857E2,8.346099E1,1.5923578E2,1.3395312E2,1.2903784E2,6.412018E1,7.410152E1,1.0842856E2,0E0,0E0,4.816971E1,1.4151471E2,1.4094487E2,0E0,0E0,8.22031E0,0E0,7.873828E1,4.9461384E1,0E0,0E0,1.0998343E2,1.0242491E2,5.2245453E1,0E0,0E0,0E0,7.6144165E1,7.411749E1,0E0,0E0,5.6086792E1,6.093274E1,5.850324E1,0E0,4.642253E1,0E0,5.097056E1,4.3629578E1,0E0,0E0,0E0,0E0,0E0,0E0,1.6870682E1,0E0,0E0,3.754747E1,0E0,0E0,1.7154297E1,9.637225E1,0E0,0E0,3.9515694E1,2.2909286E1,1.4133118E1,7.242268E1,7.918413E1,0E0,0E0,0E0,3.1756205E1,1.0747147E1,1.6718903E1,0E0,0E0,0E0,1.0940273E2,3.2205658E1,0E0,0E0,1.1071457E1,0E0,0E0,0E0,0E0,0E0,0E0,0E0,0E0,0E0],"parents":[2147483647,0,0,1,1,2,2,3,3,4,4,5,5,6,6,7,7,8,8,9,9,12,12,13,13,14,14,17,17,19,19,20,20,23,23,24,24,25,25,29,29,30,30,33,33,34,34,35,35,37,37,39,39,40,40,47,47,50,50,53,53,54,54,57,57,58,58,59,59,60,60,61,61,65,65,66,66,67,67,71,71,72,72,75,75],"right_children":[2,4,6,8,10,12,14,16,18,20,-1,-1,22,24,26,-1,-1,28,-1,30,32,-1,-1,34,36,38,-1,-1,-1,40,42,-1,-1,44,46,48,-1,50,-1,52,54,-1,-1,-1,-1,-1,-1,56,-1,-1,58,-1,-1,60,62,-1,-1,64,66,68,70,72,-1,-1,-1,74,76,78,-1,-1,-1,80,82,-1,-1,84,-1,-1,-1,-1,-1,-1,-1,-1,-1],"split_conditions":[2.6690862E9,0E0,1.2910807E0,1.7804514E0,2.813605E-1,4.9053E2,-3.24546E1,9.1981155E-1,2.7815115E0,1.0246E2,-9.27588E-3,-9.588268E-3,5.66725E2,1.08379245E-1,3.1919478E-4,-9.502549E-3,8.013609E-3,-1.785E2,-8.7637E-3,8.478261E0,3.2951175E2,7.6612732E-3,-8.164456E-3,3.024116E1,3.7280746E1,1.1388889E1,-9.284396E-3,9.192944E-3,2.0734535E-3,-3.596E1,2.629156E1,-9.273581E-3,6.369066E-3,6.388E1,2.4008974E-1,1.01E0,-9.099715E-3,2.4E0,-8.46048E-3,2.811245E-2,8.4E0,-9.241187E-3,6.160692E-3,7.6875146E-3,-8.402424E-3,-9.579202E-3,6.065335E-3,1.7332178E-1,-8.33804E-3,-8.1992345E-3,-7.237001E-1,-9.112808E-3,8.17458E-3,2.568306E-1,2.2481067E-16,8.244188E-3,3.757921E-4,1.5748818E8,-2.4566384E-1,2.5309257E-2,-1.8454147E1,6.4593806E0,-9.019907E-3,8.012726E-3,-8.601365E-3,1.12E0,5.6422156E-1,1.6377605E0,8.428676E-3,-8.847344E-3,7.663335E-3,4.1017726E-1,3.7006052E0,-8.135569E-3,8.136538E-3,5E-2,1.3566165E-3,6.3530873E-3,-0E0,-6.4360052E-3,4.3758047E-3,7.4020997E-3,1.2750167E-3,1.7294612E-3,8.591584E-3],"split_indices":[0,114,29,29,76,52,71,102,94,55,0,0,52,13,124,0,0,123,0,103,97,0,0,116,97,91,0,0,0,12,11,0,0,60,9,55,0,103,0,111,60,0,0,0,0,0,0,75,0,0,109,0,0,49,99,0,0,2,79,9,71,26,0,0,0,7,83,29,0,0,0,83,5,0,0,55,0,0,0,0,0,0,0,0,0],"split_type":[0,0,0,0,0,0,0,0,0,0,0,0,0,0,0,0,0,0,0,0,0,0,0,0,0,0,0,0,0,0,0,0,0,0,0,0,0,0,0,0,0,0,0,0,0,0,0,0,0,0,0,0,0,0,0,0,0,0,0,0,0,0,0,0,0,0,0,0,0,0,0,0,0,0,0,0,0,0,0,0,0,0,0,0,0],"sum_hessian":[1.3480984E3,8.008866E2,5.472118E2,9.093277E1,7.0995386E2,1.668257E2,3.803861E2,5.6865677E1,3.4067093E1,6.874921E2,2.2461725E1,1.4370602E2,2.3119673E1,2.2893994E2,1.5144617E2,5.165942E1,5.2062573E0,2.3836704E1,1.0230388E1,6.60563E2,2.6929106E1,1.7132254E1,5.987418E0,1.5631606E2,7.26239E1,1.2724025E2,2.420591E1,1.5629783E1,8.206922E0,6.289201E2,3.1642904E1,2.0966566E1,5.962539E0,2.4364239E1,1.3195181E2,5.56583E1,1.6965601E1,1.1975447E2,7.485779E0,2.0439842E1,6.084802E2,1.922129E1,1.2421614E1,1.712942E1,7.2348194E0,1.2599423E2,5.957581E0,4.8921078E1,6.7372184E0,5.9892054E0,1.1376527E2,1.5227649E1,5.2121935E0,2.95771E2,3.1270926E2,3.9219715E1,9.701363E0,1.3938051E1,9.982722E1,2.641928E2,3.1578197E1,2.994792E2,1.3230076E1,5.206214E0,8.731837E0,1.0950701E1,8.887652E1,1.361434E2,1.280494E2,8.742686E0,2.283551E1,1.1222148E2,1.8725769E2,5.7395654E0,5.2111354E0,8.017442E1,8.702097E0,1.25434814E2,1.0708596E1,3.317532E1,7.904616E1,1.5989674E2,2.7360949E1,8.454113E0,7.172031E1],"tree_param":{"num_deleted":"0","num_feature":"125","num_nodes":"85","size_leaf_vector":"1"}},{"base_weights":[3.9032433E-2,7.946064E-1,-4.4017446E-1,9.740946E-1,-1.0291653E0,-8.798212E-1,3.1163929E-2,1.141978E0,-8.213486E-2,-9.366672E-3,6.995876E-1,-9.498388E-3,-6.1716497E-1,-5.844853E-1,6.237955E-1,1.198032E0,-8.52466E-3,-9.354665E-3,1.08636E0,8.135931E-3,3.454334E-4,-1.9581501E-1,-1.3889794E0,-1.0066646E0,1.0045723E0,-8.131655E-1,9.5185864E-1,7.5239265E-1,1.3752944E0,7.7794464E-3,-8.133685E-3,2.710125E-1,-1.2846351E0,-1.6956058E0,3.995558E-3,7.2435135E-1,-1.4232466E0,1.4277719E0,-7.974716E-3,-9.295183E-3,8.088623E-3,1.1270537E0,-8.681507E-3,5.665692E-3,-4.4238326E-1,1.4738961E0,6.8642074E-1,6.798851E-1,-1.2404364E0,1.5436444E-1,-9.4157085E-3,-9.509196E-3,6.332545E-3,-8.2623605E-3,7.094049E-3,6.594792E-3,-1.7200282E0,2.0022253E-3,8.545842E-3,-8.382133E-3,1.2671403E0,-9.1915615E-3,6.346035E-3,1.5171751E0,9.7392674E-4,-8.610458E-3,1.3445417E0,-8.658321E-3,8.934121E-1,-9.255287E-3,6.8132253E-3,-8.463283E-3,7.4643334E-3,-9.5536E-3,7.4155023E-3,1.4490377E0,-4.2572787E-1,5.529515E-1,7.958813E-3,9.110156E-3,8.184382E-4,-1.1720891E-1,1.3298358E0,2.5303176E-1,1.6231855E0,8.130064E-3,-8.642955E-3,-0E0,8.071695E-3,-9.079108E-3,7.394095E-3,1.5749531E0,-8.592076E-2,-8.414231E-3,7.7812513E-3,9.6388755E-4,8.7479865E-3,8.044806E-3,-8.276408E-3,8.719541E-3,1.7583044E-3,-8.206237E-3,8.105128E-3],"categories":[],"categories_nodes":[],"categories_segments":[],"categories_sizes":[],"default_left":[0,0,0,0,0,0,0,0,0,0,0,0,0,0,0,0,0,0,0,0,0,0,0,0,0,0,0,0,0,0,0,0,0,0,0,0,0,0,0,0,0,0,0,0,0,0,0,0,0,0,0,0,0,0,0,0,0,0,0,0,0,0,0,0,0,0,0,0,0,0,0,0,0,0,0,0,0,0,0,0,0,0,0,0,0,0,0,0,0,0,0,0,0,0,0,0,0,0,0,0,0,0,0],"id":11,"left_children":[1,3,5,7,9,11,13,15,17,-1,19,-1,21,23,25,27,-1,-1,29,-1,-1,31,33,35,37,39,41,43,45,-1,-1,47,49,51,-1,53,55,57,-1,-1,-1,59,-1,-1,61,63,65,67,69,71,-1,-1,-1,-1,-1,-1,73,-1,-1,-1,75,-1,-1,77,-1,-1,79,-1,81,-1,-1,-1,-1,-1,-1,83,85,87,-1,-1,-1,89,91,93,95,-1,-1,97,-1,-1,-1,99,101,-1,-1,-1,-1,-1,-1,-1,-1,-1,-1],"loss_changes":[4.9481573E2,1.7429962E2,1.7372847E2,8.6645966E1,6.96647E1,1.1155676E2,1.4724217E2,6.72818E1,1.392414E2,0E0,7.633131E0,0E0,1.107413E2,1.3299203E2,9.7787796E1,3.0198242E1,0E0,0E0,5.092069E1,0E0,0E0,1.1500127E2,8.244426E1,1.140681E2,4.655291E1,9.723713E1,7.972421E1,5.3785706E1,1.7571838E1,0E0,0E0,9.715899E1,5.83928E1,6.176584E1,0E0,5.034296E1,1.0445114E2,7.949768E0,0E0,0E0,0E0,6.308853E1,0E0,0E0,6.8248604E1,1.260321E1,6.206936E1,6.400941E1,5.3207653E1,4.945678E1,0E0,0E0,0E0,0E0,0E0,0E0,6.6010895E1,0E0,0E0,0E0,4.791487E1,0E0,0E0,1.2288696E1,0E0,0E0,1.5232086E1,0E0,5.1693367E1,0E0,0E0,0E0,0E0,0E0,0E0,2.701236E1,4.070319E1,9.965731E0,0E0,0E0,0E0,9.443363E1,2.9250275E1,4.808037E1,1.7452362E1,0E0,0E0,3.0657234E1,0E0,0E0,0E0,1.1187546E1,3.3151516E1,0E0,0E0,0E0,0E0,0E0,0E0,0E0,0E0,0E0,0E0],"parents":[2147483647,0,0,1,1,2,2,3,3,4,4,5,5,6,6,7,7,8,8,10,10,12,12,13,13,14,14,15,15,18,18,21,21,22,22,23,23,24,24,25,25,26,26,27,27,28,28,31,31,32,32,33,33,35,35,36,36,37,37,41,41,44,44,45,45,46,46,47,47,48,48,49,49,56,56,60,60,63,63,66,66,68,68,75,75,76,76,77,77,81,81,82,82,83,83,84,84,87,87,91,91,92,92],"right_children":[2,4,6,8,10,12,14,16,18,-1,20,-1,22,24,26,28,-1,-1,30,-1,-1,32,34,36,38,40,42,44,46,-1,-1,48,50,52,-1,54,56,58,-1,-1,-1,60,-1,-1,62,64,66,68,70,72,-1,-1,-1,-1,-1,-1,74,-1,-1,-1,76,-1,-1,78,-1,-1,80,-1,82,-1,-1,-1,-1,-1,-1,84,86,88,-1,-1,-1,90,92,94,96,-1,-1,98,-1,-1,-1,100,102,-1,-1,-1,-1,-1,-1,-1,-1,-1,-1],"split_conditions":[2.383619E2,1.9443318E-2,-5.5365555E1,1.452132E1,1.2398376E-1,-5.517744E-1,2.7391305E0,2.0156384E-16,2.7653044E-2,-9.366672E-3,-4.0533468E-2,-9.498388E-3,6.1612E2,2.4253732E-1,4.142074E-1,5.783929E-3,-8.52466E-3,-9.354665E-3,6.95E0,8.135931E-3,3.454334E-4,2.17E0,1.0956897E3,1.9149797E0,-7.5077573E-3,1E3,2.2843158E-1,2.55E0,4.4977512E-2,7.7794464E-3,-8.133685E-3,3.8675318E0,5.565555E1,-2.6702058E-1,3.995558E-3,3.1746033E-1,-1.426E3,-2.8374774E-2,-7.974716E-3,-9.295183E-3,8.088623E-3,-2.5435553E0,-8.681507E-3,5.665692E-3,4.3369332E-1,1E2,1.4439826E-2,2.55239E0,3.1445464E-1,6.7857533E0,-9.4157085E-3,-9.509196E-3,6.332545E-3,-8.2623605E-3,7.094049E-3,6.594792E-3,9.9102074E-1,2.0022253E-3,8.545842E-3,-8.382133E-3,3.6099102E1,-9.1915615E-3,6.346035E-3,-1.0344464E0,9.7392674E-4,-8.610458E-3,-2.1661432E0,-8.658321E-3,2E0,-9.255287E-3,6.8132253E-3,-8.463283E-3,7.4643334E-3,-9.5536E-3,7.4155023E-3,9.723528E-2,2.5531915E-1,3.987086E0,7.958813E-3,9.110156E-3,8.184382E-4,1.2049117E-1,5.8906496E8,1.9807322E0,-4.3699186E-4,8.130064E-3,-8.642955E-3,-5.1562256E-1,8.071695E-3,-9.079108E-3,7.394095E-3,4.257732E-1,-1E-2,-8.414231E-3,7.7812513E-3,9.6388755E-4,8.7479865E-3,8.044806E-3,-8.276408E-3,8.719541E-3,1.7583044E-3,-8.206237E-3,8.105128E-3],"split_indices":[1,19,46,43,19,79,30,76,10,0,20,0,60,38,77,83,0,0,60,0,0,55,17,68,110,53,102,60,37,0,0,5,85,69,0,54,123,109,0,0,0,109,0,0,49,55,110,68,88,22,0,0,0,0,0,0,13,0,0,0,33,0,0,80,0,0,82,0,34,0,0,0,0,0,0,75,41,5,0,0,0,42,18,89,67,0,0,42,0,0,0,41,12,0,0,0,0,0,0,0,0,0,0],"split_type":[0,0,0,0,0,0,0,0,0,0,0,0,0,0,0,0,0,0,0,0,0,0,0,0,0,0,0,0,0,0,0,0,0,0,0,0,0,0,0,0,0,0,0,0,0,0,0,0,0,0,0,0,0,0,0,0,0,0,0,0,0,0,0,0,0,0,0,0,0,0,0,0,0,0,0,0,0,0,0,0,0,0,0,0,0,0,0,0,0,0,0,0,0,0,0,0,0,0,0,0,0,0,0],"sum_hessian":[1.3646459E3,5.300535E2,8.3459235E2,4.8320047E2,4.6853046E1,4.323556E2,4.0223676E2,4.174992E2,6.570126E1,3.1937267E1,1.491578E1,8.8278435E1,3.4407715E2,1.9667131E2,2.0556544E2,4.1000995E2,7.489251E0,2.6208693E1,3.9492573E1,5.211117E0,9.704663E0,2.2370505E2,1.20372116E2,1.5594121E2,4.07301E1,3.761223E1,1.6795322E2,1.18812996E2,2.9119696E2,3.4247448E1,5.245125E0,1.56421E2,6.728404E1,1.0595993E2,1.4412185E1,2.9810541E1,1.2613067E2,3.5491283E1,5.238817E0,2.6694069E1,1.0918162E1,1.5822583E2,9.727376E0,9.115844E1,2.7654554E1,2.531619E2,3.803506E1,1.2377646E2,3.2644547E1,1.9151632E1,4.813241E1,9.999671E1,5.963217E0,6.238626E0,2.3571917E1,1.1907195E1,1.1422348E2,8.197645E0,2.7293638E1,6.9864182E0,1.5123943E2,1.54838505E1,1.2170703E1,2.442095E2,8.95238E0,7.741451E0,3.029361E1,9.478098E0,1.1429836E2,2.6932606E1,5.7119403E0,7.732441E0,1.1419191E1,1.08762314E2,5.461165E0,1.3704633E2,1.4193099E1,1.5662766E1,2.2854674E2,2.1087992E1,9.205618E0,3.409202E1,8.0206345E1,1.8160091E1,1.1888623E2,5.2109346E0,8.982164E0,1.0453921E1,5.208845E0,1.671345E1,1.7378567E1,6.876042E1,1.144592E1,6.9876056E0,1.1172485E1,9.203847E0,1.0968238E2,5.2077107E0,5.246211E0,6.0309464E1,8.45096E0,6.2358165E0,5.2101035E0],"tree_param":{"num_deleted":"0","num_feature":"125","num_nodes":"103","size_leaf_vector":"1"}},{"base_weights":[-5.94763E-3,8.245102E-1,-5.683909E-1,1.0778854E0,-6.314223E-1,-8.2653797E-1,4.4028306E-1,1.1528236E0,-7.2652155E-1,7.628501E-2,-9.305688E-3,-7.1509436E-2,-1.1927997E0,-9.026417E-3,6.965016E-1,1.1955104E0,-8.341125E-3,7.995497E-3,-8.964703E-3,-9.09992E-3,9.77159E-1,-1.4732016E0,3.7186506E-1,-1.7800909E0,-7.4385303E-1,-8.7624965E-3,9.0753126E-1,1.3291304E0,6.830243E-1,-8.621349E-2,7.7166907E-3,7.278779E-3,-9.385356E-3,6.2589526E-1,-8.998479E-3,-9.526147E-3,7.438377E-3,-1.0566892E-1,-1.3854921E0,-8.662867E-3,1.125455E0,1.0449944E0,1.5521724E0,-8.948351E-3,1.0626153E0,8.124873E-3,-8.22549E-3,-8.678638E-3,8.2061726E-1,-1.0652868E0,5.3093755E-1,7.979624E-3,-1.5339692E0,1.2767375E0,-8.092049E-3,1.1982846E0,-8.679775E-3,1.2944698E-3,1.6093874E0,1.3451489E0,-8.409295E-3,-3.5472423E-1,1.1218714E0,-9.30058E-3,6.468909E-1,-5.2623266E-1,1.2676806E0,-9.4625205E-3,5.2591965E-2,1.4072392E0,-0E0,9.302116E-3,9.6631867E-1,8.377803E-3,1.9770963E-3,7.983668E-3,-0E0,-9.022271E-3,7.0248097E-3,-1.921446E-1,1.3015556E0,5.749852E-5,8.070445E-3,-9.113574E-3,8.896064E-3,-0E0,8.2249455E-3,-8.592558E-3,8.134445E-3,6.161376E-1,8.119338E-3,7.960409E-3,-8.046346E-3,-2.1595508E-1,1.118725E0,-8.160802E-3,8.004916E-3,-8.264279E-3,7.332444E-3,1.4533672E0,-0E0,-8.144471E-3,7.341755E-3,-8.633114E-3,7.2397217E-3,4.67702E-3,8.652144E-3,8.043198E-3,1.0587518E-3],"categories":[],"categories_nodes":[],"categories_segments":[],"categories_sizes":[],"default_left":[0,0,0,0,0,0,0,0,0,0,0,0,0,0,0,0,0,0,0,0,0,0,0,0,0,0,0,0,0,0,0,0,0,0,0,0,0,0,0,0,0,0,0,0,0,0,0,0,0,0,0,0,0,0,0,0,0,0,0,0,0,0,0,0,0,0,0,0,0,0,0,0,0,0,0,0,0,0,0,0,0,0,0,0,0,0,0,0,0,0,0,0,0,0,0,0,0,0,0,0,0,0,0,0,0,0,0,0,0],"id":12,"left_children":[1,3,5,7,9,11,13,15,17,19,-1,21,23,-1,25,27,-1,-1,-1,-1,29,31,33,35,37,-1,39,41,43,45,-1,-1,-1,47,-1,-1,-1,49,51,-1,53,55,57,-1,59,-1,-1,-1,61,63,65,-1,67,69,-1,71,-1,-1,73,75,-1,77,79,-1,81,83,85,-1,87,89,91,-1,93,-1,-1,-1,95,-1,-1,97,99,-1,-1,-1,-1,-1,-1,-1,-1,101,-1,-1,-1,103,105,-1,-1,-1,-1,107,-1,-1,-1,-1,-1,-1,-1,-1,-1],"loss_changes":[6.235877E2,1.9949088E2,2.0797983E2,6.2979553E1,6.998186E1,1.7465714E2,9.263277E1,5.3832764E1,4.6403095E1,8.626719E1,0E0,1.3094116E2,1.0986908E2,0E0,7.5470535E1,2.7772583E1,0E0,0E0,0E0,0E0,2.1695415E1,5.937674E1,8.677761E1,6.729004E1,9.862555E1,0E0,7.8142136E1,1.8835999E1,8.701039E1,3.3313766E1,0E0,0E0,0E0,6.54551E1,0E0,0E0,0E0,7.619479E1,5.4771835E1,0E0,5.2875793E1,6.646248E1,1.2419464E1,0E0,6.3525116E1,0E0,0E0,0E0,4.7757133E1,6.8243805E1,5.8754547E1,0E0,6.432156E1,2.0696E1,0E0,1.8842545E1,0E0,0E0,9.525024E0,2.4676697E1,0E0,6.957245E1,2.6054123E1,0E0,8.340635E0,9.149109E1,1.956446E1,0E0,5.8577675E1,1.5183548E1,3.0086132E1,0E0,2.0726524E1,0E0,0E0,0E0,3.0714413E1,0E0,0E0,3.2144165E1,1.7772781E1,0E0,0E0,0E0,0E0,0E0,0E0,0E0,0E0,4.6286358E1,0E0,0E0,0E0,3.280874E1,8.271835E0,0E0,0E0,0E0,0E0,1.3197388E1,0E0,0E0,0E0,0E0,0E0,0E0,0E0,0E0,0E0],"parents":[2147483647,0,0,1,1,2,2,3,3,4,4,5,5,6,6,7,7,8,8,9,9,11,11,12,12,14,14,15,15,20,20,21,21,22,22,23,23,24,24,26,26,27,27,28,28,29,29,33,33,37,37,38,38,40,40,41,41,42,42,44,44,48,48,49,49,50,50,52,52,53,53,55,55,58,58,59,59,61,61,62,62,64,64,65,65,66,66,68,68,69,69,70,70,72,72,76,76,79,79,80,80,89,89,93,93,94,94,99,99],"right_children":[2,4,6,8,10,12,14,16,18,20,-1,22,24,-1,26,28,-1,-1,-1,-1,30,32,34,36,38,-1,40,42,44,46,-1,-1,-1,48,-1,-1,-1,50,52,-1,54,56,58,-1,60,-1,-1,-1,62,64,66,-1,68,70,-1,72,-1,-1,74,76,-1,78,80,-1,82,84,86,-1,88,90,92,-1,94,-1,-1,-1,96,-1,-1,98,100,-1,-1,-1,-1,-1,-1,-1,-1,102,-1,-1,-1,104,106,-1,-1,-1,-1,108,-1,-1,-1,-1,-1,-1,-1,-1,-1],"split_conditions":[2.383619E2,9.859543E-3,1.2049117E-1,3.4149587E-2,2.97051E0,1.3575189E7,-1.335888E-1,1.0246E2,1.2563531E-2,2.3714213E0,-9.305688E-3,-5.08E0,2E0,-9.026417E-3,-1.3635797E2,1.029E2,-8.341125E-3,7.995497E-3,-8.964703E-3,-9.09992E-3,1.4152633E-2,-1.5576735E2,1.6977929E-3,1.4265537E-1,6.0295276E2,-8.7624965E-3,1.9299614E0,6E-2,1.9958428E0,2.1298978E6,7.7166907E-3,7.278779E-3,-9.385356E-3,-1.4460522E-32,-8.998479E-3,-9.526147E-3,7.438377E-3,5.0260854E-1,1.701015E1,-8.662867E-3,3.3943496E0,3.249E-1,-8.4579414E1,-8.948351E-3,2.9072022E8,8.124873E-3,-8.22549E-3,-8.678638E-3,4.073745E2,-3.243625E1,-2.5246E2,7.979624E-3,8.791667E0,2.191619E1,-8.092049E-3,-1.06905326E-1,-8.679775E-3,1.2944698E-3,4.8523206E-2,1.4152138E-1,-8.409295E-3,3.1919478E-4,-6.328759E-2,-9.30058E-3,3.59E2,6.094183E-1,2.6E1,-9.4625205E-3,-3.2049747E1,-8.968957E-1,-5.0386614E-1,9.302116E-3,-8.1E-1,8.377803E-3,1.9770963E-3,7.983668E-3,6E0,-9.022271E-3,7.0248097E-3,2.3597938E-16,3.772307E7,5.749852E-5,8.070445E-3,-9.113574E-3,8.896064E-3,-0E0,8.2249455E-3,-8.592558E-3,8.134445E-3,2.4E-2,8.119338E-3,7.960409E-3,-8.046346E-3,2.3257017E-1,1.2125311E2,-8.160802E-3,8.004916E-3,-8.264279E-3,7.332444E-3,1.022E1,-0E0,-8.144471E-3,7.341755E-3,-8.633114E-3,7.2397217E-3,4.67702E-3,8.652144E-3,8.043198E-3,1.0587518E-3],"split_indices":[1,19,42,63,40,120,110,55,25,40,0,12,34,0,46,60,0,0,0,0,42,109,111,111,96,0,43,55,5,0,0,0,0,79,0,0,0,77,17,0,68,116,32,0,2,0,0,0,1,32,123,0,30,80,0,42,0,0,37,88,0,124,36,0,16,41,35,0,71,82,50,0,56,0,0,0,47,0,0,82,101,0,0,0,0,0,0,0,0,24,0,0,0,92,96,0,0,0,0,55,0,0,0,0,0,0,0,0,0],"split_type":[0,0,0,0,0,0,0,0,0,0,0,0,0,0,0,0,0,0,0,0,0,0,0,0,0,0,0,0,0,0,0,0,0,0,0,0,0,0,0,0,0,0,0,0,0,0,0,0,0,0,0,0,0,0,0,0,0,0,0,0,0,0,0,0,0,0,0,0,0,0,0,0,0,0,0,0,0,0,0,0,0,0,0,0,0,0,0,0,0,0,0,0,0,0,0,0,0,0,0,0,0,0,0,0,0,0,0,0,0],"sum_hessian":[1.3342216E3,5.380936E2,7.961279E2,4.5890692E2,7.9186714E1,6.345777E2,1.6155028E2,4.4122324E2,1.7683695E1,5.0003994E1,2.9182718E1,2.0819221E2,4.2638547E2,1.5960302E1,1.4558998E2,4.352297E2,5.9935303E0,5.2053437E0,1.2478352E1,1.5721762E1,3.4282234E1,5.0086723E1,1.581055E2,1.8320522E2,2.4318024E2,1.0971402E1,1.3461858E2,3.4327213E2,9.195756E1,1.1447437E1,2.2834797E1,5.4545608E0,4.4632164E1,1.4214984E2,1.595566E1,1.7774422E2,5.4610105E0,1.228682E2,1.2031203E2,9.724734E0,1.2489384E2,1.5399883E2,1.8927332E2,1.1732313E1,8.022524E1,5.210769E0,6.236668E0,1.0220757E1,1.3192908E2,4.930397E1,7.356423E1,5.2045016E0,1.1510753E2,1.1891153E2,5.9823117E0,1.4650504E2,7.4937897E0,8.704451E0,1.8056886E2,7.323751E1,6.987736E0,2.6386158E1,1.0554292E2,3.4152687E1,1.5151281E1,2.9867802E1,4.3696434E1,9.496355E1,2.014398E1,1.08219826E2,1.0691705E1,3.6691017E1,1.0981401E2,1.7236266E2,8.206207E0,6.2538258E1,1.0699248E1,1.4719387E1,1.1666771E1,1.2189532E1,9.335339E1,9.942487E0,5.2087946E0,1.9448563E1,1.0419239E1,1.019497E1,3.350146E1,9.223935E0,1.0920045E1,2.335786E1,8.486196E1,5.203428E0,5.488277E0,1.1948599E1,9.786542E1,5.4934225E0,5.2058253E0,6.731567E0,5.457965E0,8.315992E1,1.019347E1,5.9857965E0,1.7372065E1,6.4956174E0,5.4529815E0,7.628208E1,2.1583334E1,7.395489E1,9.205033E0],"tree_param":{"num_deleted":"0","num_feature":"125","num_nodes":"109","size_leaf_vector":"1"}},{"base_weights":[2.4516946E-2,5.4862565E-1,-7.699325E-1,1.1623229E0,1.6610424E-1,7.4349666E-1,-9.372008E-1,-4.290761E-1,1.2420188E0,-3.9412484E-1,6.786518E-1,1.1606416E0,-8.336278E-3,5.2157557E-1,-1.1057228E0,8.142014E-3,-8.676081E-3,2.8110984E-1,1.3353945E0,4.1728413E-1,-1.1038246E0,-1.1423092E0,9.0351665E-1,-7.7114752E-3,7.811532E-3,-8.800825E-3,1.3267286E0,-2.7468953E-1,-1.4345517E0,-8.823852E-3,8.423991E-3,1.4132184E0,5.0022745E-1,-4.1791737E-1,1.2202638E0,-9.46825E-3,-9.918989E-2,-9.16006E-3,7.952001E-3,1.0674987E0,-8.2079303E-1,8.076033E-3,-8.072383E-3,8.89893E-3,2.0664364E-4,-1.0451362E0,7.8006613E-1,-1.662745E0,1.1147883E-1,4.6355496E-3,1.5746354E0,7.669864E-3,-8.638167E-3,-1.3492402E0,8.321337E-3,-0E0,7.596818E-3,-9.14246E-3,9.69052E-1,1.1531973E0,-8.19212E-3,8.269378E-3,-9.017953E-3,5.557165E-1,-9.354603E-3,-8.5764695E-3,1.3711421E0,-1.801665E0,-1.4530805E-1,-8.8547245E-3,1.1317412E0,2.063554E-3,8.187624E-3,-9.403971E-3,6.6443407E-3,-8.037885E-3,8.135675E-3,8.152645E-3,-8.191294E-3,1.256311E0,-3.0298743E-1,6.7999195E-3,-8.0773365E-3,4.599419E-4,8.682161E-3,-9.493249E-3,6.7291157E-3,-8.716431E-3,5.963861E-3,8.550465E-3,3.8122045E-4,1.3739561E0,1.2942615E-1,8.3106E-3,-8.529791E-3,-1.03514664E-1,1.4814394E0,7.63695E-3,-8.520708E-3,-8.266143E-3,8.001991E-3,7.917814E-3,2.8517745E-3],"categories":[],"categories_nodes":[],"categories_segments":[],"categories_sizes":[],"default_left":[0,0,0,0,0,0,0,0,0,0,0,0,0,0,0,0,0,0,0,0,0,0,0,0,0,0,0,0,0,0,0,0,0,0,0,0,0,0,0,0,0,0,0,0,0,0,0,0,0,0,0,0,0,0,0,0,0,0,0,0,0,0,0,0,0,0,0,0,0,0,0,0,0,0,0,0,0,0,0,0,0,0,0,0,0,0,0,0,0,0,0,0,0,0,0,0,0,0,0,0,0,0,0],"id":13,"left_children":[1,3,5,7,9,11,13,15,17,19,21,23,-1,25,27,-1,-1,29,31,33,35,37,39,41,-1,-1,43,45,47,-1,-1,49,51,53,55,-1,57,-1,-1,59,61,-1,-1,-1,-1,63,65,67,69,-1,71,-1,-1,73,-1,75,-1,-1,77,79,-1,-1,-1,81,-1,-1,83,85,87,-1,89,-1,-1,-1,-1,-1,-1,-1,-1,91,93,-1,-1,-1,-1,-1,-1,-1,-1,-1,-1,95,97,-1,-1,99,101,-1,-1,-1,-1,-1,-1],"loss_changes":[5.596319E2,1.8917424E2,1.357207E2,4.0308075E1,1.4419064E2,5.384735E1,1.1915076E2,4.0925354E1,2.5131226E1,1.3842108E2,1.0794032E2,2.1949638E1,0E0,9.206272E1,1.1658948E2,0E0,0E0,8.003017E1,1.5614868E1,7.5671135E1,9.802185E1,5.4692966E1,6.6992355E1,3.1258738E1,0E0,0E0,1.96428E1,1.0144117E2,1.1025568E2,0E0,0E0,1.6761475E1,5.7339584E1,1.0640992E2,2.055687E1,0E0,1.05784996E2,0E0,0E0,5.0338898E1,5.0288017E1,0E0,0E0,0E0,0E0,9.5378075E1,7.785957E1,5.521704E1,7.677903E1,0E0,8.499908E0,0E0,0E0,5.457023E1,0E0,3.0716503E1,0E0,0E0,6.0677586E1,3.2283905E1,0E0,0E0,0E0,4.30023E1,0E0,0E0,1.7752129E1,6.4542114E1,5.1610657E1,0E0,1.4337486E1,0E0,0E0,0E0,0E0,0E0,0E0,0E0,0E0,2.467688E1,3.9216774E1,0E0,0E0,0E0,0E0,0E0,0E0,0E0,0E0,0E0,0E0,2.9129211E1,5.1276367E1,0E0,0E0,3.29923E1,1.1245605E1,0E0,0E0,0E0,0E0,0E0,0E0],"parents":[2147483647,0,0,1,1,2,2,3,3,4,4,5,5,6,6,7,7,8,8,9,9,10,10,11,11,13,13,14,14,17,17,18,18,19,19,20,20,21,21,22,22,23,23,26,26,27,27,28,28,31,31,32,32,33,33,34,34,36,36,39,39,40,40,45,45,46,46,47,47,48,48,50,50,53,53,55,55,58,58,59,59,63,63,66,66,67,67,68,68,70,70,79,79,80,80,91,91,92,92,95,95,96,96],"right_children":[2,4,6,8,10,12,14,16,18,20,22,24,-1,26,28,-1,-1,30,32,34,36,38,40,42,-1,-1,44,46,48,-1,-1,50,52,54,56,-1,58,-1,-1,60,62,-1,-1,-1,-1,64,66,68,70,-1,72,-1,-1,74,-1,76,-1,-1,78,80,-1,-1,-1,82,-1,-1,84,86,88,-1,90,-1,-1,-1,-1,-1,-1,-1,-1,92,94,-1,-1,-1,-1,-1,-1,-1,-1,-1,-1,96,98,-1,-1,100,102,-1,-1,-1,-1,-1,-1],"split_conditions":[2.1434126E8,3.13E0,-1.907871E0,-9.803922E-2,3.880597E-1,-1.2646455E0,-1.3957489E-1,-7.8752E2,-3.8915E1,5.859947E1,-3.3451528E-3,1.2631578E0,-8.336278E-3,2.6019376E2,2.828427E-2,8.142014E-3,-8.676081E-3,4.3916392E-1,2.568306E-1,1.3557307E0,5.520296E2,1.5271638E2,4.1994753E0,2.1653377E2,7.811532E-3,-8.800825E-3,-4.848E1,7.3125E0,6.4994755E0,-8.823852E-3,8.423991E-3,2.0166666E1,-5.162646E-1,5.478189E1,-2.0520468E1,-9.46825E-3,5.714286E0,-9.16006E-3,7.952001E-3,2.6E-1,3.9E-1,8.076033E-3,-8.072383E-3,8.89893E-3,2.0664364E-4,4.2E1,1.4979637E0,2.0126806E-1,1.909217E-1,4.6355496E-3,-2.68196E-2,7.669864E-3,-8.638167E-3,1.0000002E0,8.321337E-3,7.3356006E8,7.596818E-3,-9.14246E-3,5.5380316E0,6.7391305E0,-8.19212E-3,8.269378E-3,-9.017953E-3,2.0526316E0,-9.354603E-3,-8.5764695E-3,-5.43E0,9.638707E0,2.05E1,-8.8547245E-3,5.2004147E1,2.063554E-3,8.187624E-3,-9.403971E-3,6.6443407E-3,-8.037885E-3,8.135675E-3,8.152645E-3,-8.191294E-3,1.6852274E8,-2.4195835E1,6.7999195E-3,-8.0773365E-3,4.599419E-4,8.682161E-3,-9.493249E-3,6.7291157E-3,-8.716431E-3,5.963861E-3,8.550465E-3,3.8122045E-4,-8.5479E-1,1E-1,8.3106E-3,-8.529791E-3,3.021963E-1,3.5946396E-1,7.63695E-3,-8.520708E-3,-8.266143E-3,8.001991E-3,7.917814E-3,2.8517745E-3],"split_indices":[104,60,31,70,54,64,20,123,84,17,114,108,0,119,26,0,0,39,49,80,1,33,40,1,0,0,21,103,36,0,0,1,33,17,65,0,91,0,0,28,54,0,0,0,0,16,20,42,92,0,67,0,0,49,0,2,0,0,33,103,0,0,0,91,0,0,21,110,87,0,17,0,0,0,0,0,0,0,0,2,31,0,0,0,0,0,0,0,0,0,0,80,52,0,0,13,49,0,0,0,0,0,0],"split_type":[0,0,0,0,0,0,0,0,0,0,0,0,0,0,0,0,0,0,0,0,0,0,0,0,0,0,0,0,0,0,0,0,0,0,0,0,0,0,0,0,0,0,0,0,0,0,0,0,0,0,0,0,0,0,0,0,0,0,0,0,0,0,0,0,0,0,0,0,0,0,0,0,0,0,0,0,0,0,0,0,0,0,0,0,0,0,0,0,0,0,0,0,0,0,0,0,0,0,0,0,0,0,0],"sum_hessian":[1.3431887E3,8.0997424E2,5.332145E2,3.097679E2,5.002063E2,5.2407433E1,4.8080707E2,1.41943035E1,2.955736E2,2.3835748E2,2.6184885E2,4.517849E1,7.2289424E0,4.9196312E1,4.3161075E2,5.211301E0,8.983003E0,2.71106E1,2.6846298E2,1.1083736E2,1.2752012E2,2.8134727E1,2.3371411E2,1.0944357E1,3.4234135E1,1.2459135E1,3.6737175E1,1.233353E2,3.0827545E2,1.07281275E1,1.6382473E1,2.4436333E2,2.409967E1,5.401809E1,5.6819267E1,7.130784E1,5.6212284E1,2.2931787E1,5.20294E0,2.1403189E2,1.9682226E1,5.2090173E0,5.7353396E0,2.6794231E1,9.942943E0,7.168724E1,5.164806E1,2.690075E2,3.9267944E1,6.2359253E1,1.8200407E2,1.6858223E1,7.241448E0,3.7644855E1,1.6373232E1,1.0698027E1,4.6121243E1,2.1686111E1,3.4526176E1,2.0804417E2,5.9877048E0,5.213944E0,1.4468282E1,2.3839859E1,4.784738E1,9.468335E0,4.217972E1,2.4588625E2,2.3121262E1,1.34553795E1,2.5812565E1,8.20175E0,1.7380232E2,3.193815E1,5.7067065E0,5.4869175E0,5.211109E0,2.8045961E1,6.480214E0,1.94847E2,1.3197176E1,1.7859003E1,5.9808564E0,9.698229E0,3.2481495E1,2.401769E2,5.709347E0,1.0718478E1,1.2402783E1,1.611908E1,9.693484E0,1.7570232E2,1.914468E1,5.2143226E0,7.982853E0,1.1444133E1,1.642582E2,1.1162366E1,7.982315E0,6.2384553E0,5.205677E0,1.4859859E2,1.56596E1],"tree_param":{"num_deleted":"0","num_feature":"125","num_nodes":"103","size_leaf_vector":"1"}},{"base_weights":[1.1202941E-2,7.399198E-1,-4.4901648E-1,9.892442E-1,-6.2420356E-1,2.0131336E-1,-8.3428305E-1,-8.610733E-3,1.0483906E0,-1.4567803E0,6.955493E-1,3.9644897E-1,-9.1619175E-3,-9.60914E-1,7.4085015E-1,-8.398022E-3,1.0975772E0,-9.3574915E-3,6.6787004E-3,7.6724645E-3,-8.353984E-3,5.220753E-1,-8.891834E-3,-1.1018169E0,4.897417E-1,1.3545393E0,-8.26785E-3,-8.164874E-3,1.1392834E0,-8.7360125E-3,6.320111E-1,-1.504235E0,-4.5625058E-1,-8.713545E-3,1.4292779E0,1.2508946E-3,8.89671E-3,1.2023787E0,-4.1245143E-3,-1.4693222E-2,1.0319127E0,-6.453145E-1,-9.437549E-3,-9.280064E-3,-9.1188755E-3,9.297463E-3,1.5080769E-3,7.5206125E-1,1.3737062E0,7.934732E-3,-8.81436E-3,-9.087886E-3,4.2211348E-1,-4.9943438E-1,1.2010598E0,-9.2455195E-3,2.415814E-1,-1.3327808E0,5.603821E-1,5.044575E-3,-8.702593E-3,1.500786E0,8.461509E-1,1.0598037E0,-9.9111956E-1,-8.605456E-3,7.910813E-3,-1.02891445E-1,1.3249854E0,9.299814E-1,-8.69751E-3,-9.216193E-3,7.207994E-3,-5.8599913E-1,1.1937326E0,9.479241E-4,1.5507044E0,-8.780923E-3,1.3768477E0,-9.8950595E-2,1.3901985E0,7.207324E-3,-9.026558E-3,8.273641E-3,-8.227801E-3,-0E0,1.43972E0,7.583608E-3,-8.063848E-3,8.000106E-3,-9.049598E-3,-7.944905E-3,1.5128793E0,8.007575E-3,2.2045032E-3,7.3850056E-4,8.28632E-3,-8.156165E-3,7.918389E-3,1.122899E-3,8.442855E-3,-7.93174E-3,8.109516E-3,1.4272174E-3,7.676925E-3,8.933265E-3,9.428113E-4],"categories":[],"categories_nodes":[],"categories_segments":[],"categories_sizes":[],"default_left":[0,0,0,0,0,0,0,0,0,0,0,0,0,0,0,0,0,0,0,0,0,0,0,0,0,0,0,0,0,0,0,0,0,0,0,0,0,0,0,0,0,0,0,0,0,0,0,0,0,0,0,0,0,0,0,0,0,0,0,0,0,0,0,0,0,0,0,0,0,0,0,0,0,0,0,0,0,0,0,0,0,0,0,0,0,0,0,0,0,0,0,0,0,0,0,0,0,0,0,0,0,0,0,0,0,0,0],"id":14,"left_children":[1,3,5,7,9,11,13,-1,15,17,19,21,-1,23,25,-1,27,-1,-1,-1,-1,29,-1,31,33,35,-1,-1,37,-1,39,41,43,-1,45,-1,-1,47,49,51,53,55,-1,-1,57,-1,-1,59,61,-1,-1,-1,63,65,67,-1,69,71,73,-1,-1,75,77,79,81,-1,-1,83,85,87,-1,-1,-1,89,91,-1,93,-1,95,97,99,-1,-1,-1,-1,101,103,-1,-1,-1,-1,-1,105,-1,-1,-1,-1,-1,-1,-1,-1,-1,-1,-1,-1,-1,-1],"loss_changes":[4.4729523E2,1.7637473E2,2.051406E2,7.041058E1,8.883734E1,1.1891787E2,1.03043335E2,0E0,5.795053E1,5.6796074E1,6.1556503E1,7.496721E1,0E0,9.810129E1,5.687027E1,0E0,4.85838E1,0E0,0E0,0E0,0E0,6.508333E1,0E0,1.1099884E2,8.905328E1,1.2230728E1,0E0,0E0,3.0916687E1,0E0,6.586506E1,8.15058E1,1.0287103E2,0E0,1.2177326E1,0E0,0E0,2.8231628E1,6.171152E1,7.652139E1,4.137245E1,8.730434E1,0E0,0E0,9.7820984E1,0E0,0E0,6.909561E1,1.649701E1,0E0,0E0,0E0,7.0437485E1,4.0577038E1,2.3838806E1,0E0,6.37992E1,5.5512016E1,6.6095436E1,0E0,0E0,1.3392548E1,8.049649E1,2.1720566E1,4.8305977E1,0E0,0E0,3.450651E1,1.9468948E1,5.2777E1,0E0,0E0,0E0,8.5841034E1,5.3119164E1,0E0,7.0983887E0,0E0,1.4404129E1,3.2181774E1,1.2459549E1,0E0,0E0,0E0,0E0,2.9587934E1,9.777145E0,0E0,0E0,0E0,0E0,0E0,1.65001E1,0E0,0E0,0E0,0E0,0E0,0E0,0E0,0E0,0E0,0E0,0E0,0E0,0E0,0E0],"parents":[2147483647,0,0,1,1,2,2,3,3,4,4,5,5,6,6,8,8,9,9,10,10,11,11,13,13,14,14,16,16,21,21,23,23,24,24,25,25,28,28,30,30,31,31,32,32,34,34,37,37,38,38,39,39,40,40,41,41,44,44,47,47,48,48,52,52,53,53,54,54,56,56,57,57,58,58,61,61,62,62,63,63,64,64,67,67,68,68,69,69,73,73,74,74,76,76,78,78,79,79,80,80,85,85,86,86,92,92],"right_children":[2,4,6,8,10,12,14,-1,16,18,20,22,-1,24,26,-1,28,-1,-1,-1,-1,30,-1,32,34,36,-1,-1,38,-1,40,42,44,-1,46,-1,-1,48,50,52,54,56,-1,-1,58,-1,-1,60,62,-1,-1,-1,64,66,68,-1,70,72,74,-1,-1,76,78,80,82,-1,-1,84,86,88,-1,-1,-1,90,92,-1,94,-1,96,98,100,-1,-1,-1,-1,102,104,-1,-1,