{"learner":{"attributes":{"scikit_learn":"{\"_estimator_type\": \"classifier\"}"},"feature_names":["high_freq_powerovr","amount_mean_ovr_pos","low_freq_powerovr","dominant_power26","weekly_spend_slope_group_9_pos","log_amount_mean_group_9_neg","pct_amount_abs_13.0","weekly_txn_freq_11_neg","weekly_txn_freq_2","weekend_spend_pct_group_10_pos","weekend_spend_pct_1","weekday_spend_std_group_6","amount_max_15","pct_amount_pos_0.0","power_ratio16","weekend_spend_pct_15","txn_count_group_10_pos","weekday_spend_std_group_10","high_freq_power3","pct_amount_abs_26.0","amount_skew_6","amount_median_1","log_amount_mean_11_pos","amount_skew_5","txn_active_day_pct_group_9_pos","high_to_low_spend_ratio_group_8","amount_std_4","amount_gini_1_neg","amount_gini_7","log_amount_mean_23","monthly_txn_freq_19","pct_amount_total_10.0","monthly_avg_spend_15","amount_kurtosis_group_2","weekly_txn_freq_18","outlier_count_ovr_neg","pct_amount_total_20.0","txn_active_day_pct_13","txn_active_day_pct_26","weekend_spend_pct_group_7","log_amount_mean_group_3_neg","cat_concentration_group_8","monthly_spend_slope_18","txn_burstiness_19","log_amount_mean_28","power_ratio13","monthly_avg_spend_group_3_neg","rank_total_10.0","outlier_count_group_8","high_to_low_spend_ratio_group_9","week_series_category_25_trend","dominant_freq22","amount_median_6","amount_min_2","txn_positive_ratio_1","amount_min_4","amount_max_group_2","rank_total_26.0","outlier_count_4","rank_pos_3.0","total_balance_x","low_dollar_txn_pct_12_neg","log_amount_mean_21","power_ratio24","amount_cv_group_2","monthly_avg_spend_20","pct_amount_total_3.0","weekly_spend_slope_26","log_amount_mean_14","amount_cv_group_10_neg","monthly_spend_slope_0_pos","weekly_avg_spend_16","weekday_spend_std_35","txn_gap_iqr_22","monthly_avg_spend_11_pos","high_to_low_spend_ratio_22","amount_skew_group_1","amount_gini_18","high_freq_power1","week_series_category_13_trend","amount_kurtosis_17","amount_max_22","amount_skew_group_3","net_spending_ratio_1","amount_median_15","amount_std_19","txn_active_day_pct_group_10","txn_gap_iqr_20","power_ratio17","week_series_category_6_trend","txn_burstiness_13","monthly_txn_freq_18","power_ratio1","amount_cv_1_neg","log_amount_mean_18","txn_duration_days_2","amount_std_group_10","weekday_spend_std_group_9_neg","cat_concentration_group_2","amount_skew_7","amount_kurtosis_4","high_freq_power15","power_ratio11","monthly_txn_freq_group_9_neg","dominant_powerovr","high_to_low_spend_ratio_7","amount_mean_12_neg","week_series_category_2_trend","monthly_txn_freq_13","pct_amount_total_26.0","monthly_spend_slope_group_8","dominant_freq24","week_series_category_20_trend","rank_neg_17.0","monthly_spend_slope_26","weekly_txn_freq_group_6","dominant_power23","weekend_spend_pct_group_10_neg","cat_concentration_group_6","amount_std_3_pos","dominant_power1","weekly_avg_spend_0","monthly_txn_freq_group_1","amount_min_18","week_series_category_23_trend"],"feature_types":["float","float","float","float","float","float","float","float","float","float","float","float","float","float","float","float","float","float","float","float","float","float","float","float","float","float","float","float","float","float","float","float","float","float","float","float","float","float","float","float","float","float","float","float","float","float","float","float","float","float","float","float","float","float","float","float","float","float","float","float","float","float","float","float","float","float","float","float","float","float","float","float","float","float","float","float","float","float","float","float","float","float","float","float","float","float","float","float","float","float","float","float","float","float","float","float","float","float","float","float","float","float","float","float","float","float","float","float","float","float","float","float","float","float","float","float","float","float","float","float","float","float","float","float","float"],"gradient_booster":{"model":{"gbtree_model_param":{"num_parallel_tree":"1","num_trees":"222"},"iteration_indptr":[0,1,2,3,4,5,6,7,8,9,10,11,12,13,14,15,16,17,18,19,20,21,22,23,24,25,26,27,28,29,30,31,32,33,34,35,36,37,38,39,40,41,42,43,44,45,46,47,48,49,50,51,52,53,54,55,56,57,58,59,60,61,62,63,64,65,66,67,68,69,70,71,72,73,74,75,76,77,78,79,80,81,82,83,84,85,86,87,88,89,90,91,92,93,94,95,96,97,98,99,100,101,102,103,104,105,106,107,108,109,110,111,112,113,114,115,116,117,118,119,120,121,122,123,124,125,126,127,128,129,130,131,132,133,134,135,136,137,138,139,140,141,142,143,144,145,146,147,148,149,150,151,152,153,154,155,156,157,158,159,160,161,162,163,164,165,166,167,168,169,170,171,172,173,174,175,176,177,178,179,180,181,182,183,184,185,186,187,188,189,190,191,192,193,194,195,196,197,198,199,200,201,202,203,204,205,206,207,208,209,210,211,212,213,214,215,216,217,218,219,220,221,222],"tree_info":[0,0,0,0,0,0,0,0,0,0,0,0,0,0,0,0,0,0,0,0,0,0,0,0,0,0,0,0,0,0,0,0,0,0,0,0,0,0,0,0,0,0,0,0,0,0,0,0,0,0,0,0,0,0,0,0,0,0,0,0,0,0,0,0,0,0,0,0,0,0,0,0,0,0,0,0,0,0,0,0,0,0,0,0,0,0,0,0,0,0,0,0,0,0,0,0,0,0,0,0,0,0,0,0,0,0,0,0,0,0,0,0,0,0,0,0,0,0,0,0,0,0,0,0,0,0,0,0,0,0,0,0,0,0,0,0,0,0,0,0,0,0,0,0,0,0,0,0,0,0,0,0,0,0,0,0,0,0,0,0,0,0,0,0,0,0,0,0,0,0,0,0,0,0,0,0,0,0,0,0,0,0,0,0,0,0,0,0,0,0,0,0,0,0,0,0,0,0,0,0,0,0,0,0,0,0,0,0,0,0,0,0,0,0,0,0,0,0,0,0,0,0],"trees":[{"base_weights":[4.5426197E-2,1.067233E0,-4.245067E-1,1.3619033E0,-1.727863E-1,5.7106655E-2,-8.636468E-1,-2.5107026E-1,1.4257257E0,4.0946427E-1,-9.588713E-3,-3.0571628E-1,7.386568E-1,2.5317806E-1,-1.2011825E0,-8.792711E-3,8.372942E-3,8.5641706E-1,1.5819205E0,1.1909305E0,-9.6250033E-1,5.7379514E-1,-8.2577044E-1,9.458937E-1,-9.186014E-3,-7.5583375E-1,1.1369996E0,-1.5112897E0,2.4381073E-1,1.0359874E0,-6.671103E-2,5.2393794E-1,1.6884452E0,8.476104E-3,-8.3575435E-3,-9.465451E-3,7.6156524E-3,9.6646434E-1,-9.382657E-3,-1.7187332E0,-6.724213E-2,1.0701735E0,-8.491936E-3,3.591169E-1,-9.681884E-3,-8.606779E-3,1.5010643E0,2.2309265E-1,-1.8277466E0,-9.456208E-3,9.5503443E-1,3.804954E-3,8.618346E-3,-8.551525E-3,8.372942E-3,-8.832043E-3,8.084909E-3,8.989125E-3,9.4959855E-1,-9.02512E-3,1.2891307E0,5.6759883E-3,-9.938214E-3,3.613651E-1,-9.544593E-3,5.2788783E-2,1.352057E0,-8.869026E-3,6.652894E-3,8.7503325E-3,1.1598817E-3,1.1594279E0,-9.382657E-3,-1.9062089E0,4.6031326E-3,1.3804132E0,-8.606779E-3,8.347766E-3,-6.671103E-2,1.5628372E0,-2.1707034E-1,-3.1324133E-1,1.5314553E0,1.0037379E0,-9.100721E-3,1.5005523E0,-0E0,-1.0663297E-1,9.403793E-3,-1.0029676E-2,4.11972E-3,8.612836E-3,6.032846E-4,8.372942E-3,-8.551525E-3,2.1128505E-3,8.560288E-3,-8.750801E-3,8.372942E-3,-9.626008E-3,9.239589E-1,2.1128505E-3,9.63043E-3,9.9252444E-5,9.187594E-3,1.4605307E-3,1.6113585E0,-8.3575435E-3,8.372942E-3,-8.606779E-3,8.372942E-3,7.952454E-3,-8.3575435E-3,8.629404E-3,2.4674921E-3],"categories":[],"categories_nodes":[],"categories_segments":[],"categories_sizes":[],"default_left":[0,0,0,0,0,0,0,0,0,0,0,0,0,0,0,0,0,0,0,0,0,0,0,0,0,0,0,0,0,0,0,0,0,0,0,0,0,0,0,0,0,0,0,0,0,0,0,0,0,0,0,0,0,0,0,0,0,0,0,0,0,0,0,0,0,0,0,0,0,0,0,0,0,0,0,0,0,0,0,0,0,0,0,0,0,0,0,0,0,0,0,0,0,0,0,0,0,0,0,0,0,0,0,0,0,0,0,0,0,0,0,0,0,0,0],"id":0,"left_children":[1,3,5,7,9,11,13,15,17,19,-1,21,23,25,27,-1,-1,29,31,33,35,37,39,41,-1,43,45,47,49,51,53,55,57,-1,-1,-1,-1,59,-1,61,63,65,-1,67,-1,-1,69,71,73,-1,75,-1,-1,-1,-1,-1,-1,-1,77,-1,79,-1,-1,81,-1,83,85,-1,-1,-1,-1,87,-1,89,-1,91,-1,-1,93,95,97,99,101,103,-1,105,107,109,-1,-1,-1,-1,-1,-1,-1,-1,-1,-1,-1,-1,111,-1,-1,-1,-1,-1,113,-1,-1,-1,-1,-1,-1,-1,-1],"loss_changes":[6.432308E2,1.552977E2,1.9445422E2,3.6276306E1,8.326128E1,1.0848948E2,1.8192017E2,3.9213177E1,2.6601624E1,6.6154015E1,0E0,1.3075333E2,8.142185E1,1.0020967E2,1.66698E2,0E0,0E0,1.2914772E1,2.67052E1,5.675622E1,5.1998672E1,1.0145914E2,1.2035404E2,4.704905E1,0E0,6.9117935E1,6.3621254E1,1.6865228E2,9.895764E1,9.104576E0,3.5095333E1,6.308548E1,1.3050781E1,0E0,0E0,0E0,0E0,8.258431E1,0E0,6.0879898E1,7.8491104E1,3.7952606E1,0E0,5.555527E1,0E0,0E0,1.4295181E1,9.290627E1,5.732025E1,0E0,5.741667E1,0E0,0E0,0E0,0E0,0E0,0E0,0E0,2.1690626E1,0E0,3.5298035E1,0E0,0E0,6.420571E1,0E0,5.4879574E1,2.1347687E1,0E0,0E0,0E0,0E0,3.1089462E1,0E0,5.8537354E1,0E0,1.6417953E1,0E0,0E0,3.5095333E1,8.827972E0,3.845274E1,1.0199283E2,1.0254898E1,1.5521286E1,0E0,1.1106003E1,3.2233383E1,3.5985832E1,0E0,0E0,0E0,0E0,0E0,0E0,0E0,0E0,0E0,0E0,0E0,0E0,5.000859E1,0E0,0E0,0E0,0E0,0E0,7.5653687E0,0E0,0E0,0E0,0E0,0E0,0E0,0E0,0E0],"parents":[2147483647,0,0,1,1,2,2,3,3,4,4,5,5,6,6,7,7,8,8,9,9,11,11,12,12,13,13,14,14,17,17,18,18,19,19,20,20,21,21,22,22,23,23,25,25,26,26,27,27,28,28,29,29,30,30,31,31,32,32,37,37,39,39,40,40,41,41,43,43,46,46,47,47,48,48,50,50,58,58,60,60,63,63,65,65,66,66,71,71,73,73,75,75,78,78,79,79,80,80,81,81,82,82,83,83,85,85,86,86,87,87,100,100,106,106],"right_children":[2,4,6,8,10,12,14,16,18,20,-1,22,24,26,28,-1,-1,30,32,34,36,38,40,42,-1,44,46,48,50,52,54,56,58,-1,-1,-1,-1,60,-1,62,64,66,-1,68,-1,-1,70,72,74,-1,76,-1,-1,-1,-1,-1,-1,-1,78,-1,80,-1,-1,82,-1,84,86,-1,-1,-1,-1,88,-1,90,-1,92,-1,-1,94,96,98,100,102,104,-1,106,108,110,-1,-1,-1,-1,-1,-1,-1,-1,-1,-1,-1,-1,112,-1,-1,-1,-1,-1,114,-1,-1,-1,-1,-1,-1,-1,-1],"split_conditions":[2.94E0,2.508211E4,7.039306E0,-1.09615624E-1,6.2932503E-1,5.19084E-1,-1.0674314E0,7.584597E10,3.4210527E-1,-1.4881057E0,-9.588713E-3,6.457336E1,2.5412303E-1,7.9773694E-1,4.173913E0,-8.792711E-3,8.372942E-3,1.1395181E1,-7.5676285E1,2.9153855E-16,2.3333333E0,7.714286E-1,1.17068775E-2,1.4757614E-1,-9.186014E-3,5.730391E-1,2.677144E-1,-4.259104E-16,1.3002647E-1,3.9800996E-1,6.98E2,1.0159009E-1,2.255E-1,8.476104E-3,-8.3575435E-3,-9.465451E-3,7.6156524E-3,1.3636364E-1,-9.382657E-3,-3.5459871E0,7.399591E8,-7.415945E1,-8.491936E-3,3.4528062E0,-9.681884E-3,-8.606779E-3,6.6306638E-3,-5.423E1,9.9493426E-1,-9.456208E-3,-1.3714303E0,3.804954E-3,8.618346E-3,-8.551525E-3,8.372942E-3,-8.832043E-3,8.084909E-3,8.989125E-3,-1.0024246E0,-9.02512E-3,5.875289E-3,5.6759883E-3,-9.938214E-3,2.7199258E8,-9.544593E-3,6.3779527E-1,7E1,-8.869026E-3,6.652894E-3,8.7503325E-3,1.1598817E-3,3E0,-9.382657E-3,1.4266118E-1,4.6031326E-3,3.4313727E-2,-8.606779E-3,8.347766E-3,2E1,1.8599606E1,1.8763547E-1,-2.0108144E0,9.6E0,9.877871E-2,-9.100721E-3,-5.217325E-1,4.9475636E1,2.1688593E2,9.403793E-3,-1.0029676E-2,4.11972E-3,8.612836E-3,6.032846E-4,8.372942E-3,-8.551525E-3,2.1128505E-3,8.560288E-3,-8.750801E-3,8.372942E-3,-9.626008E-3,1E0,2.1128505E-3,9.63043E-3,9.9252444E-5,9.187594E-3,1.4605307E-3,8.90625E-1,-8.3575435E-3,8.372942E-3,-8.606779E-3,8.372942E-3,7.952454E-3,-8.3575435E-3,8.629404E-3,2.4674921E-3],"split_indices":[60,3,43,70,11,54,89,0,41,64,0,17,49,98,30,0,0,17,32,20,8,98,19,117,0,27,83,20,14,86,95,39,49,0,0,0,0,86,0,64,78,32,0,94,0,0,19,84,102,0,93,0,0,0,0,0,0,0,33,0,19,0,0,78,0,98,21,0,0,0,0,59,0,51,0,38,0,0,1,17,14,65,55,70,0,82,11,33,0,0,0,0,0,0,0,0,0,0,0,0,30,0,0,0,0,0,98,0,0,0,0,0,0,0,0],"split_type":[0,0,0,0,0,0,0,0,0,0,0,0,0,0,0,0,0,0,0,0,0,0,0,0,0,0,0,0,0,0,0,0,0,0,0,0,0,0,0,0,0,0,0,0,0,0,0,0,0,0,0,0,0,0,0,0,0,0,0,0,0,0,0,0,0,0,0,0,0,0,0,0,0,0,0,0,0,0,0,0,0,0,0,0,0,0,0,0,0,0,0,0,0,0,0,0,0,0,0,0,0,0,0,0,0,0,0,0,0,0,0,0,0,0,0],"sum_hessian":[1.3373442E3,4.2154694E2,9.1579724E2,3.4104575E2,8.05012E1,4.3622177E2,4.795755E2,1.2464455E1,3.2858127E2,6.025124E1,2.0249958E1,2.8418246E2,1.5203929E2,1.1082354E2,3.6875195E2,7.2499847E0,5.21447E0,7.264465E1,2.5593661E2,3.8786804E1,2.1464436E1,1.0503803E2,1.7914444E2,1.4128932E2,1.0749977E1,5.1393333E1,5.9430202E1,3.0400073E2,6.475123E1,6.14302E1,1.12144575E1,2.439339E1,2.3154323E2,3.3536816E1,5.249989E0,1.5999967E1,5.4644694E0,9.103806E1,1.399997E1,8.146431E1,9.768012E1,1.3553934E2,5.749988E0,2.6143389E1,2.5249947E1,6.249987E0,5.3180218E1,4.6572308E1,2.5742844E2,1.5749968E1,4.9001263E1,4.503679E1,1.6393408E1,5.9999876E0,5.21447E0,7.4999843E0,1.6893408E1,2.0368536E2,2.7857864E1,8.999981E0,8.203808E1,6.214468E0,7.524984E1,7.918016E1,1.8499962E1,3.014338E1,1.0539595E2,7.749984E0,1.8393404E1,4.4215755E1,8.964462E0,3.2572334E1,1.399997E1,2.5071396E2,6.7144666E0,4.2751278E1,6.249987E0,1.6643408E1,1.12144575E1,6.982362E1,1.2214456E1,5.010782E1,2.9072344E1,2.03934E1,9.74998E0,9.4931496E1,1.0464459E1,1.1464457E1,2.110788E1,2.437495E2,6.964466E0,3.3286816E1,9.464461E0,5.21447E0,5.9999876E0,8.214463E0,6.160916E1,6.999985E0,5.21447E0,2.1999954E1,2.8107864E1,8.214463E0,2.085788E1,9.96446E0,1.042894E1,8.714462E0,8.621703E1,5.249989E0,5.21447E0,6.249987E0,5.21447E0,2.2857876E1,5.249989E0,7.825257E1,7.964464E0],"tree_param":{"num_deleted":"0","num_feature":"125","num_nodes":"115","size_leaf_vector":"1"}},{"base_weights":[4.225249E-2,1.0975342E0,-4.4551548E-1,1.3677205E0,-5.6388276E-3,8.6038786E-1,-6.202594E-1,-2.183646E-1,1.4282982E0,-1.4135756E0,1.1930786E0,1.1544137E0,-9.108139E-3,-2.9693463E-1,-1.2407016E0,-8.730964E-3,8.332514E-3,4.383823E-3,1.5581776E0,-9.735193E-3,8.334813E-3,-8.327351E-3,1.6044738E0,-8.511417E-3,1.3564274E0,-1.1925087E0,7.3493704E-2,4.577768E-1,-1.5447313E0,1.6496335E0,5.71819E-1,1.7704304E-3,9.602415E-3,-1.0627867E-1,1.5711944E0,1.0284457E-1,-9.932004E-3,7.693339E-1,-3.7421468E-1,7.559847E-3,-9.275766E-3,-1.7858754E0,5.9856194E-1,8.796205E-3,1.0208559E0,-8.725064E-3,8.048686E-3,-8.5679125E-3,8.330657E-3,1.7100787E0,1.5019793E-3,-9.497074E-3,1.0191021E0,-8.989447E-3,9.4429785E-1,-1.6335056E0,9.882494E-2,4.100586E-3,-1.8790162E0,8.308671E-3,-8.715321E-3,7.7467537E-3,-2.4950927E-2,9.221546E-3,2.829473E-3,1.5011004E0,-8.464981E-3,1.0907737E0,-8.667643E-3,-9.855016E-3,6.241556E-3,-1.330494E0,4.685994E-1,-9.976779E-3,3.429454E-4,-8.456137E-3,8.334813E-3,9.008157E-3,2.0994677E-3,1.3056306E0,-1.4222038E-2,-9.676743E-3,6.244988E-3,7.7424514E-1,-9.382192E-3,1.4718138E0,-1.0574013E-1,-9.158338E-3,9.146344E-3,1.0655267E0,-9.197415E-3,8.220038E-3,-0E0,-8.565643E-3,8.333585E-3,-8.455555E-3,6.230424E-3],"categories":[],"categories_nodes":[],"categories_segments":[],"categories_sizes":[],"default_left":[0,0,0,0,0,0,0,0,0,0,0,0,0,0,0,0,0,0,0,0,0,0,0,0,0,0,0,0,0,0,0,0,0,0,0,0,0,0,0,0,0,0,0,0,0,0,0,0,0,0,0,0,0,0,0,0,0,0,0,0,0,0,0,0,0,0,0,0,0,0,0,0,0,0,0,0,0,0,0,0,0,0,0,0,0,0,0,0,0,0,0,0,0,0,0,0,0],"id":1,"left_children":[1,3,5,7,9,11,13,15,17,19,21,23,-1,25,27,-1,-1,-1,29,-1,-1,-1,31,-1,33,35,37,39,41,43,45,-1,-1,47,49,51,-1,53,55,-1,-1,57,59,-1,61,-1,-1,-1,-1,63,-1,-1,65,-1,67,69,71,-1,73,-1,-1,-1,75,-1,-1,77,-1,79,-1,-1,-1,81,83,-1,-1,-1,-1,-1,-1,85,87,-1,-1,89,-1,91,93,-1,-1,95,-1,-1,-1,-1,-1,-1,-1],"loss_changes":[7.0127783E2,1.2944391E2,2.1252602E2,3.4405945E1,1.444009E2,8.67372E1,1.6345139E2,3.818582E1,2.161322E1,6.495956E1,5.5301697E1,5.822026E1,0E0,1.8063217E2,1.4610773E2,0E0,0E0,0E0,2.2057068E1,0E0,0E0,0E0,1.3156883E1,0E0,3.052356E1,1.6173296E2,1.1987579E2,1.0361017E2,1.2479199E2,1.1445251E1,5.9436028E1,0E0,0E0,3.5643375E1,1.2657349E1,1.09578316E2,0E0,6.780623E1,1.4003473E2,0E0,0E0,5.3749634E1,6.095808E1,0E0,1.9857243E1,0E0,0E0,0E0,0E0,7.541458E0,0E0,0E0,5.5612022E1,0E0,5.6058006E1,6.1082123E1,8.933749E1,0E0,4.1763428E1,0E0,0E0,0E0,3.3868317E1,0E0,0E0,8.998978E0,0E0,3.306848E1,0E0,0E0,0E0,5.428226E1,9.658595E1,0E0,0E0,0E0,0E0,0E0,0E0,2.7796143E1,7.470001E1,0E0,0E0,9.188024E1,0E0,2.307254E1,3.564546E1,0E0,0E0,5.1809387E1,0E0,0E0,0E0,0E0,0E0,0E0,0E0],"parents":[2147483647,0,0,1,1,2,2,3,3,4,4,5,5,6,6,7,7,8,8,9,9,10,10,11,11,13,13,14,14,18,18,22,22,24,24,25,25,26,26,27,27,28,28,29,29,30,30,33,33,34,34,35,35,37,37,38,38,41,41,42,42,44,44,49,49,52,52,54,54,55,55,56,56,58,58,62,62,65,65,67,67,71,71,72,72,79,79,80,80,83,83,85,85,86,86,89,89],"right_children":[2,4,6,8,10,12,14,16,18,20,22,24,-1,26,28,-1,-1,-1,30,-1,-1,-1,32,-1,34,36,38,40,42,44,46,-1,-1,48,50,52,-1,54,56,-1,-1,58,60,-1,62,-1,-1,-1,-1,64,-1,-1,66,-1,68,70,72,-1,74,-1,-1,-1,76,-1,-1,78,-1,80,-1,-1,-1,82,84,-1,-1,-1,-1,-1,-1,86,88,-1,-1,90,-1,92,94,-1,-1,96,-1,-1,-1,-1,-1,-1,-1],"split_conditions":[2.94E0,1.05E1,0E0,-1.1828726E2,1.7712746E-2,6.5545246E-2,3.776023E0,5.6398827E-1,5.2214945E4,6.2E1,9.453395E0,-1.9442086E-1,-9.108139E-3,7.3356503E-1,1E0,-8.730964E-3,8.332514E-3,4.383823E-3,3.399878E7,-9.735193E-3,8.334813E-3,-8.327351E-3,-6.177882E1,-8.511417E-3,-2.54E0,-1.2205504E0,1.618508E9,1.5580736E-1,1.4265734E-1,1.9044617E-1,5E0,1.7704304E-3,9.602415E-3,2.0809192E8,3.8510453E-2,1.040833E2,-9.932004E-3,-1.3335587E-1,1.3554304E0,7.559847E-3,-9.275766E-3,-1.5052089E1,4.4815224E1,8.796205E-3,8.838835E-1,-8.725064E-3,8.048686E-3,-8.5679125E-3,8.330657E-3,-1.8926E2,1.5019793E-3,-9.497074E-3,4.786341E-4,-8.989447E-3,3.2327145E-16,2.4444444E0,5.120087E2,4.100586E-3,2.375E1,8.308671E-3,-8.715321E-3,7.7467537E-3,1.1049625E5,9.221546E-3,2.829473E-3,4.5013506E-2,-8.464981E-3,3.17E2,-8.667643E-3,-9.855016E-3,6.241556E-3,1.4265734E-1,6.41E2,-9.976779E-3,3.429454E-4,-8.456137E-3,8.334813E-3,9.008157E-3,2.0994677E-3,8.6190474E-1,3.9636096E-1,-9.676743E-3,6.244988E-3,4.5E1,-9.382192E-3,1.3412872E1,3.2686207E0,-9.158338E-3,9.146344E-3,-1.163281E1,-9.197415E-3,8.220038E-3,-0E0,-8.565643E-3,8.333585E-3,-8.455555E-3,6.230424E-3],"split_indices":[60,57,31,46,15,25,5,15,0,35,43,70,0,80,8,0,0,0,101,0,0,0,46,0,12,100,0,86,51,49,47,0,0,3,67,26,0,110,29,0,0,112,26,0,97,0,0,0,0,123,0,0,19,0,99,8,96,0,91,0,0,0,3,0,0,25,0,95,0,0,0,51,95,0,0,0,0,0,0,98,15,0,0,53,0,43,4,0,0,107,0,0,0,0,0,0,0],"split_type":[0,0,0,0,0,0,0,0,0,0,0,0,0,0,0,0,0,0,0,0,0,0,0,0,0,0,0,0,0,0,0,0,0,0,0,0,0,0,0,0,0,0,0,0,0,0,0,0,0,0,0,0,0,0,0,0,0,0,0,0,0,0,0,0,0,0,0,0,0,0,0,0,0,0,0,0,0,0,0,0,0,0,0,0,0,0,0,0,0,0,0,0,0,0,0,0,0],"sum_hessian":[1.3602455E3,4.3022116E2,9.300243E2,3.460073E2,8.421386E1,1.0896516E2,8.2105914E2,1.2214239E1,3.3379306E2,3.8963207E1,4.5250652E1,9.871552E1,1.0249637E1,5.4117334E2,2.7988583E2,6.999807E0,5.2144322E0,6.4930115E1,2.6886295E2,3.3748768E1,5.21444E0,5.2498274E0,4.0000824E1,5.999774E0,9.2715744E1,1.5853195E2,3.8264136E2,4.2071495E1,2.3781433E2,2.4496986E2,2.3893078E1,8.464314E0,3.153651E1,1.14642E1,8.125155E1,5.9285385E1,9.9246574E1,1.5028664E2,2.3235472E2,2.9321968E1,1.2749528E1,2.1417131E2,2.3643023E1,2.1089804E2,3.4071827E1,6.999793E0,1.6893284E1,6.249775E0,5.214425E0,7.25374E1,8.71415E0,1.8249338E1,4.1036045E1,8.999683E0,1.4128696E2,6.3462284E1,1.6889244E2,6.964368E0,2.0720694E2,1.6643263E1,6.9997582E0,2.3107574E1,1.0964253E1,6.4823044E1,7.7143497E0,3.5286232E1,5.7498145E0,1.3453719E2,6.749766E0,5.749787E1,5.9644156E0,3.3963356E1,1.3492908E2,1.9749268E2,9.714265E0,5.749814E0,5.21444E0,2.7071894E1,8.214338E0,1.13108765E2,2.1428429E1,2.7998945E1,5.9644084E0,1.1992966E2,1.4999424E1,1.0164456E2,1.1464206E1,1.0999555E1,1.0428873E1,1.0843011E2,1.1499551E1,9.143033E1,1.02142315E1,6.2497697E0,5.2144356E0,5.749799E0,1.0268031E2],"tree_param":{"num_deleted":"0","num_feature":"125","num_nodes":"97","size_leaf_vector":"1"}},{"base_weights":[-0E0,9.1637224E-1,-4.6961278E-1,1.0476332E0,-9.49114E-3,1.0419305E-1,-9.0281624E-1,1.3102798E0,2.7261293E-1,-8.883575E-1,4.473161E-1,-1.0712339E0,8.285013E-1,6.993904E-1,1.4973794E0,6.5442145E-1,-9.388555E-3,2.0255996E-1,-9.787111E-3,6.203851E-1,-9.467446E-3,-1.261733E0,4.104055E-1,1.3542362E0,-8.677987E-3,8.9547306E-1,-8.32782E-3,1.5724937E0,-2.8569981E-2,-8.857275E-3,8.98875E-1,1.0421176E0,-9.263976E-3,7.7768415E-1,-9.343374E-3,-1.4106591E0,1.053219E-1,-9.091173E-3,1.0131923E0,8.61096E-3,9.045977E-4,2.3383305E-3,7.3576677E-3,1.6470133E0,5.0812477E-1,8.295986E-3,-8.4536895E-3,-8.592811E-3,1.1331664E0,-1.3685417E-1,8.503786E-3,-9.1652395E-3,9.118656E-1,-1.5491706E0,3.5678795E-1,1.1689253E0,-9.281504E-3,-1.4270446E-1,7.5303274E-3,2.0651356E-3,8.526793E-3,-8.379183E-3,8.683178E-3,1.4000207E0,-2.3952374E-1,-8.591375E-3,8.376861E-3,1.0330001E0,-9.00566E-3,-9.6483245E-2,-1.7639464E0,8.552078E-3,-9.022981E-3,8.591406E-3,6.059631E-4,8.301811E-3,-8.580864E-3,1.5952185E0,5.8778963E-4,-8.724984E-3,8.411575E-3,1.1395338E0,-8.790759E-3,-9.355386E-3,7.970347E-1,-1.8998452E0,4.767795E-3,9.020762E-3,1.7509018E-3,1.2199824E0,-8.378525E-3,7.522915E-3,-8.474809E-3,-9.948819E-3,4.5739464E-3,6.8412703E-3,-0E0],"categories":[],"categories_nodes":[],"categories_segments":[],"categories_sizes":[],"default_left":[0,0,0,0,0,0,0,0,0,0,0,0,0,0,0,0,0,0,0,0,0,0,0,0,0,0,0,0,0,0,0,0,0,0,0,0,0,0,0,0,0,0,0,0,0,0,0,0,0,0,0,0,0,0,0,0,0,0,0,0,0,0,0,0,0,0,0,0,0,0,0,0,0,0,0,0,0,0,0,0,0,0,0,0,0,0,0,0,0,0,0,0,0,0,0,0,0],"id":2,"left_children":[1,3,5,7,-1,9,11,13,15,17,19,21,23,25,27,29,-1,31,-1,33,-1,35,37,39,-1,41,-1,43,45,-1,47,49,-1,51,-1,53,55,-1,57,-1,-1,-1,-1,59,61,-1,-1,-1,63,65,-1,-1,67,69,71,73,-1,75,-1,-1,-1,-1,-1,77,79,-1,-1,81,-1,83,85,-1,-1,-1,-1,-1,-1,87,-1,-1,-1,89,-1,-1,91,93,-1,-1,-1,95,-1,-1,-1,-1,-1,-1,-1],"loss_changes":[5.715154E2,1.658584E2,2.1903801E2,8.6194855E1,0E0,1.2856693E2,1.469383E2,3.433838E1,8.985994E1,1.1256603E2,1.1312139E2,1.3012537E2,6.0702484E1,3.597427E1,2.9141174E1,5.600317E1,0E0,8.22724E1,0E0,1.023875E2,0E0,8.3746155E1,7.013392E1,1.3926926E1,0E0,1.5662495E1,0E0,1.6339172E1,3.37063E1,0E0,5.349417E1,2.7468178E1,0E0,8.669641E1,0E0,9.101886E1,8.3585815E1,0E0,2.4264992E1,0E0,0E0,0E0,0E0,9.775879E0,4.6084393E1,0E0,0E0,0E0,3.0362778E1,3.655972E1,0E0,0E0,7.785458E1,1.0476532E2,7.874988E1,1.3359165E1,0E0,3.6200596E1,0E0,0E0,0E0,0E0,0E0,1.5507309E1,3.906653E1,0E0,0E0,6.790965E1,0E0,7.24002E1,1.1091351E2,0E0,0E0,0E0,0E0,0E0,0E0,1.2034973E1,0E0,0E0,0E0,5.032779E1,0E0,0E0,5.3036396E1,5.9884277E1,0E0,0E0,0E0,3.628949E1,0E0,0E0,0E0,0E0,0E0,0E0,0E0],"parents":[2147483647,0,0,1,1,2,2,3,3,5,5,6,6,7,7,8,8,9,9,10,10,11,11,12,12,13,13,14,14,15,15,17,17,19,19,21,21,22,22,23,23,25,25,27,27,28,28,30,30,31,31,33,33,35,35,36,36,38,38,43,43,44,44,48,48,49,49,52,52,53,53,54,54,55,55,57,57,63,63,64,64,67,67,69,69,70,70,77,77,81,81,84,84,85,85,89,89],"right_children":[2,4,6,8,-1,10,12,14,16,18,20,22,24,26,28,30,-1,32,-1,34,-1,36,38,40,-1,42,-1,44,46,-1,48,50,-1,52,-1,54,56,-1,58,-1,-1,-1,-1,60,62,-1,-1,-1,64,66,-1,-1,68,70,72,74,-1,76,-1,-1,-1,-1,-1,78,80,-1,-1,82,-1,84,86,-1,-1,-1,-1,-1,-1,88,-1,-1,-1,90,-1,-1,92,94,-1,-1,-1,96,-1,-1,-1,-1,-1,-1,-1],"split_conditions":[1.233E1,1.0609007E9,1.4399025E9,1.0324734E-3,-9.49114E-3,3.370309E-1,7E0,1.2E1,6.2932503E-1,7E0,1.6E1,2.5E-1,1.2775636E2,6.0920864E-1,7.298964E1,1.0995342E-1,-9.388555E-3,2.3087E2,-9.787111E-3,2.0034294E-1,-9.467446E-3,2.4390243E-1,-2.3221003E-3,1.0952381E0,-8.677987E-3,3.3783782E-2,-8.32782E-3,1.0307937E-2,-4.9E1,-8.857275E-3,-1.05605096E-1,1E0,-9.263976E-3,-3.2645792E-1,-9.343374E-3,2.3073898E-1,-1.6434224E0,-9.091173E-3,3.0650368E0,8.61096E-3,9.045977E-4,2.3383305E-3,7.3576677E-3,-1.5430672E0,6E0,8.295986E-3,-8.4536895E-3,-8.592811E-3,7.133099E-3,2.309026E-1,8.503786E-3,-9.1652395E-3,3.8344383E-1,-4.259104E-16,-2.8891072E0,2.9242E2,-9.281504E-3,-1.3111033E0,7.5303274E-3,2.0651356E-3,8.526793E-3,-8.379183E-3,8.683178E-3,-1.1471196E0,4.4455686E-1,-8.591375E-3,8.376861E-3,6.2096557E-16,-9.00566E-3,3.535981E7,7.19E2,8.552078E-3,-9.022981E-3,8.591406E-3,6.059631E-4,8.301811E-3,-8.580864E-3,-4.52E0,5.8778963E-4,-8.724984E-3,8.411575E-3,1.42837E3,-8.790759E-3,-9.355386E-3,1.6322382E-1,4E0,4.767795E-3,9.020762E-3,1.7509018E-3,3.135794E-1,-8.378525E-3,7.522915E-3,-8.474809E-3,-9.948819E-3,4.5739464E-3,6.8412703E-3,-0E0],"split_indices":[60,18,0,19,0,77,59,16,11,16,57,61,17,5,121,92,0,60,0,117,0,38,42,108,0,86,0,6,12,0,112,113,0,67,0,42,64,0,68,0,0,0,0,100,47,0,0,0,6,92,0,0,76,20,89,60,0,23,0,0,0,0,0,93,4,0,0,99,0,18,95,0,0,0,0,0,0,60,0,0,0,60,0,0,11,58,0,0,0,49,0,0,0,0,0,0,0],"split_type":[0,0,0,0,0,0,0,0,0,0,0,0,0,0,0,0,0,0,0,0,0,0,0,0,0,0,0,0,0,0,0,0,0,0,0,0,0,0,0,0,0,0,0,0,0,0,0,0,0,0,0,0,0,0,0,0,0,0,0,0,0,0,0,0,0,0,0,0,0,0,0,0,0,0,0,0,0,0,0,0,0,0,0,0,0,0,0,0,0,0,0,0,0,0,0,0,0],"sum_hessian":[1.3271473E3,4.4923874E2,8.7790857E2,4.2974075E2,1.9497988E1,3.7712595E2,5.0078265E2,3.1992395E2,1.0981681E2,9.606472E1,2.8106122E2,4.569979E2,4.378476E1,7.6642845E1,2.432811E2,9.3818436E1,1.5998379E1,4.706973E1,4.8994995E1,2.6231323E2,1.8747992E1,4.054643E2,5.153361E1,3.6785454E1,6.9993052E0,7.139317E1,5.2496734E0,2.3231726E2,1.0963845E1,7.9994125E0,8.581902E1,3.3821144E1,1.3248583E1,2.4731487E2,1.4998358E1,3.6610873E2,3.9355545E1,1.0498927E1,4.1034683E1,2.7571352E1,9.214103E0,4.1822037E1,2.9571136E1,2.1613918E2,1.6178082E1,5.2142143E0,5.7496314E0,6.499388E0,7.931963E1,1.1713899E1,2.2107246E1,1.1498849E1,2.3581601E2,3.3996707E2,2.6141663E1,2.5856905E1,1.3498642E1,1.17135515E1,2.9321133E1,8.214053E0,2.0792513E2,5.499639E0,1.0678442E1,6.6855965E1,1.2463666E1,6.4994364E0,5.2144623E0,2.2631688E2,9.499129E0,4.435487E1,2.956122E2,1.6392736E1,9.748925E0,1.6392982E1,9.4639225E0,5.214261E0,6.4992905E0,5.739204E1,9.463926E0,7.249355E0,5.2143116E0,2.185677E2,7.7491846E0,1.4998602E1,2.9356266E1,2.819341E2,1.3678106E1,4.8928143E1,8.463896E0,2.1306804E2,5.4996514E0,2.3356903E1,5.999365E0,2.752199E2,6.7141995E0,1.9189049E2,2.1177555E1],"tree_param":{"num_deleted":"0","num_feature":"125","num_nodes":"97","size_leaf_vector":"1"}},{"base_weights":[2.5551206E-2,7.016835E-1,-6.231268E-1,1.0920397E0,-2.495989E-1,-8.0615354E-1,6.423287E-1,1.156966E0,-9.006418E-3,-7.2782445E-1,1.4282573E0,3.857018E-2,-1.0959966E0,1.2218986E0,-4.990495E-1,1.2105358E0,-8.767819E-3,-1.1187545E0,9.675214E-1,6.010979E-4,8.960886E-3,4.050818E-1,-9.5392475E-3,-1.441029E0,-2.872741E-1,1.4904422E0,-0E0,-9.353859E-3,5.8612484E-3,1.2570639E0,-8.60933E-3,-1.7112049E0,2.5764143E-1,-8.381474E-3,8.670667E-3,1.1841999E0,-5.3742176E-1,-1.6162022E0,1.2203572E0,-1.1289856E0,7.51512E-1,8.8576665E-3,1.1919478E-3,-8.271327E-3,8.268366E-3,1.2956164E0,-8.299381E-3,-9.825821E-3,5.123443E-3,1.1630725E0,-9.071264E-3,1.4586527E0,-8.401782E-3,-1.4171807E0,7.020208E-3,-9.901808E-3,-3.453436E-1,1.7417786E-3,9.0920925E-3,6.5968107E-3,-9.771148E-3,1.2247882E0,-8.919686E-3,-3.1662986E-1,1.3466138E0,5.870118E-4,8.556546E-3,-6.712957E-2,8.996187E-3,8.45138E-3,-9.666205E-3,-9.623291E-3,9.977595E-1,8.683023E-3,2.5427893E-1,-8.800394E-3,8.25919E-3,-3.1032506E-1,1.4005896E0,-8.463354E-3,8.268174E-3,-8.597878E-3,8.617894E-3,-8.685703E-3,8.333068E-3,-8.8042375E-3,8.337457E-3,3.310728E-3,1.528365E0,8.045926E-3,1.2107062E-3],"categories":[],"categories_nodes":[],"categories_segments":[],"categories_sizes":[],"default_left":[0,0,0,0,0,0,0,0,0,0,0,0,0,0,0,0,0,0,0,0,0,0,0,0,0,0,0,0,0,0,0,0,0,0,0,0,0,0,0,0,0,0,0,0,0,0,0,0,0,0,0,0,0,0,0,0,0,0,0,0,0,0,0,0,0,0,0,0,0,0,0,0,0,0,0,0,0,0,0,0,0,0,0,0,0,0,0,0,0,0,0],"id":3,"left_children":[1,3,5,7,9,11,13,15,-1,17,19,21,23,25,27,29,-1,31,33,-1,-1,35,-1,37,39,41,43,-1,-1,45,-1,47,49,-1,-1,51,53,55,57,59,61,-1,-1,-1,-1,63,-1,-1,-1,65,-1,67,-1,69,-1,-1,71,-1,-1,-1,-1,73,-1,75,77,-1,-1,79,-1,-1,-1,-1,81,-1,83,-1,-1,85,87,-1,-1,-1,-1,-1,-1,-1,-1,-1,89,-1,-1],"loss_changes":[5.9321356E2,2.4690408E2,1.6018048E2,8.875482E1,1.5480843E2,1.485322E2,5.845653E1,7.240509E1,0E0,1.00720604E2,1.790638E1,1.0836398E2,1.239762E2,1.9221657E1,6.786511E1,6.2515198E1,0E0,1.01807205E2,5.764602E1,0E0,0E0,9.65812E1,0E0,1.4816296E2,1.1969286E2,1.4211922E1,3.1499157E1,0E0,0E0,5.104895E1,0E0,5.7970978E1,7.014922E1,0E0,0E0,5.7667328E1,1.0135976E2,1.2837433E2,7.9511395E0,1.5136429E2,7.350883E1,0E0,0E0,0E0,0E0,3.7325195E1,0E0,0E0,0E0,1.3311661E1,0E0,3.423845E1,0E0,6.568384E1,0E0,0E0,1.3767204E2,0E0,0E0,0E0,0E0,2.3255127E1,0E0,3.9802086E1,3.940027E1,0E0,0E0,3.429955E1,0E0,0E0,0E0,0E0,6.899634E1,0E0,5.3688957E1,0E0,0E0,4.0177578E1,3.7230835E1,0E0,0E0,0E0,0E0,0E0,0E0,0E0,0E0,0E0,2.8967896E1,0E0,0E0],"parents":[2147483647,0,0,1,1,2,2,3,3,4,4,5,5,6,6,7,7,9,9,10,10,11,11,12,12,13,13,14,14,15,15,17,17,18,18,21,21,23,23,24,24,25,25,26,26,29,29,31,31,32,32,35,35,36,36,37,37,38,38,39,39,40,40,45,45,49,49,51,51,53,53,56,56,61,61,63,63,64,64,67,67,72,72,74,74,77,77,78,78,88,88],"right_children":[2,4,6,8,10,12,14,16,-1,18,20,22,24,26,28,30,-1,32,34,-1,-1,36,-1,38,40,42,44,-1,-1,46,-1,48,50,-1,-1,52,54,56,58,60,62,-1,-1,-1,-1,64,-1,-1,-1,66,-1,68,-1,70,-1,-1,72,-1,-1,-1,-1,74,-1,76,78,-1,-1,80,-1,-1,-1,-1,82,-1,84,-1,-1,86,88,-1,-1,-1,-1,-1,-1,-1,-1,-1,90,-1,-1],"split_conditions":[1.0871E2,2.508211E4,2.2988506E-1,2.5682268E-1,5E0,1.0105476E-1,3.9215687E-1,1.0609007E9,-9.006418E-3,6.282051E-1,1.4372945E5,-2.385947E1,1.3599938E1,3.9744254E-2,1.894958E0,1.08E2,-8.767819E-3,2.0317091E-1,4.289566E-1,6.010979E-4,8.960886E-3,8.9304955E1,-9.5392475E-3,1.4265928E-1,-3.1451166E1,1.3529412E0,3E0,-9.353859E-3,5.8612484E-3,3.873639E-1,-8.60933E-3,1.4265734E-1,1.6E0,-8.381474E-3,8.670667E-3,1.4535243E2,2.7E-1,-8.6188626E-1,1.4150943E-1,-4.1797485E0,4.3905193E-1,8.8576665E-3,1.1919478E-3,-8.271327E-3,8.268366E-3,-1.439913E-1,-8.299381E-3,-9.825821E-3,5.123443E-3,1.831224E7,-9.071264E-3,1.2990085E2,-8.401782E-3,5.3394204E-3,7.020208E-3,-9.901808E-3,7E0,1.7417786E-3,9.0920925E-3,6.5968107E-3,-9.771148E-3,3.518124E-2,-8.919686E-3,9.243961E10,-7.323E1,5.870118E-4,8.556546E-3,5.3530045E1,8.996187E-3,8.45138E-3,-9.666205E-3,-9.623291E-3,3.180147E-1,8.683023E-3,-8.8758206E-1,-8.800394E-3,8.25919E-3,2.0574051E-1,5.2214945E4,-8.463354E-3,8.268174E-3,-8.597878E-3,8.617894E-3,-8.685703E-3,8.333068E-3,-8.8042375E-3,8.337457E-3,3.310728E-3,2.2398962E2,8.045926E-3,1.2107062E-3],"split_indices":[60,3,61,82,59,92,41,18,0,41,18,71,90,25,89,55,0,92,75,0,0,17,0,51,71,122,59,0,0,10,0,51,30,0,0,85,38,93,111,89,41,0,0,0,0,70,0,0,0,3,0,26,0,25,0,0,91,0,0,0,0,25,0,0,84,0,0,33,0,0,0,0,86,0,93,0,0,14,0,0,0,0,0,0,0,0,0,0,17,0,0],"split_type":[0,0,0,0,0,0,0,0,0,0,0,0,0,0,0,0,0,0,0,0,0,0,0,0,0,0,0,0,0,0,0,0,0,0,0,0,0,0,0,0,0,0,0,0,0,0,0,0,0,0,0,0,0,0,0,0,0,0,0,0,0,0,0,0,0,0,0,0,0,0,0,0,0,0,0,0,0,0,0,0,0,0,0,0,0,0,0,0,0,0,0],"sum_hessian":[1.3511594E3,6.6212006E2,6.890394E2,4.6996588E2,1.9215417E2,6.026892E2,8.635024E1,4.6021756E2,9.748343E0,1.5015631E2,4.1997868E1,1.5344449E2,4.492447E2,5.7675842E1,2.8674397E1,4.5246896E2,7.748592E0,1.2255135E2,2.7604952E1,9.463367E0,3.25345E1,1.2969926E2,2.3745226E1,3.1390588E2,1.353388E2,4.721266E1,1.04631815E1,1.5996992E1,1.2677405E1,4.4596954E2,6.4994073E0,8.594845E1,3.660291E1,5.748817E0,2.1856134E1,7.135147E1,5.8347786E1,2.950146E2,1.8891314E1,7.512952E1,6.0209293E1,3.8248917E1,8.963743E0,5.2492504E0,5.2139316E0,4.4072018E2,5.249363E0,7.94842E1,6.464244E0,2.5855196E1,1.0747712E1,6.5602394E1,5.7490788E0,4.0456448E1,1.7891338E1,2.3095064E2,6.406393E1,8.46314E0,1.0428174E1,1.8391636E1,5.673788E1,5.1210968E1,8.998323E0,1.2962977E1,4.277572E2,9.462987E0,1.6392208E1,1.1213017E1,5.4389378E1,5.213953E0,3.5242493E1,2.974416E1,3.431977E1,3.3034378E1,1.817659E1,7.7491617E0,5.213815E0,1.2963476E1,4.1479373E2,5.9990883E0,5.2139297E0,6.74866E0,2.757111E1,7.2485785E0,1.0928012E1,7.7490287E0,5.214448E0,6.22138E1,3.5257993E2,3.344034E2,1.8176535E1],"tree_param":{"num_deleted":"0","num_feature":"125","num_nodes":"91","size_leaf_vector":"1"}},{"base_weights":[-2.0471733E-2,6.9011277E-1,-7.404381E-1,-1.0487965E0,8.926627E-1,-1.0073143E0,8.0579054E-1,4.987185E-2,-9.658134E-3,1.0127623E0,-1.2504843E0,-4.8932132E-1,-1.384543E0,-0E0,1.4057649E0,-8.974741E-3,9.871279E-1,-8.9954715E-3,1.0652032E0,-9.520409E-3,7.5099356E-3,7.153674E-1,-8.4253484E-1,-1.5429153E0,4.5371515E-1,1.0201349E0,-9.268893E-3,8.8553E-3,-0E0,5.737251E-4,8.227196E-3,1.1153451E0,-8.941349E-3,-8.829369E-3,1.2179288E0,1.5686285E-1,-1.4238399E0,-7.923392E-1,-1.8550961E0,7.5271726E-3,-8.70671E-3,9.103251E-3,-6.587868E-2,-8.312395E-3,8.310593E-3,7.9276764E-1,1.5393307E0,8.6554615E-3,-1.4312086E-1,-9.311664E-3,8.0822533E-1,-2.3505093E-1,-9.787254E-3,-9.655397E-3,1.24538004E-1,-9.845922E-3,3.5916988E-3,-8.433779E-3,8.2471445E-3,9.64421E-1,-1.106842E0,3.414143E-5,1.6039975E0,-8.519818E-3,8.222766E-3,-8.516778E-3,1.2034662E0,-9.377313E-3,6.568888E-3,-9.289659E-3,1.0783613E0,-7.4246544E-1,1.0810156E0,8.224271E-3,-9.503936E-3,1.6659808E0,5.5158854E-4,9.463436E-5,1.5131198E0,8.251591E-3,-2.1831501E-2,8.220027E-3,-9.176552E-3,7.8114974E-1,1.5915803E0,1.431138E-3,1.7198666E0,9.1079855E-3,2.0738556E-3,8.2368E-3,-8.338935E-3,4.5944788E-3,-8.764103E-3,8.608645E-3,1.4956247E-3,8.897903E-3,2.401064E-3],"categories":[],"categories_nodes":[],"categories_segments":[],"categories_sizes":[],"default_left":[0,0,0,0,0,0,0,0,0,0,0,0,0,0,0,0,0,0,0,0,0,0,0,0,0,0,0,0,0,0,0,0,0,0,0,0,0,0,0,0,0,0,0,0,0,0,0,0,0,0,0,0,0,0,0,0,0,0,0,0,0,0,0,0,0,0,0,0,0,0,0,0,0,0,0,0,0,0,0,0,0,0,0,0,0,0,0,0,0,0,0,0,0,0,0,0,0],"id":4,"left_children":[1,3,5,7,9,11,13,15,-1,17,19,21,23,25,27,-1,29,-1,31,-1,-1,33,35,37,39,41,-1,-1,43,-1,-1,45,-1,-1,47,49,51,53,55,-1,-1,-1,57,-1,-1,59,61,-1,63,-1,65,67,-1,-1,69,-1,-1,-1,-1,71,73,-1,75,-1,-1,-1,77,-1,-1,-1,79,81,83,-1,-1,85,-1,-1,87,-1,89,-1,-1,91,93,-1,95,-1,-1,-1,-1,-1,-1,-1,-1,-1,-1],"loss_changes":[6.762364E2,2.3458203E2,2.7179102E2,6.737986E1,1.5403491E2,1.0779944E2,4.6030094E1,5.3252033E1,0E0,8.3526306E1,5.7208946E1,1.0183225E2,9.541705E1,7.994146E1,2.79356E1,0E0,1.0402424E1,0E0,7.9781494E1,0E0,0E0,6.769525E1,1.0854697E2,6.6996826E1,5.979503E1,2.5019531E1,0E0,0E0,3.249618E1,0E0,0E0,7.2216675E1,0E0,0E0,3.2114014E1,8.9036316E1,7.02979E1,9.351376E1,5.4205627E1,0E0,0E0,0E0,3.408947E1,0E0,0E0,1.0248445E2,2.2017944E1,0E0,3.5600483E1,0E0,5.2343014E1,9.375764E1,0E0,0E0,9.340559E1,0E0,0E0,0E0,0E0,5.7945587E1,5.712565E1,0E0,1.9349304E1,0E0,0E0,0E0,1.556955E1,0E0,0E0,0E0,2.206818E1,4.8856102E1,3.8731934E1,0E0,0E0,1.4206299E1,0E0,0E0,9.389313E0,0E0,3.299593E1,0E0,0E0,5.6697678E1,1.2889435E1,0E0,9.255127E0,0E0,0E0,0E0,0E0,0E0,0E0,0E0,0E0,0E0,0E0],"parents":[2147483647,0,0,1,1,2,2,3,3,4,4,5,5,6,6,7,7,9,9,10,10,11,11,12,12,13,13,14,14,16,16,18,18,21,21,22,22,23,23,24,24,25,25,28,28,31,31,34,34,35,35,36,36,37,37,38,38,42,42,45,45,46,46,48,48,50,50,51,51,54,54,59,59,60,60,62,62,66,66,70,70,71,71,72,72,75,75,78,78,80,80,83,83,84,84,86,86],"right_children":[2,4,6,8,10,12,14,16,-1,18,20,22,24,26,28,-1,30,-1,32,-1,-1,34,36,38,40,42,-1,-1,44,-1,-1,46,-1,-1,48,50,52,54,56,-1,-1,-1,58,-1,-1,60,62,-1,64,-1,66,68,-1,-1,70,-1,-1,-1,-1,72,74,-1,76,-1,-1,-1,78,-1,-1,-1,80,82,84,-1,-1,86,-1,-1,88,-1,90,-1,-1,92,94,-1,96,-1,-1,-1,-1,-1,-1,-1,-1,-1,-1],"split_conditions":[1.0615E2,-5.9284654E-4,2.2988506E-1,2.99E-2,1.0609007E9,2.8867117E8,3.613306E-2,1.4311741E-1,-9.658134E-3,-5.4007214E-1,9.4132096E-1,-4.2233276E-1,2.1481905E0,6.7847514E0,1.047E1,-8.974741E-3,5.0257705E3,-8.9954715E-3,7.589259E-1,-9.520409E-3,7.5099356E-3,3.4089117E0,1E0,6.6526055E0,5.621E2,3.816947E7,-9.268893E-3,8.8553E-3,6.6666657E-1,5.737251E-4,8.227196E-3,2.2741372E-2,-8.941349E-3,-8.829369E-3,2.9012553E-2,3.5080087E0,2.0722667E2,-1.3619968E0,7.4523044E-1,7.5271726E-3,-8.70671E-3,9.103251E-3,6.3418617E0,-8.312395E-3,8.310593E-3,1.6474025E-1,-3.543664E-2,8.6554615E-3,3.8E2,-9.311664E-3,-5.423E1,1.8699493E2,-9.787254E-3,-9.655397E-3,7.648466E6,-9.845922E-3,3.5916988E-3,-8.433779E-3,8.2471445E-3,0E0,0E0,3.414143E-5,3.873639E-1,-8.519818E-3,8.222766E-3,-8.516778E-3,2.6153846E0,-9.377313E-3,6.568888E-3,-9.289659E-3,2.6369537E1,-4.975854E1,8.356546E-3,8.224271E-3,-9.503936E-3,-6.698348E0,5.5158854E-4,9.463436E-5,2.8864376E-2,8.251591E-3,3.807164E1,8.220027E-3,-9.176552E-3,3.5468245E0,5.6023496E-1,1.431138E-3,3.4149587E-2,9.1079855E-3,2.0738556E-3,8.2368E-3,-8.338935E-3,4.5944788E-3,-8.764103E-3,8.608645E-3,1.4956247E-3,8.897903E-3,2.401064E-3],"split_indices":[60,114,61,25,18,2,110,14,0,110,102,89,70,43,53,0,18,0,110,0,0,40,8,43,60,78,0,0,24,0,0,9,0,0,25,5,1,69,42,0,0,0,43,0,0,14,10,0,16,0,84,1,0,0,3,0,0,0,0,79,114,0,10,0,0,0,91,0,0,0,97,36,24,0,0,109,0,0,42,0,17,0,0,94,109,0,63,0,0,0,0,0,0,0,0,0,0],"split_type":[0,0,0,0,0,0,0,0,0,0,0,0,0,0,0,0,0,0,0,0,0,0,0,0,0,0,0,0,0,0,0,0,0,0,0,0,0,0,0,0,0,0,0,0,0,0,0,0,0,0,0,0,0,0,0,0,0,0,0,0,0,0,0,0,0,0,0,0,0,0,0,0,0,0,0,0,0,0,0,0,0,0,0,0,0,0,0,0,0,0,0,0,0,0,0,0,0],"sum_hessian":[1.3204932E3,6.64066E2,6.564272E2,6.8623184E1,5.954428E2,5.604045E2,9.602271E1,3.0136055E1,3.848713E1,5.6448834E2,3.0954502E1,2.375844E2,3.2282007E2,4.1599827E1,5.4422886E1,9.747435E0,2.038862E1,9.747802E0,5.5474054E2,2.5490778E1,5.4637246E0,5.3240074E1,1.8434431E2,2.9768155E2,2.5138504E1,2.7103836E1,1.4495989E1,4.370983E1,1.0713056E1,9.461873E0,1.0926747E1,5.457424E2,8.998126E0,8.497504E0,4.474257E1,6.748653E1,1.1685779E2,8.879648E1,2.0888509E2,1.7391457E1,7.747047E0,1.5891597E1,1.121224E1,5.4987335E0,5.2143226E0,3.1195703E2,2.3378535E2,3.3031307E1,1.1711263E1,1.5994734E1,5.1491795E1,3.6134956E1,8.072284E1,3.99854E1,4.8811077E1,2.0167268E2,7.212394E0,5.998595E0,5.213645E0,2.8674753E2,2.5209513E1,9.962176E0,2.2382317E2,6.4980235E0,5.2132387E0,6.498002E0,4.4993793E1,1.774471E1,1.8390244E1,1.5494674E1,3.3316406E1,1.7709753E1,2.6903778E2,5.2132664E0,1.9996246E1,2.1436061E2,9.462564E0,9.961924E0,3.503187E1,2.2354992E1,1.0961413E1,5.213188E0,1.2496565E1,1.7141095E2,9.762683E1,8.711984E0,2.0564862E2,2.681952E1,8.212351E0,5.2134824E0,5.747931E0,1.6366269E2,7.748261E0,8.891346E1,8.713367E0,1.9768576E2,7.9628615E0],"tree_param":{"num_deleted":"0","num_feature":"125","num_nodes":"97","size_leaf_vector":"1"}},{"base_weights":[-3.4113062E-4,1.0027661E0,-4.121909E-1,1.2783824E0,-2.1467504E-1,1.200137E-1,-8.294075E-1,-8.738126E-3,1.360066E0,4.0220797E-1,-9.403048E-3,-3.3827832E-1,7.614194E-1,-1.0153279E0,1.0182552E0,1.448226E0,4.612302E-2,9.6201855E-1,-8.939023E-3,2.4567845E-1,-1.2758412E0,9.017462E-1,-8.811143E-3,-1.3398046E0,-2.5907484E-1,-8.500582E-3,1.4809479E0,5.939064E-1,1.61238E0,-8.951176E-3,8.57693E-3,-2.1990113E-1,1.4736909E0,4.973807E-1,-9.252265E-3,3.251062E-1,-9.734693E-3,1.0284572E0,-8.578087E-3,4.362829E-2,-1.6507388E0,-9.9596727E-1,8.171292E-1,8.4271136E-4,9.2049455E-3,7.1353237E-3,1.4437654E-3,1.723221E-3,8.343365E-3,8.181706E-3,-8.628007E-3,2.3999352E-3,9.014019E-3,7.1805197E-1,-9.03536E-3,-8.785202E-3,6.8529462E-3,-8.495361E-3,1.1566815E0,-1.2408167E0,1.3777583E0,-1.8582379E0,-5.09886E-1,6.523526E-1,-1.6070056E0,-8.802167E-3,1.2816708E0,-8.7648695E-3,8.998409E-1,1.3124326E0,-3.6830243E-1,-9.482716E-3,8.328273E-3,9.304159E-3,9.1652566E-4,-9.812797E-3,2.4123036E-3,-9.404135E-3,7.294771E-1,-8.461809E-3,8.236226E-3,-9.687332E-3,6.1193677E-3,8.466744E-3,-5.2675977E-2,-5.304741E-2,1.2879643E0,-1.6895054E-2,1.4330558E0,-8.761253E-3,8.186789E-3,7.686302E-3,-8.192762E-3,8.326785E-3,-8.3874315E-3,4.9379975E-1,-8.7666055E-3,1.4876609E0,-0E0,8.280181E-3,-8.334593E-3,1.5387746E0,3.6998073E-4,-1.577003E-3,7.1621467E-3,1.7227592E-3,8.2013365E-3,-8.266862E-3,8.264634E-3,8.314072E-3,3.5504599E-3],"categories":[],"categories_nodes":[],"categories_segments":[],"categories_sizes":[],"default_left":[0,0,0,0,0,0,0,0,0,0,0,0,0,0,0,0,0,0,0,0,0,0,0,0,0,0,0,0,0,0,0,0,0,0,0,0,0,0,0,0,0,0,0,0,0,0,0,0,0,0,0,0,0,0,0,0,0,0,0,0,0,0,0,0,0,0,0,0,0,0,0,0,0,0,0,0,0,0,0,0,0,0,0,0,0,0,0,0,0,0,0,0,0,0,0,0,0,0,0,0,0,0,0,0,0,0,0,0,0,0,0],"id":5,"left_children":[1,3,5,7,9,11,13,-1,15,17,-1,19,21,23,25,27,29,31,-1,33,35,37,-1,39,41,-1,43,45,47,-1,-1,49,51,53,-1,55,-1,57,-1,59,61,63,65,-1,-1,-1,-1,-1,-1,-1,-1,-1,-1,67,-1,-1,-1,-1,69,71,73,75,77,79,81,-1,83,-1,85,87,89,-1,-1,-1,-1,-1,-1,-1,91,-1,-1,-1,-1,-1,93,95,97,99,101,-1,-1,-1,-1,-1,-1,103,-1,105,107,-1,-1,109,-1,-1,-1,-1,-1,-1,-1,-1,-1],"loss_changes":[5.4892303E2,1.3066504E2,2.1003528E2,7.885974E1,7.422434E1,1.2224918E2,1.825734E2,0E0,3.4518494E1,6.3941784E1,0E0,1.3311615E2,6.143419E1,1.16829926E2,6.191261E1,3.8151917E1,6.3748657E1,2.66301E1,0E0,7.746947E1,9.9302505E1,5.50121E1,0E0,1.4593262E2,1.16540245E2,0E0,1.726416E1,1.063553E1,1.1044678E1,0E0,0E0,3.705829E1,7.1483917E0,6.744711E1,0E0,5.9455498E1,0E0,5.579457E1,0E0,1.0722567E2,6.2754333E1,8.9438995E1,7.167525E1,0E0,0E0,0E0,0E0,0E0,0E0,0E0,0E0,0E0,0E0,5.5057022E1,0E0,0E0,0E0,0E0,3.699814E1,6.0530212E1,1.5565624E1,4.9226807E1,7.5171104E1,5.599517E1,5.894998E1,0E0,2.8224068E1,0E0,4.341662E1,2.321399E1,4.0251366E1,0E0,0E0,0E0,0E0,0E0,0E0,0E0,4.45233E1,0E0,0E0,0E0,0E0,0E0,3.4206806E1,3.212375E1,2.1822937E1,3.3145214E1,1.6991913E1,0E0,0E0,0E0,0E0,0E0,0E0,1.9985224E1,0E0,9.535507E0,3.213568E1,0E0,0E0,8.288666E0,0E0,0E0,0E0,0E0,0E0,0E0,0E0,0E0,0E0],"parents":[2147483647,0,0,1,1,2,2,3,3,4,4,5,5,6,6,8,8,9,9,11,11,12,12,13,13,14,14,15,15,16,16,17,17,19,19,20,20,21,21,23,23,24,24,26,26,27,27,28,28,31,31,32,32,33,33,35,35,37,37,39,39,40,40,41,41,42,42,53,53,58,58,59,59,60,60,61,61,62,62,63,63,64,64,66,66,68,68,69,69,70,70,78,78,84,84,85,85,86,86,87,87,88,88,95,95,97,97,98,98,101,101],"right_children":[2,4,6,8,10,12,14,-1,16,18,-1,20,22,24,26,28,30,32,-1,34,36,38,-1,40,42,-1,44,46,48,-1,-1,50,52,54,-1,56,-1,58,-1,60,62,64,66,-1,-1,-1,-1,-1,-1,-1,-1,-1,-1,68,-1,-1,-1,-1,70,72,74,76,78,80,82,-1,84,-1,86,88,90,-1,-1,-1,-1,-1,-1,-1,92,-1,-1,-1,-1,-1,94,96,98,100,102,-1,-1,-1,-1,-1,-1,104,-1,106,108,-1,-1,110,-1,-1,-1,-1,-1,-1,-1,-1,-1],"split_conditions":[1.62E0,3.0533064E-3,1.6737304E8,-8.318402E0,1.5772638E-1,5.2727275E0,7E0,-8.738126E-3,1.6322382E-1,1.1986654E6,-9.403048E-3,2.7077487E2,2.756905E-1,1.5583539E-1,2.0822501E8,2E0,-2.2316668E1,1.4E1,-8.939023E-3,4.9224E2,2.2928085E0,1.0131931E9,-8.811143E-3,4.4253394E-1,3.8823528E0,-8.500582E-3,2.5609815E0,-6.512E1,-2.913572E-3,-8.951176E-3,8.57693E-3,1.0932118E6,1.197176E-1,4.2804375E-2,-9.252265E-3,1.2456614E0,-9.734693E-3,3.1401913E0,-8.578087E-3,5.6616354E0,3.86E2,-1.905634E1,1.3396226E0,8.4271136E-4,9.2049455E-3,7.1353237E-3,1.4437654E-3,1.723221E-3,8.343365E-3,8.181706E-3,-8.628007E-3,2.3999352E-3,9.014019E-3,-8.553866E-1,-9.03536E-3,-8.785202E-3,6.8529462E-3,-8.495361E-3,2.34E2,1.0682938E-1,-1.2343971E-1,1.5382782E2,1.7374799E2,6.5215046E8,1E0,-8.802167E-3,1.455E1,-8.7648695E-3,1.2857143E0,-9.804702E0,3.5026035E-1,-9.482716E-3,8.328273E-3,9.304159E-3,9.1652566E-4,-9.812797E-3,2.4123036E-3,-9.404135E-3,4.472876E3,-8.461809E-3,8.236226E-3,-9.687332E-3,6.1193677E-3,8.466744E-3,-3.9379E2,5E-1,3.3210333E-2,3.7968834E5,1.15683E3,-8.761253E-3,8.186789E-3,7.686302E-3,-8.192762E-3,8.326785E-3,-8.3874315E-3,2.8981894E-1,-8.7666055E-3,1.803E1,5.355343E-4,8.280181E-3,-8.334593E-3,6.2180102E-2,3.6998073E-4,-1.577003E-3,7.1621467E-3,1.7227592E-3,8.2013365E-3,-8.266862E-3,8.264634E-3,8.314072E-3,3.5504599E-3],"split_indices":[60,6,2,109,75,91,59,0,11,3,0,96,39,14,120,16,32,48,0,60,68,18,0,27,30,0,29,60,114,0,0,2,14,117,0,29,0,33,0,107,16,107,8,0,0,0,0,0,0,0,0,0,0,80,0,0,0,0,95,6,23,107,121,18,61,0,52,0,91,107,15,0,0,0,0,0,0,0,116,0,0,0,0,0,21,98,37,2,60,0,0,0,0,0,0,83,0,60,15,0,0,13,0,0,0,0,0,0,0,0,0],"split_type":[0,0,0,0,0,0,0,0,0,0,0,0,0,0,0,0,0,0,0,0,0,0,0,0,0,0,0,0,0,0,0,0,0,0,0,0,0,0,0,0,0,0,0,0,0,0,0,0,0,0,0,0,0,0,0,0,0,0,0,0,0,0,0,0,0,0,0,0,0,0,0,0,0,0,0,0,0,0,0,0,0,0,0,0,0,0,0,0,0,0,0,0,0,0,0,0,0,0,0,0,0,0,0,0,0,0,0,0,0,0,0],"sum_hessian":[1.328517E3,3.8589966E2,9.426174E2,3.1513937E2,7.076029E1,4.136331E2,5.2898425E2,7.7473445E0,3.0739203E2,5.1517838E1,1.9242455E1,2.4074501E2,1.7288808E2,4.8124576E2,4.7738514E1,2.874701E2,1.992193E1,4.1522617E1,9.995219E0,1.48139E2,9.260601E1,1.6439131E2,8.4967575E0,3.35727E2,1.4551875E2,6.497529E0,4.1240986E1,4.7533627E1,2.3993648E2,9.246816E0,1.0675116E1,1.2210145E1,2.9312471E1,1.3289598E2,1.524302E1,2.66359E1,6.597011E1,1.5739452E2,6.996799E0,6.126581E1,2.7446118E2,8.681671E1,5.8702038E1,9.211113E0,3.2029873E1,1.1677929E1,3.5855698E1,8.462119E0,2.3147437E2,5.212369E0,6.997776E0,7.961348E0,2.1351124E1,1.21900696E2,1.0995282E1,8.495916E0,1.8139984E1,6.4971952E0,1.5089732E2,3.0950304E1,3.0315506E1,2.313364E2,4.3124794E1,2.313641E1,6.36803E1,8.496499E0,5.020554E1,7.7481346E0,1.14152565E2,1.3743855E2,1.3458771E1,2.5735888E1,5.2144156E0,2.1104012E1,9.2114935E0,2.2337524E2,7.9611607E0,2.073926E1,2.2385532E1,6.4963074E0,1.6640102E1,5.7717903E1,5.9623976E0,3.8993717E1,1.1211823E1,3.2636066E1,8.1516495E1,1.096168E1,1.2647687E2,8.246281E0,5.2124896E0,1.7137945E1,5.2475886E0,5.2144094E0,5.9974146E0,2.4638842E1,7.997226E0,7.080486E1,1.07116375E1,5.214065E0,5.7476153E0,1.1676494E2,9.711929E0,1.2961157E1,1.1677684E1,8.462319E0,6.234254E1,5.497752E0,5.213886E0,1.0184036E2,1.4924581E1],"tree_param":{"num_deleted":"0","num_feature":"125","num_nodes":"111","size_leaf_vector":"1"}},{"base_weights":[1.844797E-2,5.480318E-1,-5.938492E-1,8.245704E-1,-2.631192E-1,-7.8931123E-1,5.5414975E-1,-9.316689E-3,9.1836303E-1,-1.1242012E0,7.844225E-1,-9.7961825E-1,5.7520854E-1,-9.198503E-3,1.0453848E0,1.1164263E0,-5.949244E-2,-9.702196E-3,1.6757257E-1,-8.9585725E-3,1.1748612E0,-1.2651206E0,8.944423E-3,1.4274268E0,-4.7962254E-1,1.3645538E0,-8.567113E-3,1.172728E0,-8.724248E-3,-1.2714351E0,6.494684E-1,-9.066764E-3,1.0927854E0,1.433953E0,-8.248074E-3,5.570223E-1,-1.4455773E0,5.774691E-1,-9.429143E-3,1.8011694E-3,8.657273E-3,-9.212691E-3,5.2295914E-3,-1.4587917E-2,1.6429901E0,1.2118713E0,-8.1559215E-3,-9.496765E-3,7.4920533E-3,1.1077361E0,-8.738345E-3,-0E0,8.708124E-3,1.638867E0,5.679729E-4,1.2684673E0,-8.547349E-3,-1.7085837E0,-3.535138E-1,9.4342166E-1,-8.919666E-3,8.223945E-3,-8.263555E-3,9.031125E-3,2.7997012E-3,1.4768357E0,8.3566415E-1,-0E0,7.3141777E-3,9.018741E-3,2.7301E-3,8.991728E-3,1.1144312E-3,-1.7824988E0,8.264494E-3,5.7766503E-1,-9.421621E-3,-8.603443E-3,1.286074E0,1.5758681E0,2.1717907E-1,9.4333446E-1,-8.526913E-3,-8.255276E-3,8.204142E-3,-1.8594741E0,7.547377E-3,-8.661092E-3,1.194686E0,1.5089617E0,8.6481276E-5,-0E0,8.315554E-3,9.036659E-3,-8.726872E-3,6.26969E-1,1.5150832E0,-9.777617E-3,4.9614506E-3,-0E0,8.838326E-3,9.290505E-3,6.166822E-1,4.144588E-3,-8.731016E-3,8.886427E-3,6.7183183E-4,8.26425E-3,-8.138487E-3,-0E0,8.163781E-3],"categories":[],"categories_nodes":[],"categories_segments":[],"categories_sizes":[],"default_left":[0,0,0,0,0,0,0,0,0,0,0,0,0,0,0,0,0,0,0,0,0,0,0,0,0,0,0,0,0,0,0,0,0,0,0,0,0,0,0,0,0,0,0,0,0,0,0,0,0,0,0,0,0,0,0,0,0,0,0,0,0,0,0,0,0,0,0,0,0,0,0,0,0,0,0,0,0,0,0,0,0,0,0,0,0,0,0,0,0,0,0,0,0,0,0,0,0,0,0,0,0,0,0,0,0,0,0,0,0,0,0],"id":6,"left_children":[1,3,5,7,9,11,13,-1,15,17,19,21,23,-1,25,27,29,-1,31,-1,33,35,37,39,41,43,-1,45,-1,47,49,-1,51,53,-1,55,57,59,-1,-1,-1,-1,-1,61,63,65,-1,-1,-1,67,-1,-1,-1,69,-1,71,-1,73,75,77,-1,-1,-1,-1,-1,79,81,83,-1,-1,-1,-1,-1,85,-1,87,-1,-1,89,91,93,95,-1,-1,-1,97,-1,-1,99,101,-1,-1,-1,-1,-1,103,105,-1,-1,107,-1,-1,109,-1,-1,-1,-1,-1,-1,-1,-1],"loss_changes":[4.3358533E2,1.6154689E2,1.3946893E2,1.3471716E2,1.6520331E2,1.383414E2,1.05692825E2,0E0,1.01270325E2,1.0553867E2,8.3045135E1,1.3248068E2,5.9397514E1,0E0,6.7070915E1,7.006726E1,7.599257E1,0E0,7.1106575E1,0E0,5.371028E1,1.2026465E2,1.112909E2,9.336128E0,6.110998E1,2.733268E1,0E0,4.724359E1,0E0,5.7414852E1,6.0889923E1,0E0,1.7776623E1,1.6566956E1,0E0,5.343772E1,9.289099E1,6.995653E1,0E0,0E0,0E0,0E0,0E0,3.2629734E1,6.796341E0,3.92547E1,0E0,0E0,0E0,1.8551304E1,0E0,0E0,0E0,7.0099792E0,0E0,1.1983761E1,0E0,6.757959E1,9.3909706E1,6.527612E1,0E0,0E0,0E0,0E0,0E0,2.8858032E1,4.823919E1,3.1857136E1,0E0,0E0,0E0,0E0,0E0,6.766443E1,0E0,5.8500736E1,0E0,0E0,1.6727577E1,2.5424622E1,6.0407433E1,2.8411774E1,0E0,0E0,0E0,5.947522E1,0E0,0E0,2.162735E1,1.33013E1,0E0,0E0,0E0,0E0,0E0,5.1169926E1,1.8584091E1,0E0,0E0,3.0971912E1,0E0,0E0,9.194917E0,0E0,0E0,0E0,0E0,0E0,0E0,0E0,0E0],"parents":[2147483647,0,0,1,1,2,2,3,3,4,4,5,5,6,6,8,8,9,9,10,10,11,11,12,12,14,14,15,15,16,16,18,18,20,20,21,21,22,22,23,23,24,24,25,25,27,27,29,29,30,30,32,32,33,33,35,35,36,36,37,37,43,43,44,44,45,45,49,49,53,53,55,55,57,57,58,58,59,59,65,65,66,66,67,67,73,73,75,75,78,78,79,79,80,80,81,81,85,85,88,88,89,89,95,95,96,96,99,99,102,102],"right_children":[2,4,6,8,10,12,14,-1,16,18,20,22,24,-1,26,28,30,-1,32,-1,34,36,38,40,42,44,-1,46,-1,48,50,-1,52,54,-1,56,58,60,-1,-1,-1,-1,-1,62,64,66,-1,-1,-1,68,-1,-1,-1,70,-1,72,-1,74,76,78,-1,-1,-1,-1,-1,80,82,84,-1,-1,-1,-1,-1,86,-1,88,-1,-1,90,92,94,96,-1,-1,-1,98,-1,-1,100,102,-1,-1,-1,-1,-1,104,106,-1,-1,108,-1,-1,110,-1,-1,-1,-1,-1,-1,-1,-1],"split_conditions":[1.7601158E9,3.4124628E-2,7.973099E-2,-1E2,5.316508E-1,2.4390243E-1,-1.5927065E-2,-9.316689E-3,9.859543E-3,7.32E0,-6.5986395E-2,5.2222223E0,1.4545455E0,-9.198503E-3,-1.3674052E0,1.08E2,4.000255E1,-9.702196E-3,3.370005E0,-8.9585725E-3,4.03E0,2E-2,3.5554903E0,4E1,2.681728E1,6.72333E-2,-8.567113E-3,2.5968254E-1,-8.724248E-3,3.0117892E2,1.184887E1,-9.066764E-3,2.064E1,-1.3025138E0,-8.248074E-3,-2.1034632E0,1.6692427E-1,7.692307E-2,-9.429143E-3,1.8011694E-3,8.657273E-3,-9.212691E-3,5.2295914E-3,1.4E1,3.2814562E0,-1.0682454E0,-8.1559215E-3,-9.496765E-3,7.4920533E-3,-1.85E0,-8.738345E-3,-0E0,8.708124E-3,8.125E-1,5.679729E-4,-2.0412414E0,-8.547349E-3,4.5697328E-1,2.8920696E0,9.1573065E2,-8.919666E-3,8.223945E-3,-8.263555E-3,9.031125E-3,2.7997012E-3,3.5367847E2,4.3724698E-1,4.4044446E2,7.3141777E-3,9.018741E-3,2.7301E-3,8.991728E-3,1.1144312E-3,1.0682938E-1,8.264494E-3,2.6311502E0,-9.421621E-3,-8.603443E-3,5.3908355E-3,-2.1389198E-1,-1.0336065E2,2.652174E0,-8.526913E-3,-8.255276E-3,8.204142E-3,1.76E2,7.547377E-3,-8.661092E-3,-1.2365499E0,-5.592597E-2,8.6481276E-5,-0E0,8.315554E-3,9.036659E-3,-8.726872E-3,1E0,3.9145225E6,-9.777617E-3,4.9614506E-3,4.2212856E1,8.838326E-3,9.290505E-3,2.3247328E-2,4.144588E-3,-8.731016E-3,8.886427E-3,6.7183183E-4,8.26425E-3,-8.138487E-3,-0E0,8.163781E-3],"split_indices":[0,37,10,84,77,38,42,0,19,91,110,30,30,0,93,55,97,0,119,0,74,53,62,53,90,9,0,117,0,121,121,0,21,64,0,69,49,38,0,0,0,0,0,16,94,69,0,0,0,56,0,0,0,118,0,82,0,51,68,116,0,0,0,0,0,1,75,17,0,0,0,0,0,6,0,68,0,0,24,109,71,91,0,0,0,73,0,0,69,124,0,0,0,0,0,91,104,0,0,17,0,0,6,0,0,0,0,0,0,0,0],"split_type":[0,0,0,0,0,0,0,0,0,0,0,0,0,0,0,0,0,0,0,0,0,0,0,0,0,0,0,0,0,0,0,0,0,0,0,0,0,0,0,0,0,0,0,0,0,0,0,0,0,0,0,0,0,0,0,0,0,0,0,0,0,0,0,0,0,0,0,0,0,0,0,0,0,0,0,0,0,0,0,0,0,0,0,0,0,0,0,0,0,0,0,0,0,0,0,0,0,0,0,0,0,0,0,0,0,0,0,0,0,0,0],"sum_hessian":[1.3359973E3,7.1707697E2,6.189203E2,5.3544543E2,1.8163155E2,5.29597E2,8.9323326E1,1.7490211E1,5.1795526E2,1.00055275E2,8.157627E1,4.6541193E2,6.418505E1,1.47402525E1,7.458308E1,4.3127805E2,8.667718E1,6.1963654E1,3.8091625E1,1.0244585E1,7.133168E1,3.615713E2,1.0384062E2,3.577301E1,2.8412037E1,6.733834E1,7.244737E0,4.2353122E2,7.7468166E0,3.2197716E1,5.4479465E1,1.1743758E1,2.6347868E1,6.583491E1,5.496775E0,3.2090168E1,3.2948114E2,8.035625E1,2.3484375E1,8.461818E0,2.7311193E1,1.5240016E1,1.3172022E1,1.0958782E1,5.6379555E1,4.1828464E2,5.246608E0,2.6734522E1,5.463194E0,4.623432E1,8.245144E0,1.0210428E1,1.613744E1,5.637512E1,9.459789E0,2.484623E1,7.2439394E0,2.6469507E2,6.478607E1,7.011328E1,1.0242971E1,5.2132607E0,5.7455215E0,4.866766E1,7.711894E0,2.4318831E2,1.7509631E2,1.0710234E1,3.552409E1,4.8664635E1,7.7104864E0,1.5886727E1,8.959501E0,2.5948117E2,5.213884E0,4.0055836E1,2.4730238E1,7.4941874E0,6.261909E1,2.247661E2,1.8422207E1,1.6859926E2,6.4970565E0,5.49736E0,5.2128735E0,2.5401717E2,5.4640074E0,7.9935117E0,3.2062325E1,5.2660736E1,9.958353E0,1.0210166E1,2.1455594E2,1.0426489E1,7.995718E0,1.1022665E2,5.8372612E1,2.4755666E2,6.4605155E0,1.0460071E1,2.1602251E1,3.7240532E1,1.5420207E1,1.0248031E2,7.7463417E0,4.8910145E1,9.462468E0,5.213881E0,5.24619E0,1.0208293E1,5.211914E0],"tree_param":{"num_deleted":"0","num_feature":"125","num_nodes":"111","size_leaf_vector":"1"}},{"base_weights":[-2.4422027E-2,9.807829E-1,-4.4633505E-1,1.0980213E0,-9.144182E-3,1.8464908E-2,-8.601231E-1,-8.920154E-3,1.1820126E0,-6.888888E-1,5.165915E-1,2.2355281E-1,-1.1493169E0,1.2481188E0,-8.635934E-3,-1.8616535E-1,-9.610339E-3,-1.2282299E0,7.578181E-1,-9.311217E-3,7.5765413E-1,-1.484671E0,3.2507652E-1,1.4026039E0,3.4273207E-1,2.1624666E-1,-1.2935115E0,-9.422739E-3,8.128457E-3,1.4624505E0,4.2332774E-1,1.214981E0,-9.038348E-3,-5.317528E-1,-1.8405427E0,8.705513E-1,-9.102586E-3,5.221797E-1,1.567357E0,9.032941E-1,-8.934002E-3,-9.018289E-3,5.1725924E-1,-9.45799E-3,8.407314E-3,8.4094815E-3,3.3191324E-4,1.2008451E0,-3.4848166E-1,1.4800119E0,-8.1753E-3,-9.534714E-3,3.372967E-1,-9.728208E-3,5.091385E-3,1.2864258E0,-8.547898E-3,1.768956E-3,8.246428E-3,1.6089698E0,1.4540058E-3,-8.49574E-3,1.4148333E0,-1.07192665E-1,1.268577E0,8.712974E-3,2.2317548E-1,-1.111421E0,1.0690079E0,1.4004912E-3,1.6482651E0,-1.04002E0,1.4956292E0,8.5827345E-3,4.0073407E-1,8.287236E-3,2.2758092E-3,1.074601E-3,8.951305E-3,7.831855E-1,-9.2392815E-3,8.3316285E-3,3.1950322E-4,-8.994037E-3,8.259086E-3,5.5781603E-3,-9.563157E-3,-2.3411669E-2,9.338715E-3,2.0557463E-3,9.265486E-3,-9.297552E-3,7.400742E-3,9.386156E-3,2.0994744E-3,-8.288268E-3,8.1470525E-3,-8.249143E-3,7.054034E-3,8.137645E-3,-8.262708E-3],"categories":[],"categories_nodes":[],"categories_segments":[],"categories_sizes":[],"default_left":[0,0,0,0,0,0,0,0,0,0,0,0,0,0,0,0,0,0,0,0,0,0,0,0,0,0,0,0,0,0,0,0,0,0,0,0,0,0,0,0,0,0,0,0,0,0,0,0,0,0,0,0,0,0,0,0,0,0,0,0,0,0,0,0,0,0,0,0,0,0,0,0,0,0,0,0,0,0,0,0,0,0,0,0,0,0,0,0,0,0,0,0,0,0,0,0,0,0,0,0,0],"id":7,"left_children":[1,3,5,7,-1,9,11,-1,13,15,17,19,21,23,-1,25,-1,27,29,-1,31,33,35,37,39,41,43,-1,-1,45,47,49,-1,51,53,55,-1,57,59,61,-1,-1,63,-1,-1,-1,-1,65,67,69,-1,-1,71,-1,-1,73,-1,-1,-1,75,-1,-1,77,79,81,-1,83,85,87,-1,89,91,93,-1,95,-1,-1,-1,-1,97,-1,-1,-1,-1,-1,-1,-1,99,-1,-1,-1,-1,-1,-1,-1,-1,-1,-1,-1,-1,-1],"loss_changes":[5.571838E2,1.27862274E2,1.788398E2,9.072696E1,0E0,1.5376366E2,1.5473935E2,0E0,7.0482086E1,1.0824682E2,1.0835315E2,1.143918E2,1.9313452E2,4.8142273E1,0E0,5.820172E1,0E0,5.856977E1,5.1573822E1,0E0,9.764351E1,1.0505298E2,8.399074E1,4.18656E1,6.361517E1,5.6480682E1,6.2103466E1,0E0,0E0,1.9246109E1,9.400871E1,5.4718605E1,0E0,1.05023415E2,5.997766E1,6.30006E1,0E0,7.579262E0,1.1816101E1,5.8061985E1,0E0,0E0,3.976837E1,0E0,0E0,0E0,0E0,3.8443756E1,8.498086E1,1.1510742E1,0E0,0E0,8.686529E1,0E0,0E0,1.6611504E1,0E0,0E0,0E0,7.759033E0,0E0,0E0,1.4029686E1,7.112162E1,1.6286541E1,0E0,8.263748E1,9.115645E1,2.467783E1,0E0,1.1165741E1,5.1492767E1,9.5251465E0,0E0,4.5203777E1,0E0,0E0,0E0,0E0,4.588808E1,0E0,0E0,0E0,0E0,0E0,0E0,0E0,3.2292656E1,0E0,0E0,0E0,0E0,0E0,0E0,0E0,0E0,0E0,0E0,0E0,0E0,0E0],"parents":[2147483647,0,0,1,1,2,2,3,3,5,5,6,6,8,8,9,9,10,10,11,11,12,12,13,13,15,15,17,17,18,18,20,20,21,21,22,22,23,23,24,24,25,25,26,26,29,29,30,30,31,31,33,33,34,34,35,35,37,37,38,38,39,39,42,42,47,47,48,48,49,49,52,52,55,55,59,59,62,62,63,63,64,64,66,66,67,67,68,68,70,70,71,71,72,72,74,74,79,79,87,87],"right_children":[2,4,6,8,-1,10,12,-1,14,16,18,20,22,24,-1,26,-1,28,30,-1,32,34,36,38,40,42,44,-1,-1,46,48,50,-1,52,54,56,-1,58,60,62,-1,-1,64,-1,-1,-1,-1,66,68,70,-1,-1,72,-1,-1,74,-1,-1,-1,76,-1,-1,78,80,82,-1,84,86,88,-1,90,92,94,-1,96,-1,-1,-1,-1,98,-1,-1,-1,-1,-1,-1,-1,100,-1,-1,-1,-1,-1,-1,-1,-1,-1,-1,-1,-1,-1],"split_conditions":[1.62E0,1.0609007E9,7.039306E0,-6.222876E0,-9.144182E-3,1.7567568E0,1.7526316E-2,-8.920154E-3,2.1180762E-1,2.164502E-2,-3.0374166E1,-1.217475E2,1E2,3.0533064E-3,-8.635934E-3,4.6656E2,-9.610339E-3,5.652889E-2,-4.011628E-2,-9.311217E-3,-5E0,1.0615E2,1.7819738E1,2E0,5.6023496E-1,-1.2008497E-1,4.198552E3,-9.422739E-3,8.128457E-3,1.4696712E8,3E0,4.1274935E6,-9.038348E-3,3.3617282E0,1.4266118E-1,1.1E1,-9.102586E-3,1.2048614E-1,7.0434785E0,3.3333334E-1,-8.934002E-3,-9.018289E-3,1.8774383E-1,-9.45799E-3,8.407314E-3,8.4094815E-3,3.3191324E-4,2.3325122E2,2.8407345E0,-1.0102223E0,-8.1753E-3,-9.534714E-3,-2E0,-9.728208E-3,5.091385E-3,-1.7225487E0,-8.547898E-3,1.768956E-3,8.246428E-3,8.7E-1,1.4540058E-3,-8.49574E-3,1.4E1,1.7526316E-2,2.0930232E-1,8.712974E-3,3.9306302E0,-7.5E1,7.0255625E-1,1.4004912E-3,-1.09E0,8.193147E1,2.8074293E0,8.5827345E-3,1E0,8.287236E-3,2.2758092E-3,1.074601E-3,8.951305E-3,3.0496454E-1,-9.2392815E-3,8.3316285E-3,3.1950322E-4,-8.994037E-3,8.259086E-3,5.5781603E-3,-9.563157E-3,1.0932118E6,9.338715E-3,2.0557463E-3,9.265486E-3,-9.297552E-3,7.400742E-3,9.386156E-3,2.0994744E-3,-8.288268E-3,8.1470525E-3,-8.249143E-3,7.054034E-3,8.137645E-3,-8.262708E-3],"split_indices":[60,18,43,109,0,34,25,0,63,37,65,106,52,6,0,60,0,6,124,0,106,60,121,16,109,110,85,0,0,120,87,3,0,94,51,48,0,33,103,118,0,0,92,0,0,0,0,96,29,82,0,0,81,0,0,69,0,0,0,60,0,0,48,25,86,0,94,81,27,0,56,90,40,0,47,0,0,0,0,86,0,0,0,0,0,0,0,2,0,0,0,0,0,0,0,0,0,0,0,0,0],"split_type":[0,0,0,0,0,0,0,0,0,0,0,0,0,0,0,0,0,0,0,0,0,0,0,0,0,0,0,0,0,0,0,0,0,0,0,0,0,0,0,0,0,0,0,0,0,0,0,0,0,0,0,0,0,0,0,0,0,0,0,0,0,0,0,0,0,0,0,0,0,0,0,0,0,0,0,0,0,0,0,0,0,0,0,0,0,0,0,0,0,0,0,0,0,0,0,0,0,0,0,0,0],"sum_hessian":[1.3134502E3,3.8753888E2,9.2591125E2,3.7255414E2,1.4984749E1,4.3550412E2,4.9040714E2,9.993485E0,3.6256067E2,1.7923808E2,2.5626605E2,1.0278802E2,3.876191E2,3.550656E2,7.4950376E0,1.2778439E2,5.1453693E1,3.0438805E1,2.2582724E2,2.0479181E1,8.230884E1,3.16202E2,7.141712E1,3.023122E2,5.2753414E1,9.359693E1,3.418746E1,2.522792E1,5.2108836E0,7.129453E1,1.545327E2,7.031843E1,1.1990406E1,8.6973915E1,2.2922809E2,5.743156E1,1.3985559E1,4.8781036E1,2.5353117E2,4.2261242E1,1.0492169E1,1.14917965E1,8.210514E1,2.8973124E1,5.2143383E0,6.1587345E1,9.70719E0,7.729233E1,7.724037E1,6.48236E1,5.4948287E0,3.397312E1,5.3000797E1,2.227645E2,6.463594E0,4.993994E1,7.4916196E0,4.35674E1,5.213634E0,2.4481921E2,8.711952E0,6.4965415E0,3.57647E1,4.458598E1,3.7519157E1,4.941174E1,2.788059E1,5.06449E1,2.6595472E1,8.70777E0,5.611583E1,2.3945461E1,2.9055336E1,3.3023E1,1.691694E1,2.3685966E2,7.9595537E0,8.958037E0,2.6806665E1,2.9345741E1,1.5240239E1,2.7812517E1,9.706639E0,1.1241594E1,1.6638996E1,1.2924703E1,3.77202E1,1.0956659E1,1.5638813E1,8.20879E0,4.790704E1,1.848467E1,5.4607916E0,2.0845287E1,8.210049E0,5.9938545E0,1.0923086E1,5.4969516E0,2.3848791E1,5.2111692E0,5.7454896E0],"tree_param":{"num_deleted":"0","num_feature":"125","num_nodes":"101","size_leaf_vector":"1"}},{"base_weights":[-1.847817E-2,9.715752E-1,-4.0696082E-1,1.1858399E0,-8.5996115E-1,-6.707056E-1,2.2327696E-1,1.2742617E0,-8.796826E-3,-9.3646785E-3,5.7181257E-1,-0E0,-1.1231154E0,4.197549E-1,-9.378342E-3,1.3769042E0,3.778828E-1,8.103258E-3,-0E0,-2.221656E-1,1.4755307E0,-1.8037792E0,-6.1137486E-1,-9.247745E-3,5.9351516E-1,6.9740146E-1,1.5790849E0,-8.934208E-3,1.3652368E0,-8.09015E-3,8.084998E-3,4.560853E-1,-8.99851E-1,9.010113E-3,1.7723169E-3,1.1437219E-3,-9.684536E-3,-8.9308536E-1,9.4735295E-1,7.5534123E-1,-9.1097895E-3,9.1872597E-1,-8.334994E-3,1.6237774E0,1.6504925E-3,2.0390009E-3,8.988174E-3,7.5690734E-1,-9.057051E-3,3.658601E-1,-9.608534E-3,6.568553E-1,-1.2797215E0,-2.3116194E-1,8.194243E-3,-8.721518E-3,8.635313E-1,2.4755893E-3,8.29803E-3,1.3487139E-3,8.453742E-3,-3.1170946E-1,1.3710625E0,-8.797445E-3,8.819945E-1,1.2882832E0,-8.544432E-3,3.8637877E-1,-1.752641E0,8.14958E-3,-8.466382E-3,9.530973E-1,-8.432768E-3,-9.180465E-3,5.414996E-1,1.5625983E0,5.560507E-4,8.363289E-3,-0E0,1.1122884E-3,8.421088E-3,-8.74034E-3,1.183056E0,-9.656149E-3,5.512191E-3,1.1221482E0,-2.724914E-1,7.432642E-3,-8.48079E-3,1.7081717E-3,8.835761E-3,8.1456285E-3,-8.794793E-3,9.867292E-4,8.40347E-3,1.2630658E0,-0E0,8.147898E-3,-9.099808E-3,7.21721E-3,1.7245773E-3,7.1177464E-3,-8.770417E-3],"categories":[],"categories_nodes":[],"categories_segments":[],"categories_sizes":[],"default_left":[0,0,0,0,0,0,0,0,0,0,0,0,0,0,0,0,0,0,0,0,0,0,0,0,0,0,0,0,0,0,0,0,0,0,0,0,0,0,0,0,0,0,0,0,0,0,0,0,0,0,0,0,0,0,0,0,0,0,0,0,0,0,0,0,0,0,0,0,0,0,0,0,0,0,0,0,0,0,0,0,0,0,0,0,0,0,0,0,0,0,0,0,0,0,0,0,0,0,0,0,0,0,0],"id":8,"left_children":[1,3,5,7,9,11,13,15,-1,-1,17,19,21,23,-1,25,27,-1,29,31,33,35,37,-1,39,41,43,-1,45,-1,-1,47,49,-1,-1,-1,-1,51,53,55,-1,57,-1,59,-1,-1,-1,61,-1,63,-1,65,67,69,-1,-1,71,-1,-1,-1,-1,73,75,-1,77,79,-1,81,83,-1,-1,85,-1,-1,87,89,-1,-1,91,-1,-1,-1,93,-1,-1,95,97,-1,-1,-1,-1,-1,-1,-1,-1,99,101,-1,-1,-1,-1,-1,-1],"loss_changes":[5.1203345E2,1.4801755E2,1.5957355E2,8.817099E1,5.768181E1,2.0534497E2,1.14863014E2,2.845166E1,0E0,0E0,9.740143E0,8.987105E1,1.3817542E2,1.0102347E2,0E0,3.7786682E1,7.594187E1,0E0,3.0101173E1,1.097312E2,1.0564758E1,4.2404358E1,1.0240842E2,0E0,9.3621956E1,3.6307774E1,1.0741455E1,0E0,7.821949E0,0E0,0E0,8.0380356E1,1.5373671E2,0E0,0E0,0E0,0E0,1.1923088E2,2.9568325E1,6.1149323E1,0E0,1.7728432E1,0E0,1.36658325E1,0E0,0E0,0E0,7.017062E1,0E0,5.817524E1,0E0,5.9581406E1,1.26344635E2,3.671103E1,0E0,0E0,4.9891876E1,0E0,0E0,0E0,0E0,5.11317E1,1.4923225E1,0E0,2.8748978E1,1.1264164E1,0E0,6.0322357E1,5.914618E1,0E0,0E0,4.4526672E1,0E0,0E0,5.271146E1,1.151651E1,0E0,0E0,6.1648705E1,0E0,0E0,0E0,1.0915653E1,0E0,0E0,2.9156754E1,7.5824295E1,0E0,0E0,0E0,0E0,0E0,0E0,0E0,0E0,2.3938538E1,5.43414E1,0E0,0E0,0E0,0E0,0E0,0E0],"parents":[2147483647,0,0,1,1,2,2,3,3,4,4,5,5,6,6,7,7,10,10,11,11,12,12,13,13,15,15,16,16,18,18,19,19,20,20,21,21,22,22,24,24,25,25,26,26,28,28,31,31,32,32,37,37,38,38,39,39,41,41,43,43,47,47,49,49,51,51,52,52,53,53,56,56,61,61,62,62,64,64,65,65,67,67,68,68,71,71,74,74,75,75,78,78,82,82,85,85,86,86,95,95,96,96],"right_children":[2,4,6,8,10,12,14,16,-1,-1,18,20,22,24,-1,26,28,-1,30,32,34,36,38,-1,40,42,44,-1,46,-1,-1,48,50,-1,-1,-1,-1,52,54,56,-1,58,-1,60,-1,-1,-1,62,-1,64,-1,66,68,70,-1,-1,72,-1,-1,-1,-1,74,76,-1,78,80,-1,82,84,-1,-1,86,-1,-1,88,90,-1,-1,92,-1,-1,-1,94,-1,-1,96,98,-1,-1,-1,-1,-1,-1,-1,-1,100,102,-1,-1,-1,-1,-1,-1],"split_conditions":[1.62E0,8.013893E-3,1E0,1.6631857E1,5.5924293E-2,8.9304955E1,3.369977E-2,9.1691855E-3,-8.796826E-3,-9.3646785E-3,-3.6103314E-1,1.4265734E-1,7.39726E-1,-6.1492485E-1,-9.378342E-3,5.731707E-1,-1.0394592E1,8.103258E-3,3.2732506E0,9.050893E-4,4.395973E-1,-1.823E2,2.30585E2,-9.247745E-3,7.2107774E-1,6.0920864E-1,1.0734342E2,-8.934208E-3,2.4198901E3,-8.09015E-3,8.084998E-3,1.9729549E2,-2.45E1,9.010113E-3,1.7723169E-3,1.1437219E-3,-9.684536E-3,-7.0710677E-1,-7.154583E1,-2.3786066E2,-9.1097895E-3,1.09375E-1,-8.334994E-3,-1.09615624E-1,1.6504925E-3,2.0390009E-3,8.988174E-3,7.059863E1,-9.057051E-3,-1.9645384E1,-9.608534E-3,3.6534984E0,2E-2,-2.2390945E0,8.194243E-3,-8.721518E-3,7.825275E-1,2.4755893E-3,8.29803E-3,1.3487139E-3,8.453742E-3,2.6854225E1,1.373E1,-8.797445E-3,-1.7062885E1,7.9723413E2,-8.544432E-3,1.2030705E-1,4.694845E0,8.14958E-3,-8.466382E-3,7E1,-8.432768E-3,-9.180465E-3,6.268222E-1,3.3881578E-1,5.560507E-4,8.363289E-3,-1.5244E2,1.1122884E-3,8.421088E-3,-8.74034E-3,-2.0108144E0,-9.656149E-3,5.512191E-3,1.4117647E0,2.9249012E-1,7.432642E-3,-8.48079E-3,1.7081717E-3,8.835761E-3,8.1456285E-3,-8.794793E-3,9.867292E-4,8.40347E-3,3.842392E0,2.828427E0,8.147898E-3,-9.099808E-3,7.21721E-3,1.7245773E-3,7.1177464E-3,-8.770417E-3],"split_indices":[60,6,21,11,42,17,117,19,0,0,23,51,98,80,0,98,46,0,20,19,86,81,52,0,27,5,97,0,116,0,0,85,81,0,0,0,0,23,32,32,0,86,0,70,0,0,0,26,0,65,0,5,53,114,0,0,23,0,0,0,0,17,53,0,65,96,0,14,99,0,0,21,0,0,98,86,0,0,81,0,0,0,65,0,0,108,41,0,0,0,0,0,0,0,0,5,43,0,0,0,0,0,0],"split_type":[0,0,0,0,0,0,0,0,0,0,0,0,0,0,0,0,0,0,0,0,0,0,0,0,0,0,0,0,0,0,0,0,0,0,0,0,0,0,0,0,0,0,0,0,0,0,0,0,0,0,0,0,0,0,0,0,0,0,0,0,0,0,0,0,0,0,0,0,0,0,0,0,0,0,0,0,0,0,0,0,0,0,0,0,0,0,0,0,0,0,0,0,0,0,0,0,0,0,0,0,0,0,0],"sum_hessian":[1.3311096E3,3.7431006E2,9.567996E2,3.3567032E2,3.8639736E1,6.753321E2,2.8146753E2,3.2642883E2,9.241468E0,2.2976152E1,1.5663584E1,2.720987E2,4.032334E2,2.5799167E2,2.3475883E1,2.9184045E2,3.45884E1,5.2100377E0,1.0453546E1,2.368276E2,3.527107E1,1.7174976E2,2.3148363E2,1.7732067E1,2.402596E2,6.840914E1,2.234313E2,1.0491735E1,2.4096666E1,5.24418E0,5.209366E0,1.1791398E2,1.18913635E2,2.6812311E1,8.4587555E0,8.956847E0,1.6279291E2,1.9668393E2,3.47997E1,2.2577638E2,1.4483214E1,6.3160393E1,5.248747E0,2.1497215E2,8.459152E0,8.210681E0,1.5885985E1,1.0467912E2,1.32348585E1,5.2493908E1,6.641972E1,3.8793877E1,1.5789005E2,1.2451097E1,2.2348606E1,8.740746E0,2.1703563E2,4.1066566E1,2.2093826E1,8.709698E0,2.0626245E2,3.787139E1,6.680773E1,9.738015E0,4.2755894E1,3.105502E1,7.738858E0,3.4583218E1,1.2330683E2,5.2115216E0,7.239575E0,2.1029306E2,6.742567E0,1.3741135E1,2.4130257E1,5.735147E1,9.45626E0,2.2095747E1,2.0660149E1,8.9544E0,2.210062E1,8.9899845E0,2.5593231E1,1.1709776E2,6.209075E0,1.8538588E2,2.4907179E1,1.7385942E1,6.744314E0,8.456724E0,4.8894745E1,1.0922398E1,9.737751E0,9.209545E0,1.6383686E1,1.6447195E2,2.0913933E1,1.0922325E1,1.3984854E1,1.3809883E2,2.6373123E1,1.1674234E1,9.239697E0],"tree_param":{"num_deleted":"0","num_feature":"125","num_nodes":"103","size_leaf_vector":"1"}},{"base_weights":[2.991251E-2,8.3015966E-1,-5.213335E-1,9.6749973E-1,-9.342532E-3,-6.9756174E-1,9.5928323E-1,-1.0194088E0,1.0649287E0,-1.4609548E-1,-1.0624593E0,1.2625436E0,-8.591999E-3,-9.230404E-3,7.4344627E-3,1.1186796E0,-8.725874E-3,-1.3524157E0,2.7252778E-1,-1.3829542E0,-2.5684482E-1,7.032556E-2,1.670636E0,2.745116E-1,1.263911E0,-1.6072122E0,8.336793E-3,7.444133E-1,-7.166332E-1,-1.6134839E0,3.2864305E-1,7.392041E-1,-1.0249003E0,8.596978E-3,-8.728136E-3,9.40548E-3,2.0669335E-3,-9.261371E-3,9.8264235E-1,1.3128805E0,-8.383691E-3,-9.584009E-3,6.75954E-3,-9.5001674E-1,1.0610934E0,7.802791E-1,-1.4546452E0,-1.6828629E0,6.0072327E-3,-8.870645E-3,1.3417572E0,-8.584283E-3,1.209317E0,-1.5245064E0,8.1134564E-1,-8.286684E-3,1.3212426E0,1.5330324E0,9.143271E-1,-9.181597E-3,8.132753E-3,1.2093835E0,-8.191798E-3,-8.0552455E-3,8.088916E-3,7.35412E-3,-9.5179025E-3,5.5881497E-3,-1.7561865E0,1.5181828E-3,9.285452E-3,7.7962363E-3,-0E0,7.495594E-3,-9.513796E-3,9.010571E-4,8.377664E-3,8.099004E-3,3.1949749E-4,5.754358E-4,1.5829614E0,1.0621761E0,-8.66011E-3,-8.221638E-3,1.3667588E0,-1.0090157E0,-9.6391E-3,8.146595E-3,2.2818218E-3,7.152476E-1,1.5367056E0,1.5096893E0,-0E0,3.6658847E-1,-9.351059E-3,-8.660802E-3,4.845486E-3,1.0676432E-3,8.873837E-3,8.108493E-3,1.6798689E-3,-8.078938E-3,8.1288405E-3,7.004841E-3,-8.086054E-3],"categories":[],"categories_nodes":[],"categories_segments":[],"categories_sizes":[],"default_left":[0,0,0,0,0,0,0,0,0,0,0,0,0,0,0,0,0,0,0,0,0,0,0,0,0,0,0,0,0,0,0,0,0,0,0,0,0,0,0,0,0,0,0,0,0,0,0,0,0,0,0,0,0,0,0,0,0,0,0,0,0,0,0,0,0,0,0,0,0,0,0,0,0,0,0,0,0,0,0,0,0,0,0,0,0,0,0,0,0,0,0,0,0,0,0,0,0,0,0,0,0,0,0,0,0],"id":9,"left_children":[1,3,5,7,-1,9,11,13,15,17,19,21,-1,-1,-1,23,-1,25,27,29,31,33,35,37,39,41,-1,43,45,47,49,51,53,-1,-1,-1,-1,-1,55,57,-1,-1,-1,59,61,63,65,67,-1,-1,69,-1,71,73,75,-1,77,79,81,-1,-1,83,-1,-1,-1,-1,-1,-1,85,-1,-1,-1,-1,-1,-1,-1,-1,-1,-1,-1,87,89,-1,-1,91,93,-1,-1,-1,95,97,99,101,103,-1,-1,-1,-1,-1,-1,-1,-1,-1,-1,-1],"loss_changes":[5.9119403E2,2.0199109E2,2.0705794E2,1.01568054E2,0E0,1.417088E2,6.8954155E1,5.1125572E1,7.547235E1,1.4442963E2,1.0850937E2,3.5665337E1,0E0,0E0,0E0,5.8529602E1,0E0,5.807904E1,9.877383E1,1.2119031E2,9.4507744E1,6.2280033E1,1.1609283E1,1.100227E2,6.070581E1,6.12498E1,0E0,7.775164E1,7.623233E1,5.382605E1,7.773209E1,6.2130554E1,6.546036E1,0E0,0E0,0E0,0E0,0E0,5.049682E1,3.3237854E1,0E0,0E0,0E0,5.2344147E1,4.9354706E1,4.5667835E1,6.0084282E1,5.5385925E1,0E0,0E0,1.1031998E1,0E0,1.768547E1,6.258185E1,6.526387E0,0E0,1.6528114E1,1.7161133E1,5.8441093E1,0E0,0E0,5.2985947E1,0E0,0E0,0E0,0E0,0E0,0E0,2.6332397E1,0E0,0E0,0E0,0E0,0E0,0E0,0E0,0E0,0E0,0E0,0E0,7.286621E0,2.0886642E1,0E0,0E0,2.1558014E1,5.5303085E1,0E0,0E0,0E0,5.0481884E1,1.549527E1,9.76915E0,3.0225601E1,3.705111E1,0E0,0E0,0E0,0E0,0E0,0E0,0E0,0E0,0E0,0E0,0E0],"parents":[2147483647,0,0,1,1,2,2,3,3,5,5,6,6,7,7,8,8,9,9,10,10,11,11,15,15,17,17,18,18,19,19,20,20,21,21,22,22,23,23,24,24,25,25,27,27,28,28,29,29,30,30,31,31,32,32,38,38,39,39,43,43,44,44,45,45,46,46,47,47,50,50,52,52,53,53,54,54,56,56,57,57,58,58,61,61,68,68,80,80,81,81,84,84,85,85,89,89,90,90,91,91,92,92,93,93],"right_children":[2,4,6,8,-1,10,12,14,16,18,20,22,-1,-1,-1,24,-1,26,28,30,32,34,36,38,40,42,-1,44,46,48,50,52,54,-1,-1,-1,-1,-1,56,58,-1,-1,-1,60,62,64,66,68,-1,-1,70,-1,72,74,76,-1,78,80,82,-1,-1,84,-1,-1,-1,-1,-1,-1,86,-1,-1,-1,-1,-1,-1,-1,-1,-1,-1,-1,88,90,-1,-1,92,94,-1,-1,-1,96,98,100,102,104,-1,-1,-1,-1,-1,-1,-1,-1,-1,-1,-1],"split_conditions":[3.681E1,1.0609007E9,3.3333334E-1,-1.6369084E-1,-9.342532E-3,1.4399025E9,5.3530045E1,2.2405013E-1,3.0796245E-1,3.5567755E-1,4.6086955E-1,1.3604801E-2,-8.591999E-3,-9.230404E-3,7.4344627E-3,-7.5676285E1,-8.725874E-3,8.4007514E8,4.2439026E-1,1.9017893E1,-1.875E1,-1.7001163E0,1.047E1,4.8106313E-1,1.8518518E-3,3.5395958E0,8.336793E-3,-1.01501495E-1,-2.090162E0,1.76E2,7.9236885E1,5.483599E2,2.1158057E-1,8.596978E-3,-8.728136E-3,9.40548E-3,2.0669335E-3,-9.261371E-3,3.857143E0,-1.0847077E0,-8.383691E-3,-9.584009E-3,6.75954E-3,1.6114962E3,1.6E1,1.6549408E-1,3E0,-1.5052089E1,6.0072327E-3,-8.870645E-3,8.118812E-1,-8.584283E-3,2.4264848E-1,-3.3769E3,2.627E2,-8.286684E-3,3.7E-1,-2.1425179E-1,1.4177514E7,-9.181597E-3,8.132753E-3,2.157087E0,-8.191798E-3,-8.0552455E-3,8.088916E-3,7.35412E-3,-9.5179025E-3,5.5881497E-3,-6.332501E-1,1.5181828E-3,9.285452E-3,7.7962363E-3,-0E0,7.495594E-3,-9.513796E-3,9.010571E-4,8.377664E-3,8.099004E-3,3.1949749E-4,5.754358E-4,4.7565045E0,2.0307854E-1,-8.66011E-3,-8.221638E-3,6.124856E1,6.6526055E0,-9.6391E-3,8.146595E-3,2.2818218E-3,-6.69932E0,-4.99E0,6.220784E8,4.520734E-1,-8.950776E-1,-9.351059E-3,-8.660802E-3,4.845486E-3,1.0676432E-3,8.873837E-3,8.108493E-3,1.6798689E-3,-8.078938E-3,8.1288405E-3,7.004841E-3,-8.086054E-3],"split_indices":[60,18,61,67,0,0,33,92,82,77,54,110,0,0,0,32,0,104,41,100,81,64,53,77,111,29,0,110,69,73,33,96,92,0,0,0,0,0,103,69,0,0,0,26,57,45,16,112,0,0,98,0,75,123,55,0,55,70,78,0,0,5,0,0,0,0,0,0,112,0,0,0,0,0,0,0,0,0,0,0,5,77,0,0,97,43,0,0,0,71,81,18,15,100,0,0,0,0,0,0,0,0,0,0,0],"split_type":[0,0,0,0,0,0,0,0,0,0,0,0,0,0,0,0,0,0,0,0,0,0,0,0,0,0,0,0,0,0,0,0,0,0,0,0,0,0,0,0,0,0,0,0,0,0,0,0,0,0,0,0,0,0,0,0,0,0,0,0,0,0,0,0,0,0,0,0,0,0,0,0,0,0,0,0,0,0,0,0,0,0,0,0,0,0,0,0,0,0,0,0,0,0,0,0,0,0,0,0,0,0,0,0,0],"sum_hessian":[1.3384104E3,5.4633527E2,7.9207513E2,5.203748E2,2.5960453E1,7.085742E2,8.35009E1,2.3688532E1,4.966863E2,2.83321E2,4.252532E2,7.5511765E1,7.9891315E0,1.8226868E1,5.4616632E0,4.8794614E2,8.740175E0,7.309235E1,2.1022865E2,3.032393E2,1.22013916E2,1.9910862E1,5.5600903E1,7.264629E1,4.1529984E2,6.78779E1,5.214446E0,1.4294678E2,6.728188E1,2.6766217E2,3.557713E1,5.2707966E1,6.9305954E1,1.0673893E1,9.236968E0,4.739389E1,8.207013E0,1.7731478E1,5.4914818E1,4.0905518E2,6.244669E0,6.2166477E1,5.7114263E0,2.1940077E1,1.210067E2,2.1870687E1,4.5411194E1,2.617054E2,5.9567704E0,1.1231924E1,2.4345207E1,7.988704E0,4.471926E1,5.4886395E1,1.4419558E1,5.744711E0,4.9170105E1,2.6114697E2,1.4790819E2,1.6729057E1,5.2110186E0,1.1526426E2,5.7424397E0,5.242968E0,1.662772E1,5.4593506E0,3.9951843E1,6.2122054E0,2.554932E2,8.707622E0,1.5637586E1,3.451691E1,1.0202349E1,5.462826E0,4.942357E1,9.205097E0,5.214461E0,3.9464645E1,9.705462E0,9.456631E0,2.5169035E2,1.406627E2,7.2454762E0,5.4955173E0,1.0976874E2,4.5608303E1,2.0988489E2,2.437358E2,7.9545565E0,8.3072365E1,5.7590347E1,9.931397E1,1.0454766E1,1.71573E1,2.8451E1,6.9963326E0,7.6076035E1,8.957263E0,4.8633083E1,9.085779E1,8.456184E0,5.24387E0,5.210896E0,1.1666502E1,5.4907994E0],"tree_param":{"num_deleted":"0","num_feature":"125","num_nodes":"105","size_leaf_vector":"1"}},{"base_weights":[1.6314922E-2,9.654025E-1,-3.804405E-1,1.0787418E0,-9.027369E-3,-4.4786576E-2,-1.0639175E0,-8.7910676E-1,1.1935122E0,-9.476976E-3,8.823781E-2,6.2925977E-1,-1.3118842E0,6.106575E-3,-9.0942625E-3,1.2488966E0,-8.363499E-3,5.7051754E-1,-4.000252E-1,1.2481914E0,-8.525503E-3,-1.6970134E0,-3.3174303E-1,8.76784E-1,1.5899149E0,-4.0094137E-1,8.5569835E-1,-1.6374662E0,5.5124387E-2,6.5695174E-4,8.481383E-3,-1.7973018E0,5.0452063E-3,-9.359136E-3,8.2579565E-1,1.0517768E0,-8.917363E-3,4.8261767E-4,1.6667696E0,3.7452686E-1,-9.297001E-3,9.71277E-1,-8.726612E-3,-9.519631E-3,6.65848E-3,-1.1018251E0,4.2482746E-1,-9.603428E-3,9.241676E-4,1.4284761E0,-8.543038E-3,1.1629382E0,-8.3398E-3,2.5590814E-3,8.644407E-3,-7.8730834E-1,6.433839E-3,-8.468355E-3,1.0687623E0,3.7055704E-1,-9.384968E-3,-9.01871E-3,6.4782584E-1,6.370261E-4,9.352696E-3,5.8104485E-1,1.5503175E0,-9.0662325E-3,8.1277685E-3,1.1508296E0,-8.168085E-3,-8.187158E-3,7.7296305E-3,-8.802126E-3,8.4144145E-1,4.0808553E-3,-8.267608E-3,8.601009E-3,5.072521E-4,5.5386394E-1,1.5152014E0,1.0435352E0,-8.710675E-3,4.808888E-3,-8.92442E-3,8.160199E-3,6.3231605E-4,6.049611E-3,-8.2967365E-3],"categories":[],"categories_nodes":[],"categories_segments":[],"categories_sizes":[],"default_left":[0,0,0,0,0,0,0,0,0,0,0,0,0,0,0,0,0,0,0,0,0,0,0,0,0,0,0,0,0,0,0,0,0,0,0,0,0,0,0,0,0,0,0,0,0,0,0,0,0,0,0,0,0,0,0,0,0,0,0,0,0,0,0,0,0,0,0,0,0,0,0,0,0,0,0,0,0,0,0,0,0,0,0,0,0,0,0,0,0],"id":10,"left_children":[1,3,5,7,-1,9,11,13,15,-1,17,19,21,-1,-1,23,-1,25,27,29,-1,31,33,35,37,39,41,43,45,-1,-1,47,-1,-1,49,51,-1,-1,53,55,-1,57,-1,-1,-1,59,61,-1,-1,63,-1,65,-1,-1,-1,67,-1,-1,69,71,-1,-1,73,-1,-1,75,77,-1,-1,79,-1,-1,-1,-1,81,-1,-1,-1,-1,83,85,87,-1,-1,-1,-1,-1,-1,-1],"loss_changes":[5.0478882E2,1.241644E2,2.157023E2,8.637506E1,0E0,1.5628395E2,1.3124106E2,4.250369E1,5.785083E1,0E0,1.3962497E2,5.792523E1,1.004689E2,0E0,0E0,4.2171753E1,0E0,8.332077E1,1.6664099E2,1.3981762E1,0E0,5.418463E1,1.390029E2,8.0057755E1,1.9568756E1,7.719215E1,6.975339E1,6.0803223E1,9.1686295E1,0E0,0E0,4.1288757E1,0E0,0E0,6.870331E1,4.944014E1,0E0,0E0,7.3341064E0,4.724517E1,0E0,5.8158966E1,0E0,0E0,0E0,5.9362507E1,8.0699486E1,0E0,0E0,1.8566208E1,0E0,3.2975845E1,0E0,0E0,0E0,4.8786095E1,0E0,0E0,4.831044E1,4.269584E1,0E0,0E0,6.953747E1,0E0,0E0,3.2674095E1,1.935379E1,0E0,0E0,4.3502625E1,0E0,0E0,0E0,0E0,7.280724E1,0E0,0E0,0E0,0E0,7.585469E1,1.7036072E1,5.530594E1,0E0,0E0,0E0,0E0,0E0,0E0,0E0],"parents":[2147483647,0,0,1,1,2,2,3,3,5,5,6,6,7,7,8,8,10,10,11,11,12,12,15,15,17,17,18,18,19,19,21,21,22,22,23,23,24,24,25,25,26,26,27,27,28,28,31,31,34,34,35,35,38,38,39,39,41,41,45,45,46,46,49,49,51,51,55,55,58,58,59,59,62,62,65,65,66,66,69,69,74,74,79,79,80,80,81,81],"right_children":[2,4,6,8,-1,10,12,14,16,-1,18,20,22,-1,-1,24,-1,26,28,30,-1,32,34,36,38,40,42,44,46,-1,-1,48,-1,-1,50,52,-1,-1,54,56,-1,58,-1,-1,-1,60,62,-1,-1,64,-1,66,-1,-1,-1,68,-1,-1,70,72,-1,-1,74,-1,-1,76,78,-1,-1,80,-1,-1,-1,-1,82,-1,-1,-1,-1,84,86,88,-1,-1,-1,-1,-1,-1,-1],"split_conditions":[2.94E0,1.0609007E9,3.7920828E0,-2.913572E-3,-9.027369E-3,-9.3526745E-1,1E1,2.75E-1,2.619769E2,-9.476976E-3,1.618508E9,-5.556035E-1,1.3956666E3,6.106575E-3,-9.0942625E-3,2.2741372E-2,-8.363499E-3,3.370309E-1,1.3195287E0,-1.0821227E0,-8.525503E-3,1.0000001E0,2.4590164E-2,1.61542E0,3.4549877E-1,4.647204E5,3.8344383E-1,2.7288136E0,5.120087E2,6.5695174E-4,8.481383E-3,6.9871793E0,5.0452063E-3,-9.359136E-3,1.3634388E10,1.6474025E-1,-8.917363E-3,4.8261767E-4,-7.546719E-2,4.5053756E-1,-9.297001E-3,-3.2645792E-1,-8.726612E-3,-9.519631E-3,6.65848E-3,5.249344E-3,2.0625E0,-9.603428E-3,9.241676E-4,7.964003E-2,-8.543038E-3,2.2E1,-8.3398E-3,2.5590814E-3,8.644407E-3,1.0000001E0,6.433839E-3,-8.468355E-3,6.2096557E-16,2.1145243E1,-9.384968E-3,-9.01871E-3,-1.163281E1,6.370261E-4,9.352696E-3,1.1376643E1,3.399878E7,-9.0662325E-3,8.1277685E-3,5.1333855E1,-8.168085E-3,-8.187158E-3,7.7296305E-3,-8.802126E-3,7.0868635E0,4.0808553E-3,-8.267608E-3,8.601009E-3,5.072521E-4,4.4222537E-2,6.9411764E0,1.4301358E-1,-8.710675E-3,4.808888E-3,-8.92442E-3,8.160199E-3,6.3231605E-4,6.049611E-3,-8.2967365E-3],"split_indices":[60,18,5,114,0,80,16,41,121,0,0,80,74,0,0,9,0,77,29,80,0,75,24,22,41,2,76,8,96,0,0,34,0,0,0,14,0,0,110,83,0,67,0,0,0,37,103,0,0,49,0,16,0,0,0,49,0,0,99,80,0,0,107,0,0,96,101,0,0,26,0,0,0,0,22,0,0,0,0,37,103,67,0,0,0,0,0,0,0],"split_type":[0,0,0,0,0,0,0,0,0,0,0,0,0,0,0,0,0,0,0,0,0,0,0,0,0,0,0,0,0,0,0,0,0,0,0,0,0,0,0,0,0,0,0,0,0,0,0,0,0,0,0,0,0,0,0,0,0,0,0,0,0,0,0,0,0,0,0,0,0,0,0,0,0,0,0,0,0,0,0,0,0,0,0,0,0,0,0,0,0],"sum_hessian":[1.3381456E3,3.9477908E2,9.433665E2,3.7980908E2,1.4969978E1,6.33847E2,3.0951953E2,2.044011E1,3.59369E2,4.2679367E1,5.9116766E2,3.903027E1,2.7048926E2,5.9599586E0,1.448015E1,3.5312518E2,6.243798E0,2.98125E2,2.9304263E2,3.129298E1,7.737287E0,1.9331044E2,7.717881E1,1.7098055E2,1.8214464E2,6.700262E1,2.3112238E2,7.8807755E1,2.142349E2,9.457153E0,2.1835829E1,1.8684978E2,6.460661E0,3.3429348E1,4.3749466E1,1.6098946E2,9.991088E0,9.455712E0,1.7268893E2,4.3541866E1,2.346075E1,2.2188588E2,9.236495E0,7.309968E1,5.70808E0,5.10903E1,1.6314459E2,1.7764241E2,9.207377E0,3.5763752E1,7.985713E0,1.5524403E2,5.7454195E0,7.7036185E0,1.649853E2,1.8693787E1,2.4848078E1,7.2391515E0,2.1464673E2,1.7155767E1,3.3934532E1,1.4224192E1,1.489204E2,9.452788E0,2.6310965E1,6.3441383E1,9.180266E1,1.3482925E1,5.2108617E0,2.0890565E2,5.741074E0,5.988709E0,1.1167058E1,1.0481487E1,1.384389E2,5.8194473E1,5.2469077E0,8.235185E1,9.450803E0,8.0556206E1,1.2834946E2,1.2895609E2,9.48283E0,6.932026E1,1.1235948E1,1.1889352E2,9.455944E0,1.2246812E2,6.487962E0],"tree_param":{"num_deleted":"0","num_feature":"125","num_nodes":"89","size_leaf_vector":"1"}},{"base_weights":[6.010124E-3,9.939387E-1,-4.0762824E-1,1.2100931E0,-1.2796681E0,-7.137049E-1,3.3238003E-1,1.3030461E0,-8.815347E-3,7.4715014E-3,-9.3597025E-3,-9.1191137E-1,6.0119677E-1,-9.162404E-3,4.9307483E-1,-3.9135873E-1,1.3742954E0,-1.0835726E0,9.5977837E-1,8.7924254E-1,-8.624464E-3,6.2813467E-1,-8.987862E-3,-8.680008E-3,8.067777E-3,1.5572355E0,9.1081315E-1,-5.9023064E-1,-1.4897214E0,-8.4021045E-3,1.4567354E0,1.1086468E0,-8.207918E-3,1.0331548E0,-8.08725E-2,1.6165609E0,2.949024E-4,-8.447177E-3,1.0972686E0,3.4463426E-1,-1.046692E0,-1.6124147E0,4.2066113E-3,8.760498E-3,1.4252324E-3,1.7981635E-1,8.4589925E-3,1.1713244E0,-8.416333E-3,8.4068966E-1,-1.335209E0,1.6609687E0,1.667643E-3,2.4188182E-3,1.5671449E0,-9.113392E-3,8.9032274E-1,-1.4517467E0,7.426581E-1,-1.7467387E0,3.476721E-1,8.373528E-3,-8.912495E-3,1.2835062E0,-8.006285E-3,1.2587899E0,-8.373206E-3,-9.351318E-3,8.169098E-3,1.5980209E-3,8.620018E-3,8.82423E-3,2.1832548E-3,1.3155633E0,-8.587127E-3,4.6684495E-1,-9.557279E-3,-8.06882E-3,1.32794E0,-1.8207495E0,2.4099785E-3,-8.198977E-3,7.7684443E-3,2.9321802E-1,1.4141476E0,1.6099459E-4,8.013718E-3,8.1602605E-3,-0E0,-8.601264E-3,8.359077E-3,1.763057E-3,8.927988E-3,8.3896564E-4,-9.576661E-3,8.0680065E-3,-8.4586255E-3,1.5038201E0,8.8818284E-4,-8.012277E-3,8.023927E-3,7.956281E-3,1.9971489E-3],"categories":[],"categories_nodes":[],"categories_segments":[],"categories_sizes":[],"default_left":[0,0,0,0,0,0,0,0,0,0,0,0,0,0,0,0,0,0,0,0,0,0,0,0,0,0,0,0,0,0,0,0,0,0,0,0,0,0,0,0,0,0,0,0,0,0,0,0,0,0,0,0,0,0,0,0,0,0,0,0,0,0,0,0,0,0,0,0,0,0,0,0,0,0,0,0,0,0,0,0,0,0,0,0,0,0,0,0,0,0,0,0,0,0,0,0,0,0,0,0,0,0,0],"id":11,"left_children":[1,3,5,7,9,11,13,15,-1,-1,-1,17,19,-1,21,23,25,27,29,31,-1,33,-1,-1,-1,35,37,39,41,-1,43,45,-1,47,49,51,-1,-1,53,55,57,59,-1,-1,-1,61,-1,63,-1,65,67,69,-1,-1,71,-1,73,75,77,79,81,-1,-1,83,-1,85,-1,-1,-1,-1,-1,-1,-1,87,-1,89,-1,-1,91,93,-1,-1,-1,95,97,-1,-1,-1,99,-1,-1,-1,-1,-1,-1,-1,-1,101,-1,-1,-1,-1,-1],"loss_changes":[5.5047845E2,1.9640097E2,2.1520891E2,1.0114282E2,5.697018E1,1.7563605E2,9.529521E1,4.373413E1,0E0,0E0,0E0,1.8852682E2,5.679035E1,0E0,7.933592E1,3.97381E1,2.606726E1,1.0529529E2,6.538788E1,4.624937E1,0E0,7.111178E1,0E0,0E0,0E0,2.0160156E1,4.834999E1,1.04828964E2,8.489368E1,0E0,1.1958618E1,3.706833E1,0E0,5.9325363E1,1.0391475E2,1.1402039E1,0E0,0E0,2.492675E1,9.419765E1,1.20484146E2,7.4775024E1,0E0,0E0,0E0,8.531674E1,0E0,4.735907E1,0E0,5.46781E1,6.0769447E1,1.2690002E1,0E0,0E0,8.617004E0,0E0,7.2203766E1,1.162897E2,4.2874214E1,4.4552063E1,4.3946766E1,0E0,0E0,1.7143143E1,0E0,1.6827515E1,0E0,0E0,0E0,0E0,0E0,0E0,0E0,2.2360428E1,0E0,6.766396E1,0E0,0E0,8.831905E0,4.0937195E1,0E0,0E0,0E0,4.8702988E1,1.26458435E1,0E0,0E0,0E0,2.9570707E1,0E0,0E0,0E0,0E0,0E0,0E0,0E0,0E0,7.7628784E0,0E0,0E0,0E0,0E0,0E0],"parents":[2147483647,0,0,1,1,2,2,3,3,4,4,5,5,6,6,7,7,11,11,12,12,14,14,15,15,16,16,17,17,18,18,19,19,21,21,25,25,26,26,27,27,28,28,30,30,31,31,33,33,34,34,35,35,38,38,39,39,40,40,41,41,45,45,47,47,49,49,50,50,51,51,54,54,56,56,57,57,58,58,59,59,60,60,63,63,65,65,73,73,75,75,78,78,79,79,83,83,84,84,88,88,97,97],"right_children":[2,4,6,8,10,12,14,16,-1,-1,-1,18,20,-1,22,24,26,28,30,32,-1,34,-1,-1,-1,36,38,40,42,-1,44,46,-1,48,50,52,-1,-1,54,56,58,60,-1,-1,-1,62,-1,64,-1,66,68,70,-1,-1,72,-1,74,76,78,80,82,-1,-1,84,-1,86,-1,-1,-1,-1,-1,-1,-1,88,-1,90,-1,-1,92,94,-1,-1,-1,96,98,-1,-1,-1,100,-1,-1,-1,-1,-1,-1,-1,-1,102,-1,-1,-1,-1,-1],"split_conditions":[2.94E0,8.013893E-3,5.2380955E-1,1.6631857E1,-8.571471E0,2.2988506E-1,-6.1492485E-1,-6.222876E0,-8.815347E-3,7.4715014E-3,-9.3597025E-3,7E0,1.9805576E1,-9.162404E-3,1.0748274E-1,4.4E1,-1.0363295E0,7.039306E0,2.2822544E8,2.5247587E-3,-8.624464E-3,2.325958E5,-8.987862E-3,-8.680008E-3,8.067777E-3,8.458333E0,-1.35E1,5.7506065E1,3E0,-8.4021045E-3,3.5E2,2.99394E0,-8.207918E-3,6.964301E-16,6.6526055E0,2.2843158E-1,2.949024E-4,-8.447177E-3,3.3783782E-2,1.8599606E1,2.7E-1,5E2,4.2066113E-3,8.760498E-3,1.4252324E-3,1E0,8.4589925E-3,9.461551E9,-8.416333E-3,-4.9261433E1,7.0638374E1,-8.196354E1,1.667643E-3,2.4188182E-3,2.03E1,-9.113392E-3,7.714286E-1,-1.7389162E-16,6.5845435E2,1.5382782E2,1.7142857E0,8.373528E-3,-8.912495E-3,1.3333334E0,-8.006285E-3,2.9908998E-2,-8.373206E-3,-9.351318E-3,8.169098E-3,1.5980209E-3,8.620018E-3,8.82423E-3,2.1832548E-3,3.25E0,-8.587127E-3,5.95379E0,-9.557279E-3,-8.06882E-3,-4.241E1,-8.0434424E-1,2.4099785E-3,-8.198977E-3,7.7684443E-3,4.119539E1,1.546986E-1,1.6099459E-4,8.013718E-3,8.1602605E-3,5.456912E-1,-8.601264E-3,8.359077E-3,1.763057E-3,8.927988E-3,8.3896564E-4,-9.576661E-3,8.0680065E-3,-8.4586255E-3,6.7777777E0,8.8818284E-4,-8.012277E-3,8.023927E-3,7.956281E-3,1.9971489E-3],"split_indices":[60,6,54,11,49,61,80,109,0,0,0,59,43,0,117,35,69,43,120,67,0,3,0,0,0,103,84,17,58,0,60,68,0,76,43,102,0,0,86,17,38,52,0,0,0,30,0,78,0,46,107,46,0,0,53,0,98,20,1,107,108,0,0,103,0,19,0,0,0,0,0,0,0,87,0,43,0,0,84,42,0,0,0,1,14,0,0,0,13,0,0,0,0,0,0,0,0,103,0,0,0,0,0],"split_type":[0,0,0,0,0,0,0,0,0,0,0,0,0,0,0,0,0,0,0,0,0,0,0,0,0,0,0,0,0,0,0,0,0,0,0,0,0,0,0,0,0,0,0,0,0,0,0,0,0,0,0,0,0,0,0,0,0,0,0,0,0,0,0,0,0,0,0,0,0,0,0,0,0,0,0,0,0,0,0,0,0,0,0,0,0,0,0,0,0,0,0,0,0,0,0,0,0,0,0,0,0,0,0],"sum_hessian":[1.3447638E3,3.971503E2,9.4761346E2,3.632383E2,3.3911995E1,6.710806E2,2.7653284E2,3.5275665E2,1.04816475E1,5.462937E0,2.844906E1,5.838352E2,8.724547E1,1.846461E1,2.5806824E2,1.3697302E1,3.3905936E2,5.353948E2,4.8440414E1,7.851228E1,8.733187E0,2.4434615E2,1.3722096E1,8.488615E0,5.2086864E0,2.4088902E2,9.8170334E1,2.4327217E2,2.921226E2,7.2347627E0,4.120565E1,7.25229E1,5.989378E0,1.560015E2,8.834465E1,2.3118893E2,9.700091E0,5.9969096E0,9.217342E1,7.932362E1,1.6394853E2,2.7796097E2,1.4161645E1,3.2501976E1,8.703675E0,2.8357748E1,4.4165157E1,1.4901297E2,6.9885206E0,5.0702286E1,3.7642365E1,2.2273207E2,8.456871E0,4.106034E1,5.1113083E1,1.5476545E1,6.384708E1,1.3412347E2,2.9825064E1,2.6055533E2,1.7405615E1,1.637923E1,1.1978518E1,1.437726E2,5.2403803E0,4.3962944E1,6.73934E0,3.243031E1,5.2120543E0,8.451909E0,2.1428015E2,4.3158646E1,7.9544353E0,5.5364735E1,8.482346E0,2.4861343E1,1.0926213E2,5.489453E0,2.4335611E1,2.5260175E2,7.9535956E0,6.2351003E0,1.1170515E1,1.7660686E1,1.2611191E2,9.953747E0,3.4009197E1,4.4917274E1,1.044746E1,8.484063E0,1.637728E1,8.455064E0,1.5880548E1,9.196657E0,2.4340509E2,1.091829E1,6.742396E0,1.1690505E2,9.206854E0,5.240706E0,5.2067547E0,1.0870452E2,8.200535E0],"tree_param":{"num_deleted":"0","num_feature":"125","num_nodes":"103","size_leaf_vector":"1"}},{"base_weights":[6.0132824E-2,9.8932284E-1,-3.4323114E-1,1.1058253E0,-9.007436E-3,1.3595852E-1,-7.4750787E-1,1.2785554E0,-1.8748434E-1,-5.561875E-1,5.467621E-1,-9.5271635E-1,9.418595E-1,6.57512E-1,1.4457858E0,-9.106268E-3,6.46833E-1,1.0727346E0,-9.7954243E-1,-9.152078E-3,7.398844E-1,-1.1374835E0,8.0621743E-1,-8.285655E-3,1.3270705E0,8.9889485E-1,-8.578269E-3,-0E0,1.5039688E0,-8.304053E-3,1.3145937E0,-7.995612E-3,8.190493E-3,-1.4059402E-1,-1.6141528E0,8.807586E-1,-8.904254E-3,-5.548644E-1,-1.626852E0,1.358413E0,-8.4407795E-3,8.237028E-3,1.179624E-4,3.1840797E-3,8.555834E-3,7.967962E-3,-8.325942E-3,1.521554E-5,1.5589235E0,1.645482E-3,8.888762E-3,7.3681957E-1,-9.21993E-3,-9.500227E-3,6.673062E-3,1.0672903E0,-4.849209E-1,1.0772096E-1,-1.4094312E0,-1.7094599E0,6.690426E-3,5.850833E-4,8.859355E-3,1.604745E0,9.4129355E-4,1.1624441E0,-7.988097E-3,-8.372913E-3,1.1673847E0,5.672432E-3,-9.0776635E-3,7.1355E-1,-1.2477378E0,7.6263785E-2,-9.4374E-3,-1.7964023E0,4.09365E-3,8.362466E-3,6.8365526E-1,7.683806E-3,7.5562176E-4,1.2466801E0,-7.942686E-3,-8.686555E-3,1.1053697E0,8.140795E-3,-9.237221E-3,-8.465412E-3,6.737715E-3,-9.521468E-3,-0E0,2.9069887E-4,8.019438E-3,1.3801484E0,5.151421E-1,-3.2371572E-1,1.47542E0,-7.931437E-3,8.074301E-3,7.391923E-3,2.4999022E-3,-8.510725E-3,6.477592E-3,-8.47436E-3,7.992935E-3,1.6900043E-3,8.411059E-3],"categories":[],"categories_nodes":[],"categories_segments":[],"categories_sizes":[],"default_left":[0,0,0,0,0,0,0,0,0,0,0,0,0,0,0,0,0,0,0,0,0,0,0,0,0,0,0,0,0,0,0,0,0,0,0,0,0,0,0,0,0,0,0,0,0,0,0,0,0,0,0,0,0,0,0,0,0,0,0,0,0,0,0,0,0,0,0,0,0,0,0,0,0,0,0,0,0,0,0,0,0,0,0,0,0,0,0,0,0,0,0,0,0,0,0,0,0,0,0,0,0,0,0,0,0,0,0],"id":12,"left_children":[1,3,5,7,-1,9,11,13,15,17,19,21,23,25,27,-1,29,31,33,-1,35,37,39,-1,41,43,-1,45,47,-1,49,-1,-1,51,53,55,-1,57,59,61,-1,-1,-1,-1,-1,-1,-1,-1,63,-1,-1,65,-1,-1,-1,67,69,71,73,75,-1,-1,-1,77,-1,79,-1,-1,81,-1,-1,83,85,87,-1,89,-1,-1,91,-1,-1,93,-1,-1,95,-1,-1,-1,-1,-1,97,-1,-1,99,101,103,105,-1,-1,-1,-1,-1,-1,-1,-1,-1,-1],"loss_changes":[5.1771466E2,1.3597922E2,1.8684433E2,9.078818E1,0E0,1.2523309E2,1.8174478E2,3.4730835E1,6.5607025E1,1.13294235E2,1.2636479E2,1.5249988E2,5.740982E1,4.446033E1,2.4151062E1,0E0,4.924704E1,5.0967316E1,6.797669E1,0E0,9.094873E1,1.1840411E2,6.191436E1,0E0,1.8624222E1,1.27319145E1,0E0,3.0555862E1,2.0932678E1,0E0,9.124092E0,0E0,0E0,8.659811E1,6.0375885E1,6.2869446E1,0E0,1.113392E2,5.7545715E1,1.6718338E1,0E0,0E0,0E0,0E0,0E0,0E0,0E0,0E0,1.4696838E1,0E0,0E0,3.826424E1,0E0,0E0,0E0,5.959459E1,6.3693695E1,9.0304665E1,6.0192383E1,5.0566895E1,0E0,0E0,0E0,9.83667E0,0E0,1.05502205E1,0E0,0E0,4.6257935E1,0E0,0E0,7.389075E1,5.843881E1,4.651622E1,0E0,3.588092E1,0E0,0E0,7.522726E0,0E0,0E0,1.7953827E1,0E0,0E0,3.6420586E1,0E0,0E0,0E0,0E0,0E0,2.9453327E1,0E0,0E0,1.0997986E1,5.728963E1,3.749888E1,9.895493E0,0E0,0E0,0E0,0E0,0E0,0E0,0E0,0E0,0E0,0E0],"parents":[2147483647,0,0,1,1,2,2,3,3,5,5,6,6,7,7,8,8,9,9,10,10,11,11,12,12,13,13,14,14,16,16,17,17,18,18,20,20,21,21,22,22,24,24,25,25,27,27,28,28,30,30,33,33,34,34,35,35,37,37,38,38,39,39,48,48,51,51,55,55,56,56,57,57,58,58,59,59,63,63,65,65,68,68,71,71,72,72,73,73,75,75,78,78,81,81,84,84,90,90,93,93,94,94,95,95,96,96],"right_children":[2,4,6,8,-1,10,12,14,16,18,20,22,24,26,28,-1,30,32,34,-1,36,38,40,-1,42,44,-1,46,48,-1,50,-1,-1,52,54,56,-1,58,60,62,-1,-1,-1,-1,-1,-1,-1,-1,64,-1,-1,66,-1,-1,-1,68,70,72,74,76,-1,-1,-1,78,-1,80,-1,-1,82,-1,-1,84,86,88,-1,90,-1,-1,92,-1,-1,94,-1,-1,96,-1,-1,-1,-1,-1,98,-1,-1,100,102,104,106,-1,-1,-1,-1,-1,-1,-1,-1,-1,-1],"split_conditions":[2.94E0,1.0609007E9,1.7601158E9,9.1691855E-3,-9.007436E-3,1.0955851E1,1.4265734E-1,5.731707E-1,1.014432E2,-1.1004857E-1,-1.4454208E2,7E0,1.426846E0,2E-2,-1.7607055E-3,-9.106268E-3,-1.8424E2,5.428571E0,2.0337384E0,-9.152078E-3,7.788639E-2,1.0425472E1,1.2775636E2,-8.285655E-3,2.0099488E10,5.0257705E3,-8.578269E-3,1.5361889E5,-1.2961333E2,-8.304053E-3,4.88E2,-7.995612E-3,8.190493E-3,-8.433287E-1,3.5663197E0,8.8235295E-1,-8.904254E-3,-8.34E0,2.979959E3,2.588353E0,-8.4407795E-3,8.237028E-3,1.179624E-4,3.1840797E-3,8.555834E-3,7.967962E-3,-8.325942E-3,1.521554E-5,9.8E1,1.645482E-3,8.888762E-3,2.9275744E0,-9.21993E-3,-9.500227E-3,6.673062E-3,-1.0535674E0,5.7303932E1,3.7920828E0,4.4253394E-1,1.5476636E0,6.690426E-3,5.850833E-4,8.859355E-3,3.4149587E-2,9.4129355E-4,1.6E0,-7.988097E-3,-8.372913E-3,7.154707E6,5.672432E-3,-9.0776635E-3,5.5939996E2,-6.2383648E1,2.1052632E-1,-9.4374E-3,2.3073898E-1,4.09365E-3,8.362466E-3,2.0333561E11,7.683806E-3,7.5562176E-4,3.866963E0,-7.942686E-3,-8.686555E-3,-4.6762703E1,8.140795E-3,-9.237221E-3,-8.465412E-3,6.737715E-3,-9.521468E-3,7.8040194E-3,2.9069887E-4,8.019438E-3,2.1412922E1,9.744286E-3,3.5953003E-1,1.2772257E9,-7.931437E-3,8.074301E-3,7.391923E-3,2.4999022E-3,-8.510725E-3,6.477592E-3,-8.47436E-3,7.992935E-3,1.6900043E-3,8.411059E-3],"split_indices":[60,18,0,19,0,26,51,98,26,124,32,59,29,55,10,0,123,91,5,0,99,43,17,0,0,18,0,0,46,0,95,0,0,93,29,98,0,81,119,29,0,0,0,0,0,0,0,0,55,0,0,68,0,0,0,80,26,5,27,50,0,0,0,63,0,91,0,0,3,0,0,96,36,49,0,42,0,0,0,0,0,5,0,0,71,0,0,0,0,0,4,0,0,43,110,82,2,0,0,0,0,0,0,0,0,0,0],"split_type":[0,0,0,0,0,0,0,0,0,0,0,0,0,0,0,0,0,0,0,0,0,0,0,0,0,0,0,0,0,0,0,0,0,0,0,0,0,0,0,0,0,0,0,0,0,0,0,0,0,0,0,0,0,0,0,0,0,0,0,0,0,0,0,0,0,0,0,0,0,0,0,0,0,0,0,0,0,0,0,0,0,0,0,0,0,0,0,0,0,0,0,0,0,0,0,0,0,0,0,0,0,0,0,0,0,0,0],"sum_hessian":[1.3788214E3,4.1765677E2,9.611646E2,4.0145163E2,1.6205154E1,4.391733E2,5.2199133E2,3.546695E2,4.6782135E1,1.6281259E2,2.7636072E2,4.6609064E2,5.5900677E1,7.684573E1,2.7782376E2,1.5971797E1,3.0810337E1,3.3023327E1,1.2978928E2,2.0200977E1,2.5615973E2,4.2236932E2,4.372133E1,6.733304E0,4.9167374E1,7.035012E1,6.495612E0,1.0450292E1,2.6737344E2,6.4881225E0,2.4322216E1,5.239516E0,2.778381E1,5.6732494E1,7.305678E1,2.4319084E2,1.2968894E1,1.9412093E2,2.282484E2,3.6237427E1,7.4839034E0,3.9217564E1,9.949808E0,5.422752E1,1.6122602E1,5.203857E0,5.246434E0,9.948365E0,2.5742508E2,8.446041E0,1.5876174E1,3.726691E1,1.9465584E1,6.73493E1,5.7074804E0,2.1456882E2,2.862202E1,1.09156105E2,8.496482E1,2.2254088E2,5.7075105E0,9.452318E0,2.6785109E1,2.4847646E2,8.948634E0,3.2027836E1,5.239074E0,6.985618E0,2.075832E2,1.2654413E1,1.59676075E1,7.6024765E1,3.3131344E1,1.9895844E1,6.506898E1,2.1558337E2,6.957508E0,2.335708E2,1.4905647E1,2.2827492E1,9.200344E0,2.0234627E2,5.2369285E0,9.974623E0,6.605014E1,5.211264E0,2.7920078E1,7.9789505E0,1.1916893E1,2.0513844E2,1.0444931E1,9.699107E0,5.20654E0,1.6979062E2,3.2555656E1,1.3185046E1,5.2865097E1,5.2359815E0,5.208949E0,1.5363945E2,1.615116E1,7.982528E0,2.457313E1,7.9798365E0,5.20521E0,8.446973E0,4.441812E1],"tree_param":{"num_deleted":"0","num_feature":"125","num_nodes":"107","size_leaf_vector":"1"}},{"base_weights":[-5.6844596E-2,9.653331E-1,-4.924281E-1,1.0905957E0,-8.987118E-3,5.234059E-2,-8.971419E-1,1.1612313E0,-8.60981E-3,-4.4878545E-1,7.1661E-1,-1.0955683E0,3.686568E-1,1.2154323E0,-8.282616E-3,-1.4105233E0,1.442363E-1,-8.952215E-3,9.4687545E-1,6.684376E-1,-1.1922109E0,7.837848E-1,-8.706149E-3,-3.2765013E-1,1.2776859E0,-1.6298786E0,8.054248E-3,4.6088874E-1,-9.116752E-3,1.18941E0,-7.6869833E-1,-8.129538E-3,8.039304E-3,1.9844346E-1,-1.3287315E0,-8.39406E-3,1.1818523E0,-8.502273E-3,7.3128142E-3,5.6708455E-1,1.4353302E0,-9.466617E-3,5.927256E-3,-8.9452015E-3,7.481591E-1,1.3750529E0,-3.8960513E-1,-8.956974E-3,7.962504E-3,-8.821923E-3,1.176869E0,-1.4898162E0,5.6356814E-2,8.066737E-3,-1.497724E-1,3.251045E-1,7.9970425E-3,1.4885015E0,-0E0,1.0496026E0,-8.7882485E-3,3.2441303E-1,1.5411068E0,-8.572582E-3,7.925554E-3,9.193772E-3,2.1522222E-4,-1.5883824E0,2.9297847E-1,-8.967877E-3,1.2443835E0,-8.207598E-3,7.404615E-3,6.05524E-1,-8.445185E-3,1.5484414E0,4.8613456E-1,-8.26226E-3,1.2753745E0,-8.3728265E-3,8.787023E-3,8.423588E-3,6.856657E-1,-1.6964633E0,7.4004404E-2,7.7620377E-3,-8.215874E-3,1.1454736E-3,8.784934E-3,1.3171219E-3,8.047275E-3,1.587225E0,1.5954158E-3,7.998E-3,-2.9596213E-2,-0E0,1.447399E0,3.1971312E-4,7.993579E-3,4.6413943E-2,-1.8188059E0,-8.488847E-3,7.3637897E-3,8.1780935E-3,2.1796753E-3,-8.173755E-3,7.9810945E-3,-7.985596E-3,8.013747E-3,7.909668E-3,1.7275386E-3,-8.5309455E-3,7.6787975E-3,-9.513672E-3,1.4755977E-3],"categories":[],"categories_nodes":[],"categories_segments":[],"categories_sizes":[],"default_left":[0,0,0,0,0,0,0,0,0,0,0,0,0,0,0,0,0,0,0,0,0,0,0,0,0,0,0,0,0,0,0,0,0,0,0,0,0,0,0,0,0,0,0,0,0,0,0,0,0,0,0,0,0,0,0,0,0,0,0,0,0,0,0,0,0,0,0,0,0,0,0,0,0,0,0,0,0,0,0,0,0,0,0,0,0,0,0,0,0,0,0,0,0,0,0,0,0,0,0,0,0,0,0,0,0,0,0,0,0,0,0,0,0,0,0],"id":13,"left_children":[1,3,5,7,-1,9,11,13,-1,15,17,19,21,23,-1,25,27,-1,29,31,33,35,-1,37,39,41,-1,43,-1,45,47,-1,-1,49,51,-1,53,-1,-1,55,57,-1,-1,-1,59,61,63,-1,-1,-1,65,67,69,-1,71,73,-1,75,-1,77,-1,79,81,-1,-1,-1,-1,83,85,-1,87,-1,-1,89,-1,91,93,-1,95,-1,-1,-1,97,99,101,-1,-1,-1,-1,-1,-1,103,-1,-1,105,107,109,-1,-1,111,113,-1,-1,-1,-1,-1,-1,-1,-1,-1,-1,-1,-1,-1,-1],"loss_changes":[5.761815E2,1.3368484E2,2.0094724E2,7.3996124E1,0E0,1.2923148E2,1.3191492E2,5.5896454E1,0E0,1.26740585E2,9.642626E1,7.7939026E1,6.1630295E1,3.5122192E1,0E0,5.745349E1,8.381528E1,0E0,6.4893036E1,5.115119E1,8.247931E1,5.9086674E1,0E0,3.506905E1,3.633661E1,5.6998047E1,0E0,7.592628E1,0E0,4.0764435E1,4.696147E1,0E0,0E0,7.406633E1,8.843683E1,0E0,3.017524E1,0E0,0E0,1.4035347E1,2.0752014E1,0E0,0E0,0E0,7.980211E1,1.952652E1,3.853395E1,0E0,0E0,0E0,1.7758858E1,6.295044E1,9.01029E1,0E0,3.1659512E1,2.9628328E1,0E0,1.4148376E1,0E0,5.8519554E1,0E0,5.2586586E1,9.0651245E0,0E0,0E0,0E0,0E0,6.1154114E1,4.586975E1,0E0,1.1154419E1,0E0,0E0,1.4506605E1,0E0,1.0326965E1,1.0711209E1,0E0,1.9332321E1,0E0,0E0,0E0,7.391729E0,6.817944E1,5.1344677E1,0E0,0E0,0E0,0E0,0E0,0E0,7.7661743E0,0E0,0E0,3.1314157E1,2.9428516E1,8.6129E0,0E0,0E0,5.4743053E1,4.3526E1,0E0,0E0,0E0,0E0,0E0,0E0,0E0,0E0,0E0,0E0,0E0,0E0,0E0,0E0],"parents":[2147483647,0,0,1,1,2,2,3,3,5,5,6,6,7,7,9,9,10,10,11,11,12,12,13,13,15,15,16,16,18,18,19,19,20,20,21,21,23,23,24,24,25,25,27,27,29,29,30,30,33,33,34,34,36,36,39,39,40,40,44,44,45,45,46,46,50,50,51,51,52,52,54,54,55,55,57,57,59,59,61,61,62,62,67,67,68,68,70,70,73,73,75,75,76,76,78,78,82,82,83,83,84,84,91,91,94,94,95,95,96,96,99,99,100,100],"right_children":[2,4,6,8,-1,10,12,14,-1,16,18,20,22,24,-1,26,28,-1,30,32,34,36,-1,38,40,42,-1,44,-1,46,48,-1,-1,50,52,-1,54,-1,-1,56,58,-1,-1,-1,60,62,64,-1,-1,-1,66,68,70,-1,72,74,-1,76,-1,78,-1,80,82,-1,-1,-1,-1,84,86,-1,88,-1,-1,90,-1,92,94,-1,96,-1,-1,-1,98,100,102,-1,-1,-1,-1,-1,-1,104,-1,-1,106,108,110,-1,-1,112,114,-1,-1,-1,-1,-1,-1,-1,-1,-1,-1,-1,-1,-1,-1],"split_conditions":[1.62E0,5.7214163E8,1.6305978E8,2.1180762E-1,-8.987118E-3,5.2105265E0,6.393477E-1,2.619769E2,-8.60981E-3,-3E0,-2.7675974E1,-8.22E0,3.9646887E2,-1.19969845E-1,-8.282616E-3,1.2239688E10,2.9275744E0,-8.952215E-3,6.7777777E0,6.805406E0,-1.1919329E0,9.262224E1,-8.706149E-3,-2.3E-1,8E0,5.2558346E0,8.054248E-3,8.545506E4,-9.116752E-3,2.34E2,5.649593E0,-8.129538E-3,8.039304E-3,5.4728174E0,8.690575E-1,-8.39406E-3,1.4E1,-8.502273E-3,7.3128142E-3,3.912061E-1,2.2843158E-1,-9.466617E-3,5.927256E-3,-8.9452015E-3,3.35E1,7E-2,4.8E1,-8.956974E-3,7.962504E-3,-8.821923E-3,1.9626169E-1,1.925926E0,2.09E2,8.066737E-3,3.9034075E-1,2.375E-1,7.9970425E-3,4.4001374E0,-0E0,-8.104328E-1,-8.7882485E-3,1.2358606E1,2.7755576E-17,-8.572582E-3,7.925554E-3,9.193772E-3,2.1522222E-4,5.0115013E-1,-2.3257736E1,-8.967877E-3,4.5445324E1,-8.207598E-3,7.404615E-3,4.011628E-1,-8.445185E-3,1.2325581E0,1.25333336E2,-8.26226E-3,-1.796E1,-8.3728265E-3,8.787023E-3,8.423588E-3,-2.09625E1,-2.0942724E0,1.9333333E0,7.7620377E-3,-8.215874E-3,1.1454736E-3,8.784934E-3,1.3171219E-3,8.047275E-3,5.019937E2,1.5954158E-3,7.998E-3,1.1396499E3,5.1327753E-1,1.7077642E-2,3.1971312E-4,7.993579E-3,2.0646331E5,9.4132096E-1,-8.488847E-3,7.3637897E-3,8.1780935E-3,2.1796753E-3,-8.173755E-3,7.9810945E-3,-7.985596E-3,8.013747E-3,7.909668E-3,1.7275386E-3,-8.5309455E-3,7.6787975E-3,-9.513672E-3,1.4755977E-3],"split_indices":[60,18,2,63,0,91,77,121,0,21,65,56,85,67,0,78,68,0,103,22,23,26,0,56,16,68,0,104,0,95,40,0,0,107,83,0,48,0,0,77,102,0,0,0,21,55,35,0,0,0,86,7,16,0,124,41,0,40,0,80,0,80,28,0,0,0,0,110,66,0,80,0,0,86,0,115,1,0,81,0,0,0,32,31,108,0,0,0,0,0,0,26,0,0,26,42,19,0,0,116,102,0,0,0,0,0,0,0,0,0,0,0,0,0,0],"split_type":[0,0,0,0,0,0,0,0,0,0,0,0,0,0,0,0,0,0,0,0,0,0,0,0,0,0,0,0,0,0,0,0,0,0,0,0,0,0,0,0,0,0,0,0,0,0,0,0,0,0,0,0,0,0,0,0,0,0,0,0,0,0,0,0,0,0,0,0,0,0,0,0,0,0,0,0,0,0,0,0,0,0,0,0,0,0,0,0,0,0,0,0,0,0,0,0,0,0,0,0,0,0,0,0,0,0,0,0,0,0,0,0,0,0,0],"sum_hessian":[1.293586E3,3.8578674E2,9.077994E2,3.695862E2,1.6200533E1,3.863892E2,5.2141016E2,3.6110306E2,8.483146E0,2.1971248E2,1.6667671E2,4.5133478E2,7.007541E1,3.548638E2,6.2392745E0,8.395706E1,1.3575542E2,1.3469465E1,1.5320724E2,2.2848013E1,4.2848676E2,5.911153E1,1.096388E1,1.3191484E1,3.416723E2,7.874894E1,5.208122E0,1.1754893E2,1.8206488E1,1.3478107E2,1.842618E1,6.229904E0,1.6618109E1,3.7788387E1,3.9069836E2,7.7255797E0,5.1385952E1,7.7349296E0,5.456555E0,6.3420067E1,2.7825223E2,7.28013E1,5.947638E0,1.2724136E1,1.0482479E2,1.2109869E2,1.3682378E1,1.3222631E1,5.203548E0,1.221416E1,2.5574228E1,3.5043652E2,4.026185E1,3.94453E1,1.1940648E1,5.2507496E1,1.0912571E1,2.6805048E2,1.0201753E1,9.409925E1,1.0725534E1,1.739485E1,1.03703835E2,8.481047E0,5.201331E0,1.5628418E1,9.94581E0,3.3253952E2,1.7897005E1,1.5454095E1,2.4807755E1,6.4809394E0,5.459709E0,4.6760574E1,5.7469225E0,2.5189984E2,1.6150642E1,6.7312803E0,8.736797E1,6.984472E0,1.04103775E1,8.880413E1,1.4899705E1,3.1265024E2,1.9889282E1,1.1169387E1,6.7276187E0,8.943773E0,1.586398E1,3.584341E1,1.0917163E1,2.4344844E2,8.451405E0,5.205473E0,1.0945169E1,1.0444954E1,7.692302E1,9.694461E0,5.205244E0,2.0131002E1,2.9251923E2,8.47338E0,1.1415902E1,2.3550063E2,7.947808E0,5.7405887E0,5.2045813E0,5.2386904E0,5.2062635E0,6.847398E1,8.449033E0,8.970817E0,1.1160185E1,2.8382184E2,8.697399E0],"tree_param":{"num_deleted":"0","num_feature":"125","num_nodes":"115","size_leaf_vector":"1"}},{"base_weights":[4.0552393E-2,6.912147E-1,-5.866555E-1,9.8714876E-1,-3.7176815E-1,-7.509822E-1,7.358272E-1,1.0781866E0,-8.961423E-3,3.7428662E-1,-9.380179E-3,-2.1319936E-1,-1.1801904E0,-8.541869E-3,1.0783743E0,-8.565665E-3,1.125055E0,-7.845171E-1,1.110026E0,-9.338525E-3,6.6083364E-2,-1.574862E0,1.2413208E-1,1.4036528E0,-2.4681732E-1,1.2409171E0,7.276145E-2,-9.204578E-3,7.6456843E-3,-8.103049E-3,1.4451808E0,-7.3688626E-1,7.232296E-1,-6.488254E-1,-9.453351E-3,1.2487181E0,-8.877129E-1,8.451541E-3,3.199829E-4,8.133567E-3,-8.369532E-3,1.2905009E0,-3.1719166E-1,-1.0959338E0,7.0969826E-3,8.6098295E-3,6.5067265E-4,6.8203984E-3,-1.1827501E0,-9.929459E-1,1.1194475E0,3.7965894E-1,-9.204317E-3,-0E0,8.84489E-3,6.289925E-3,-9.170882E-3,6.8051064E-1,1.4331795E0,-8.535198E-3,8.154291E-3,-9.151394E-3,7.2797607E-3,-2.0866713E-3,-9.355937E-3,-9.029899E-3,8.031322E-3,1.307945E0,-8.136109E-3,-8.625059E-3,1.3390235E0,7.875415E-3,-7.934572E-3,-8.473641E-3,8.920377E-1,1.514946E0,5.726386E-1,-8.800072E-3,1.0876201E0,-0E0,1.4601622E0,2.0118055E-3,8.802058E-3,3.3665732E-3,8.227438E-3,8.2169793E-4,1.5524286E0,-8.557429E-3,1.3967493E0,1.168746E-3,8.503993E-3,-7.912681E-3,8.017687E-3,8.723946E-3,6.3796955E-1,9.6179305E-5,8.072742E-3,2.2630626E-3,9.062364E-3,-8.262537E-3,8.534626E-3],"categories":[],"categories_nodes":[],"categories_segments":[],"categories_sizes":[],"default_left":[0,0,0,0,0,0,0,0,0,0,0,0,0,0,0,0,0,0,0,0,0,0,0,0,0,0,0,0,0,0,0,0,0,0,0,0,0,0,0,0,0,0,0,0,0,0,0,0,0,0,0,0,0,0,0,0,0,0,0,0,0,0,0,0,0,0,0,0,0,0,0,0,0,0,0,0,0,0,0,0,0,0,0,0,0,0,0,0,0,0,0,0,0,0,0,0,0,0,0,0,0],"id":14,"left_children":[1,3,5,7,9,11,13,15,-1,17,-1,19,21,-1,23,-1,25,27,29,-1,31,33,35,37,39,41,43,-1,-1,-1,45,47,49,51,-1,53,55,-1,-1,-1,-1,57,59,61,-1,-1,-1,-1,63,65,67,69,-1,71,-1,-1,-1,73,75,-1,-1,-1,-1,77,-1,-1,-1,79,-1,-1,81,-1,-1,-1,83,85,87,-1,89,91,93,-1,-1,-1,-1,-1,95,-1,97,-1,-1,-1,-1,-1,99,-1,-1,-1,-1,-1,-1],"loss_changes":[5.521909E2,2.0975357E2,1.4993565E2,1.3168002E2,1.6215167E2,1.4030002E2,6.383761E1,6.643982E1,0E0,8.308338E1,0E0,1.26647995E2,1.762442E2,0E0,3.0032242E1,0E0,5.9542603E1,9.165334E1,5.5685783E1,0E0,1.23799385E2,6.9959656E1,9.099767E1,1.8513123E1,3.6689075E1,3.5513794E1,8.010417E1,0E0,0E0,0E0,1.7024422E1,9.87952E1,8.885664E1,8.080349E1,0E0,2.4930347E1,8.465641E1,0E0,0E0,0E0,0E0,3.5557617E1,3.8530533E1,5.1247128E1,0E0,0E0,0E0,0E0,6.789885E1,5.1989098E1,5.5627487E1,7.161281E1,0E0,2.9316273E1,0E0,0E0,0E0,4.249715E1,2.2519104E1,0E0,0E0,0E0,0E0,6.3782764E1,0E0,0E0,0E0,1.9723816E1,0E0,0E0,7.390209E0,0E0,0E0,0E0,1.0570145E1,1.4693481E1,6.141902E1,0E0,8.69125E0,2.9165058E1,1.7329315E1,0E0,0E0,0E0,0E0,0E0,2.1746582E1,0E0,6.9925957E0,0E0,0E0,0E0,0E0,0E0,5.870957E1,0E0,0E0,0E0,0E0,0E0,0E0],"parents":[2147483647,0,0,1,1,2,2,3,3,4,4,5,5,6,6,7,7,9,9,11,11,12,12,14,14,16,16,17,17,18,18,20,20,21,21,22,22,23,23,24,24,25,25,26,26,30,30,31,31,32,32,33,33,35,35,36,36,41,41,42,42,43,43,48,48,49,49,50,50,51,51,53,53,57,57,58,58,63,63,67,67,70,70,74,74,75,75,76,76,78,78,79,79,80,80,86,86,88,88,94,94],"right_children":[2,4,6,8,10,12,14,16,-1,18,-1,20,22,-1,24,-1,26,28,30,-1,32,34,36,38,40,42,44,-1,-1,-1,46,48,50,52,-1,54,56,-1,-1,-1,-1,58,60,62,-1,-1,-1,-1,64,66,68,70,-1,72,-1,-1,-1,74,76,-1,-1,-1,-1,78,-1,-1,-1,80,-1,-1,82,-1,-1,-1,84,86,88,-1,90,92,94,-1,-1,-1,-1,-1,96,-1,98,-1,-1,-1,-1,-1,100,-1,-1,-1,-1,-1,-1],"split_conditions":[1.0871E2,5.3144665E-3,2.8070176E-1,1.1332893E9,1.5772638E-1,6.6526055E0,9.25E0,-1.5E0,-8.961423E-3,2.2727272E-2,-9.380179E-3,7.24595E0,7.7105E1,-8.541869E-3,2.03E1,-8.565665E-3,2.4201734E-2,5.8E1,-5.4438524E-2,-9.338525E-3,-3.253755E1,-2.147158E0,-1.0674314E0,3.8244048E-1,9.75E0,1.6631857E1,6.282051E-1,-9.204578E-3,7.6456843E-3,-8.103049E-3,-4.0084732E1,1.9430893E-2,3.3636363E0,-7.008E1,-9.453351E-3,1.3599938E1,-3.9258924E-1,8.451541E-3,3.199829E-4,8.133567E-3,-8.369532E-3,1E0,4.6973475E-3,5.3915536E-1,7.0969826E-3,8.6098295E-3,6.5067265E-4,6.8203984E-3,-2.6727524E-1,3.637586E0,2.3809524E-2,-1.4847173E2,-9.204317E-3,1.0454545E0,8.84489E-3,6.289925E-3,-9.170882E-3,-6.0055107E-1,3.7587018E2,-8.535198E-3,8.154291E-3,-9.151394E-3,7.2797607E-3,1.4117647E0,-9.355937E-3,-9.029899E-3,8.031322E-3,-1.6836566E0,-8.136109E-3,-8.625059E-3,1E0,7.875415E-3,-7.934572E-3,-8.473641E-3,1.2336181E-2,-7.47E1,6.537531E-1,-8.800072E-3,2.2067433E-2,1.0256411E0,4.2439026E-1,2.0118055E-3,8.802058E-3,3.3665732E-3,8.227438E-3,8.2169793E-4,-1.6375898E-1,-8.557429E-3,3.353321E1,1.168746E-3,8.503993E-3,-7.912681E-3,8.017687E-3,8.723946E-3,1.2308934E-1,9.6179305E-5,