{"learner":{"attributes":{"scikit_learn":"{\"_estimator_type\": \"classifier\"}"},"feature_names":["high_freq_powerovr","amount_mean_ovr_pos","low_freq_powerovr","dominant_power26","weekly_spend_slope_group_9_pos","log_amount_mean_group_9_neg","pct_amount_abs_13.0","weekly_txn_freq_11_neg","weekly_txn_freq_2","weekend_spend_pct_group_10_pos","weekend_spend_pct_1","weekday_spend_std_group_6","amount_max_15","pct_amount_pos_0.0","power_ratio16","weekend_spend_pct_15","txn_count_group_10_pos","weekday_spend_std_group_10","high_freq_power3","pct_amount_abs_26.0","amount_skew_6","amount_median_1","log_amount_mean_11_pos","amount_skew_5","txn_active_day_pct_group_9_pos","high_to_low_spend_ratio_group_8","amount_std_4","amount_gini_1_neg","amount_gini_7","log_amount_mean_23","monthly_txn_freq_19","pct_amount_total_10.0","monthly_avg_spend_15","amount_kurtosis_group_2","weekly_txn_freq_18","outlier_count_ovr_neg","pct_amount_total_20.0","txn_active_day_pct_13","txn_active_day_pct_26","weekend_spend_pct_group_7","log_amount_mean_group_3_neg","cat_concentration_group_8","monthly_spend_slope_18","txn_burstiness_19","log_amount_mean_28","power_ratio13","monthly_avg_spend_group_3_neg","rank_total_10.0","outlier_count_group_8","high_to_low_spend_ratio_group_9","week_series_category_25_trend","dominant_freq22","amount_median_6","amount_min_2","txn_positive_ratio_1","amount_min_4","amount_max_group_2","rank_total_26.0","outlier_count_4","rank_pos_3.0","total_balance_x","low_dollar_txn_pct_12_neg","log_amount_mean_21","power_ratio24","amount_cv_group_2","monthly_avg_spend_20","pct_amount_total_3.0","weekly_spend_slope_26","log_amount_mean_14","amount_cv_group_10_neg","monthly_spend_slope_0_pos","weekly_avg_spend_16","weekday_spend_std_35","txn_gap_iqr_22","monthly_avg_spend_11_pos","high_to_low_spend_ratio_22","amount_skew_group_1","amount_gini_18","high_freq_power1","week_series_category_13_trend","amount_kurtosis_17","amount_max_22","amount_skew_group_3","net_spending_ratio_1","amount_median_15","amount_std_19","txn_active_day_pct_group_10","txn_gap_iqr_20","power_ratio17","week_series_category_6_trend","txn_burstiness_13","monthly_txn_freq_18","power_ratio1","amount_cv_1_neg","log_amount_mean_18","txn_duration_days_2","amount_std_group_10","weekday_spend_std_group_9_neg","cat_concentration_group_2","amount_skew_7","amount_kurtosis_4","high_freq_power15","power_ratio11","monthly_txn_freq_group_9_neg","dominant_powerovr","high_to_low_spend_ratio_7","amount_mean_12_neg","week_series_category_2_trend","monthly_txn_freq_13","pct_amount_total_26.0","monthly_spend_slope_group_8","dominant_freq24","week_series_category_20_trend","rank_neg_17.0","monthly_spend_slope_26","weekly_txn_freq_group_6","dominant_power23","weekend_spend_pct_group_10_neg","cat_concentration_group_6","amount_std_3_pos","dominant_power1","weekly_avg_spend_0","monthly_txn_freq_group_1","amount_min_18","week_series_category_23_trend"],"feature_types":["float","float","float","float","float","float","float","float","float","float","float","float","float","float","float","float","float","float","float","float","float","float","float","float","float","float","float","float","float","float","float","float","float","float","float","float","float","float","float","float","float","float","float","float","float","float","float","float","float","float","float","float","float","float","float","float","float","float","float","float","float","float","float","float","float","float","float","float","float","float","float","float","float","float","float","float","float","float","float","float","float","float","float","float","float","float","float","float","float","float","float","float","float","float","float","float","float","float","float","float","float","float","float","float","float","float","float","float","float","float","float","float","float","float","float","float","float","float","float","float","float","float","float","float","float"],"gradient_booster":{"model":{"gbtree_model_param":{"num_parallel_tree":"1","num_trees":"222"},"iteration_indptr":[0,1,2,3,4,5,6,7,8,9,10,11,12,13,14,15,16,17,18,19,20,21,22,23,24,25,26,27,28,29,30,31,32,33,34,35,36,37,38,39,40,41,42,43,44,45,46,47,48,49,50,51,52,53,54,55,56,57,58,59,60,61,62,63,64,65,66,67,68,69,70,71,72,73,74,75,76,77,78,79,80,81,82,83,84,85,86,87,88,89,90,91,92,93,94,95,96,97,98,99,100,101,102,103,104,105,106,107,108,109,110,111,112,113,114,115,116,117,118,119,120,121,122,123,124,125,126,127,128,129,130,131,132,133,134,135,136,137,138,139,140,141,142,143,144,145,146,147,148,149,150,151,152,153,154,155,156,157,158,159,160,161,162,163,164,165,166,167,168,169,170,171,172,173,174,175,176,177,178,179,180,181,182,183,184,185,186,187,188,189,190,191,192,193,194,195,196,197,198,199,200,201,202,203,204,205,206,207,208,209,210,211,212,213,214,215,216,217,218,219,220,221,222],"tree_info":[0,0,0,0,0,0,0,0,0,0,0,0,0,0,0,0,0,0,0,0,0,0,0,0,0,0,0,0,0,0,0,0,0,0,0,0,0,0,0,0,0,0,0,0,0,0,0,0,0,0,0,0,0,0,0,0,0,0,0,0,0,0,0,0,0,0,0,0,0,0,0,0,0,0,0,0,0,0,0,0,0,0,0,0,0,0,0,0,0,0,0,0,0,0,0,0,0,0,0,0,0,0,0,0,0,0,0,0,0,0,0,0,0,0,0,0,0,0,0,0,0,0,0,0,0,0,0,0,0,0,0,0,0,0,0,0,0,0,0,0,0,0,0,0,0,0,0,0,0,0,0,0,0,0,0,0,0,0,0,0,0,0,0,0,0,0,0,0,0,0,0,0,0,0,0,0,0,0,0,0,0,0,0,0,0,0,0,0,0,0,0,0,0,0,0,0,0,0,0,0,0,0,0,0,0,0,0,0,0,0,0,0,0,0,0,0,0,0,0,0,0,0],"trees":[{"base_weights":[-1.0992265E-2,5.5674875E-1,-6.756135E-1,8.2985204E-1,-3.357709E-1,-9.6902597E-1,3.5297257E-1,-9.5580015E-3,9.3318933E-1,-1.2818232E0,7.991697E-1,3.6877668E-1,-1.2425505E0,-9.523111E-3,7.138508E-1,-9.186014E-3,9.9507356E-1,-1.7006758E0,5.3507574E-3,1.2449716E0,-6.790586E-1,1.2627183E0,-1.2046674E0,4.1472667E-1,-1.4500927E0,1.1022319E0,-9.5065624E-1,1.0761428E0,-9.0043825E-1,-9.928354E-3,5.120642E-3,1.6340395E0,-1.8172E-1,-9.24075E-3,8.372942E-3,8.855856E-3,-8.706049E-3,-9.644838E-3,8.372942E-3,-9.223273E-3,1.257468E0,-1.7025408E0,-1.4697446E-1,1.3033147E0,-8.491936E-3,-9.456208E-3,7.6156524E-3,1.1207925E0,-8.750801E-3,-9.426704E-3,8.372942E-3,2.1128505E-3,9.434161E-3,-8.706049E-3,8.372942E-3,8.96581E-3,9.9252444E-5,-1.8342179E0,-3.7250824E-2,1.2023473E0,-1.2793378E0,1.5233698E0,-1.0663297E-1,9.314242E-1,1.7348121E0,-1.9094365E0,2.843398E-3,7.230948E-3,-9.123549E-3,8.618346E-3,8.745117E-4,-9.689258E-3,7.6156524E-3,1.6535233E0,1.7777191E-3,-8.606779E-3,8.372942E-3,1.016834E0,-9.166128E-3,9.224503E-3,2.1128505E-3,-2.837957E-1,-1.00302575E-2,1.1598817E-3,9.340048E-3,1.0853281E0,-8.903865E-3,7.6156524E-3,-8.792711E-3,4.7865673E-3,8.560288E-3],"categories":[],"categories_nodes":[],"categories_segments":[],"categories_sizes":[],"default_left":[0,0,0,0,0,0,0,0,0,0,0,0,0,0,0,0,0,0,0,0,0,0,0,0,0,0,0,0,0,0,0,0,0,0,0,0,0,0,0,0,0,0,0,0,0,0,0,0,0,0,0,0,0,0,0,0,0,0,0,0,0,0,0,0,0,0,0,0,0,0,0,0,0,0,0,0,0,0,0,0,0,0,0,0,0,0,0,0,0,0,0],"id":0,"left_children":[1,3,5,7,9,11,13,-1,15,17,19,21,23,-1,25,-1,27,29,-1,31,33,35,37,39,41,43,45,47,49,-1,-1,51,53,-1,-1,-1,-1,-1,-1,-1,55,57,59,61,-1,-1,-1,63,-1,-1,-1,-1,-1,-1,-1,-1,-1,65,67,69,71,73,75,77,79,81,-1,-1,-1,-1,-1,-1,-1,83,-1,-1,-1,85,-1,-1,-1,87,-1,-1,-1,89,-1,-1,-1,-1,-1],"loss_changes":[4.9207037E2,1.7179509E2,1.8213928E2,1.5211658E2,1.7753258E2,1.723956E2,1.0782182E2,0E0,8.912561E1,9.01888E1,5.0224205E1,1.12891754E2,1.3516492E2,0E0,7.549314E1,0E0,7.89581E1,5.8119247E1,0E0,3.34982E1,4.8817E1,7.7646255E1,6.0669224E1,8.316191E1,1.125462E2,5.3961296E1,5.1731647E1,6.211609E1,5.3802765E1,0E0,0E0,1.1058327E1,3.7662563E1,0E0,0E0,0E0,0E0,0E0,0E0,0E0,1.9375832E1,6.214276E1,8.8791824E1,2.8660583E1,0E0,0E0,0E0,5.3017517E1,0E0,0E0,0E0,0E0,0E0,0E0,0E0,0E0,0E0,5.0076843E1,6.004568E1,1.2082214E1,5.915103E1,9.891968E0,3.5985832E1,8.755505E1,1.1750977E1,3.1685974E1,0E0,0E0,0E0,0E0,0E0,0E0,0E0,1.7604263E1,0E0,0E0,0E0,6.9303314E1,0E0,0E0,0E0,3.6753963E1,0E0,0E0,0E0,2.6347107E1,0E0,0E0,0E0,0E0,0E0],"parents":[2147483647,0,0,1,1,2,2,3,3,4,4,5,5,6,6,8,8,9,9,10,10,11,11,12,12,14,14,16,16,17,17,19,19,20,20,21,21,22,22,23,23,24,24,25,25,26,26,27,27,28,28,31,31,32,32,40,40,41,41,42,42,43,43,47,47,57,57,58,58,59,59,60,60,61,61,62,62,63,63,64,64,65,65,73,73,77,77,81,81,85,85],"right_children":[2,4,6,8,10,12,14,-1,16,18,20,22,24,-1,26,-1,28,30,-1,32,34,36,38,40,42,44,46,48,50,-1,-1,52,54,-1,-1,-1,-1,-1,-1,-1,56,58,60,62,-1,-1,-1,64,-1,-1,-1,-1,-1,-1,-1,-1,-1,66,68,70,72,74,76,78,80,82,-1,-1,-1,-1,-1,-1,-1,84,-1,-1,-1,86,-1,-1,-1,88,-1,-1,-1,90,-1,-1,-1,-1,-1],"split_conditions":[1.7577459E9,6.626456E4,5.818182E0,-9.073E1,2.0060797E0,3.448276E-2,-2.746864E0,-9.5580015E-3,-2.905069E-1,5.4747047E0,1.963E1,5.55E0,3.8741013E-1,-9.523111E-3,1.8012293E8,-9.186014E-3,2.883589E-16,1.25E3,5.3507574E-3,5.6776493E1,5.414676E1,-2.3927279E0,2.6373904E2,3E-1,1E2,1.849797E-2,-2.1364223E1,7.260045E-2,2.9971136E9,-9.928354E-3,5.120642E-3,8.466946E1,3.4938483E2,-9.24075E-3,8.372942E-3,8.855856E-3,-8.706049E-3,-9.644838E-3,8.372942E-3,-9.223273E-3,1.4142135E-2,1.4265734E-1,2E-2,-1.2124548E0,-8.491936E-3,-9.456208E-3,7.6156524E-3,2.5E0,-8.750801E-3,-9.426704E-3,8.372942E-3,2.1128505E-3,9.434161E-3,-8.706049E-3,8.372942E-3,8.96581E-3,9.9252444E-5,1.91E3,-5.030658E-1,-3.825E1,8E0,2.4767442E0,1.5401188E7,4.1748347E0,3.1632455E2,-2.0862003E-1,2.843398E-3,7.230948E-3,-9.123549E-3,8.618346E-3,8.745117E-4,-9.689258E-3,7.6156524E-3,-5.104681E1,1.7777191E-3,-8.606779E-3,8.372942E-3,6.112934E7,-9.166128E-3,9.224503E-3,2.1128505E-3,4.416168E-1,-1.00302575E-2,1.1598817E-3,9.340048E-3,3.3664626E-1,-8.903865E-3,7.6156524E-3,-8.792711E-3,4.7865673E-3,8.560288E-3],"split_indices":[0,3,30,84,109,51,107,0,70,79,53,53,27,0,18,0,82,53,0,17,33,107,33,27,52,19,71,99,18,0,0,85,17,0,0,0,0,0,0,0,26,51,55,64,0,0,0,47,0,0,0,0,0,0,0,0,0,55,70,21,47,34,18,40,1,20,0,0,0,0,0,0,0,71,0,0,0,18,0,0,0,27,0,0,0,15,0,0,0,0,0],"split_type":[0,0,0,0,0,0,0,0,0,0,0,0,0,0,0,0,0,0,0,0,0,0,0,0,0,0,0,0,0,0,0,0,0,0,0,0,0,0,0,0,0,0,0,0,0,0,0,0,0,0,0,0,0,0,0,0,0,0,0,0,0,0,0,0,0,0,0,0,0,0,0,0,0,0,0,0,0,0,0,0,0,0,0,0,0,0,0,0,0,0,0],"sum_hessian":[1.3025929E3,7.019439E2,6.00649E2,5.3815594E2,1.637879E2,4.6793207E2,1.3271693E2,1.899996E1,5.19156E2,8.964326E1,7.414465E1,7.893016E1,3.8900192E2,1.7749964E1,1.1496697E2,1.0749977E1,5.0840604E2,7.6464325E1,1.3178934E1,5.7430206E1,1.6714445E1,5.071574E1,2.8214422E1,4.2822315E1,3.461796E2,9.375253E1,2.1214436E1,4.881916E2,2.021444E1,6.9999855E1,6.4644675E0,4.546575E1,1.1964456E1,1.1499976E1,5.21447E0,4.3965755E1,6.7499857E0,2.2999952E1,5.21447E0,1.1249976E1,3.1572338E1,2.8935733E2,5.6822285E1,8.800255E1,5.749988E0,1.5749968E1,5.4644694E0,4.8119162E2,6.999985E0,1.4999969E1,5.21447E0,8.214463E0,3.725129E1,6.7499857E0,5.21447E0,2.1607878E1,9.96446E0,2.676784E2,2.1678917E1,2.560787E1,3.1214417E1,7.653809E1,1.1464457E1,3.6990222E2,1.1128938E2,2.5996393E2,7.7144647E0,1.1678937E1,9.999979E0,1.6393408E1,9.214461E0,2.5749947E1,5.4644694E0,6.807362E1,8.464463E0,6.249987E0,5.21447E0,3.5940225E2,1.0499978E1,1.0307492E2,8.214463E0,1.2714455E1,2.4724948E2,8.964462E0,5.9109165E1,3.5140228E2,7.9999833E0,5.4644694E0,7.2499847E0,2.8979312E2,6.160916E1],"tree_param":{"num_deleted":"0","num_feature":"125","num_nodes":"91","size_leaf_vector":"1"}},{"base_weights":[1.06305685E-2,5.7309943E-1,-7.2869456E-1,1.0847402E0,-1.4624757E-1,1.8760812E-1,-1.1166863E0,-8.794164E-3,1.137278E0,-8.3417946E-1,5.803308E-1,-1.0253785E0,6.233659E-1,-3.818101E-1,-1.4569647E0,1.1861647E0,-8.681161E-3,-9.895649E-3,8.055832E-2,9.9172646E-1,-7.7360123E-1,-9.738085E-3,9.190343E-3,8.821421E-1,-9.19801E-3,-1.3036529E0,4.7740704E-1,4.302153E-3,-1.5861657E0,1.2309829E0,-8.547117E-3,-9.5455395E-3,6.404188E-1,1.2287768E0,-8.95861E-3,6.2065716E-3,-9.603064E-3,1.0946845E0,-8.864457E-3,6.2142136E-3,-9.832662E-3,1.1361866E0,-9.352822E-3,-1.7987108E0,-1.222981E-1,-8.466873E-3,1.2750719E0,-8.931311E-3,9.9632674E-1,-8.460455E-3,1.4062862E0,1.2839885E0,-8.569144E-3,1.5508194E0,-8.564461E-3,6.2413407E-3,-1.8865191E0,1.2345713E0,-9.381254E-3,9.801122E-1,1.5814683E0,1.2832354E0,-8.40888E-3,1.5448328E0,9.427793E-5,-1.8118931E-1,1.4887066E0,9.398779E-3,8.6320774E-4,-9.978836E-3,-1.0633048E-1,9.196713E-3,1.7688491E-3,1.127621E0,-9.138149E-3,1.7144774E0,5.461279E-1,8.088409E-3,4.4052637E-1,1.6619784E0,1.4506712E-3,-8.66841E-3,8.330943E-3,1.1511466E-3,1.6173875E0,-8.570044E-3,8.3326185E-3,1.2453429E0,-8.846412E-3,8.874719E-3,2.8167395E-3,-8.8608675E-3,8.59034E-3,-8.477602E-3,8.331244E-3,9.168399E-3,8.049109E-1,1.4489919E-3,8.90097E-3,4.8645674E-3,8.626189E-3,8.700126E-4,8.351376E-3],"categories":[],"categories_nodes":[],"categories_segments":[],"categories_sizes":[],"default_left":[0,0,0,0,0,0,0,0,0,0,0,0,0,0,0,0,0,0,0,0,0,0,0,0,0,0,0,0,0,0,0,0,0,0,0,0,0,0,0,0,0,0,0,0,0,0,0,0,0,0,0,0,0,0,0,0,0,0,0,0,0,0,0,0,0,0,0,0,0,0,0,0,0,0,0,0,0,0,0,0,0,0,0,0,0,0,0,0,0,0,0,0,0,0,0,0,0,0,0,0,0,0,0],"id":1,"left_children":[1,3,5,7,9,11,13,-1,15,17,19,21,23,25,27,29,-1,-1,31,33,35,-1,-1,37,-1,39,41,-1,43,45,-1,-1,47,49,-1,-1,-1,51,-1,-1,-1,53,-1,55,57,-1,59,-1,61,-1,63,65,-1,67,-1,-1,69,71,-1,73,75,77,-1,79,-1,81,83,-1,-1,-1,85,-1,-1,87,-1,89,91,-1,93,95,-1,-1,-1,-1,97,-1,-1,99,-1,-1,-1,-1,-1,-1,-1,-1,101,-1,-1,-1,-1,-1,-1],"loss_changes":[5.578014E2,2.8144702E2,2.0671222E2,6.710626E1,1.5887695E2,9.113357E1,1.0017767E2,0E0,6.2196533E1,1.7029578E2,8.6390686E1,1.1913575E2,8.1082405E1,1.0438431E2,8.4253845E1,5.6741272E1,0E0,0E0,9.987053E1,7.8891136E1,8.3114845E1,0E0,0E0,6.582459E1,0E0,1.06190094E2,1.04619026E2,0E0,8.038898E1,5.5693115E1,0E0,0E0,6.172112E1,5.803267E1,0E0,0E0,0E0,5.8202805E1,0E0,0E0,0E0,6.422432E1,0E0,6.314563E1,8.330535E1,0E0,3.5095764E1,0E0,4.9048504E1,0E0,1.8855927E1,3.1683884E1,0E0,1.8613396E1,0E0,0E0,3.50708E1,8.1351795E0,0E0,9.01514E1,2.5798035E1,1.3517296E1,0E0,1.2129181E1,0E0,3.7313473E1,1.2958267E1,0E0,0E0,0E0,3.566065E1,0E0,0E0,7.113364E1,0E0,7.0929565E0,6.785561E1,0E0,4.619355E1,8.579193E0,0E0,0E0,0E0,0E0,1.4039032E1,0E0,0E0,2.2988922E1,0E0,0E0,0E0,0E0,0E0,0E0,0E0,0E0,6.5549173E0,0E0,0E0,0E0,0E0,0E0,0E0],"parents":[2147483647,0,0,1,1,2,2,3,3,4,4,5,5,6,6,8,8,9,9,10,10,11,11,12,12,13,13,14,14,15,15,18,18,19,19,20,20,23,23,25,25,26,26,28,28,29,29,32,32,33,33,37,37,41,41,43,43,44,44,46,46,48,48,50,50,51,51,53,53,56,56,57,57,59,59,60,60,61,61,63,63,65,65,66,66,70,70,73,73,75,75,76,76,78,78,79,79,84,84,87,87,96,96],"right_children":[2,4,6,8,10,12,14,-1,16,18,20,22,24,26,28,30,-1,-1,32,34,36,-1,-1,38,-1,40,42,-1,44,46,-1,-1,48,50,-1,-1,-1,52,-1,-1,-1,54,-1,56,58,-1,60,-1,62,-1,64,66,-1,68,-1,-1,70,72,-1,74,76,78,-1,80,-1,82,84,-1,-1,-1,86,-1,-1,88,-1,90,92,-1,94,96,-1,-1,-1,-1,98,-1,-1,100,-1,-1,-1,-1,-1,-1,-1,-1,102,-1,-1,-1,-1,-1,-1],"split_conditions":[4.2895832E4,2.5864484E2,-2.1488863E-1,-2.3880672E-1,5.053008E-1,1.3554304E0,-2.3E1,-8.794164E-3,6.23E2,-5.051619E1,-8.8E-1,1.9961049E-1,8.163714E1,1.6E1,-1.71E1,1.1043E2,-8.681161E-3,-9.895649E-3,-2.058E1,4.3597946E0,8.3E-1,-9.738085E-3,9.190343E-3,2.099049E-1,-9.19801E-3,1.13300495E-1,-2.0229017E-2,4.302153E-3,2.16935E-1,-3.9536354E1,-8.547117E-3,-9.5455395E-3,-7.2890465E1,-2.1141354E2,-8.95861E-3,6.2065716E-3,-9.603064E-3,7.548612E0,-8.864457E-3,6.2142136E-3,-9.832662E-3,4.388E-2,-9.352822E-3,-8.1834E2,-7.4424176E0,-8.466873E-3,1.9687053E2,-8.931311E-3,-8.8E-1,-8.460455E-3,6.315E1,1.7857143E-1,-8.569144E-3,-4.0301066E-2,-8.564461E-3,6.2413407E-3,-4.5424187E-1,-1.4149681E0,-9.381254E-3,1E0,6.568342E-2,7.5843886E-2,-8.40888E-3,2.2696616E2,9.427793E-5,1.84E0,-1.9161532E0,9.398779E-3,8.6320774E-4,-9.978836E-3,1.4258555E-1,9.196713E-3,1.7688491E-3,2.5663E2,-9.138149E-3,4.0196357E0,7.2916665E0,8.088409E-3,4.0949445E0,1.02E0,1.4506712E-3,-8.66841E-3,8.330943E-3,1.1511466E-3,4.704279E2,-8.570044E-3,8.3326185E-3,2.6585782E-1,-8.846412E-3,8.874719E-3,2.8167395E-3,-8.8608675E-3,8.59034E-3,-8.477602E-3,8.331244E-3,9.168399E-3,4.9209714E0,1.4489919E-3,8.90097E-3,4.8645674E-3,8.626189E-3,8.700126E-4,8.351376E-3],"split_indices":[3,1,66,70,77,29,81,0,95,32,56,14,97,35,56,55,0,0,21,40,60,0,0,45,0,86,67,0,13,65,0,0,46,32,0,0,0,36,0,0,0,25,0,60,107,0,96,0,56,0,53,54,0,112,0,0,69,100,0,122,25,88,0,119,0,8,82,0,0,0,51,0,0,60,0,5,91,0,5,55,0,0,0,0,96,0,0,77,0,0,0,0,0,0,0,0,5,0,0,0,0,0,0],"split_type":[0,0,0,0,0,0,0,0,0,0,0,0,0,0,0,0,0,0,0,0,0,0,0,0,0,0,0,0,0,0,0,0,0,0,0,0,0,0,0,0,0,0,0,0,0,0,0,0,0,0,0,0,0,0,0,0,0,0,0,0,0,0,0,0,0,0,0,0,0,0,0,0,0,0,0,0,0,0,0,0,0,0,0,0,0,0,0,0,0,0,0,0,0,0,0,0,0,0,0,0,0,0,0],"sum_hessian":[1.34039E3,7.619E2,5.784899E2,4.4565146E2,3.1624857E2,1.7160645E2,4.068835E2,7.4997354E0,4.3815173E2,1.6292657E2,1.53322E2,4.4677418E1,1.2692902E2,1.2989162E2,2.7699188E2,4.3140192E2,6.7498116E0,7.299749E1,8.9929085E1,1.1814396E2,3.5178043E1,3.424872E1,1.0428701E1,1.1542946E2,1.1499561E1,6.2927006E1,6.696461E1,1.4178773E1,2.628131E2,4.25402E2,5.9999003E0,1.9249542E1,7.067954E1,1.0939426E2,8.749701E0,1.2428813E1,2.274923E1,1.07429756E2,7.9997067E0,1.2428833E1,5.0498173E1,5.271513E1,1.4249476E1,2.2892064E2,3.389249E1,5.749834E0,4.1965216E2,8.499712E0,6.2179832E1,5.7498198E0,1.0364444E2,1.0117998E2,6.2497773E0,4.646537E1,6.249763E0,5.964396E0,2.2295624E2,1.8893084E1,1.4999407E1,2.1639793E2,2.0325424E2,5.6679974E1,5.4998612E0,9.368015E1,9.964283E0,1.1964186E1,8.921579E1,3.7251064E1,9.214305E0,2.1149203E2,1.1464209E1,1.0428766E1,8.464318E0,2.0614813E2,1.0249799E1,1.7911102E2,2.4143225E1,4.0001205E1,1.6678764E1,8.496585E1,8.714303E0,6.7497597E0,5.214426E0,8.964282E0,8.025151E1,6.249777E0,5.2144322E0,1.9864818E2,7.499956E0,1.7139665E2,7.7143736E0,7.7498436E0,1.6393381E1,5.7498693E0,1.0928896E1,7.0537E1,1.4428849E1,8.714308E0,7.15372E1,1.2611045E2,7.253772E1,9.214374E0,5.214476E0],"tree_param":{"num_deleted":"0","num_feature":"125","num_nodes":"103","size_leaf_vector":"1"}},{"base_weights":[1.9110876E-5,5.969512E-1,-6.147764E-1,1.217494E0,2.531812E-1,-1.0670468E0,-3.862012E-2,-8.413632E-3,1.2929593E0,4.4124025E-1,-1.1390133E0,-1.3237377E0,6.56998E-1,4.07864E-1,-1.1918218E0,1.3914527E0,-3.1393048E-1,-9.434405E-3,5.549734E-1,7.2122077E-3,-9.746195E-3,-1.7732433E0,-4.488389E-1,1.3401158E0,-9.028017E-3,6.888692E-1,-1.2297244E0,5.5826176E-3,-1.6478412E0,1.4735E0,-7.321087E-2,8.2885865E-3,-8.799086E-3,6.517399E-1,-9.288979E-3,-1.8679612E0,3.631774E-3,1.2004709E0,-9.6961826E-1,1.4403822E-3,8.196906E-3,-9.190973E-3,8.81137E-1,-9.585271E-3,8.375752E-3,-9.825809E-3,8.3238175E-3,1.5202595E0,1.4499476E-3,-8.559239E-3,8.31513E-3,4.3484747E-1,1.4915665E0,-9.93193E-3,2.8081033E-3,3.6135368E-4,9.158802E-3,2.890431E-1,-9.774669E-3,1.0493952E0,-8.972608E-3,6.0227658E-3,8.948631E-3,8.1255496E-1,-7.4456066E-1,3.3814515E-4,1.702065E0,-9.178461E-3,1.356474E0,1.2799696E0,-7.280243E-1,9.527441E-1,-9.107438E-3,8.547434E-3,-1.5470858E0,9.292863E-3,2.866995E-3,2.0990367E-3,8.859419E-3,-3.669031E-1,1.4631686E0,-9.212842E-3,8.292998E-3,4.655037E-1,1.5018331E0,-9.778353E-3,4.5701046E-3,8.3751865E-3,-8.873917E-3,1.580302E0,9.242302E-5,6.8382206E-3,-2.2098273E-3,1.7519135E-3,8.084517E-3,8.4107565E-3,1.7577332E-3],"categories":[],"categories_nodes":[],"categories_segments":[],"categories_sizes":[],"default_left":[0,0,0,0,0,0,0,0,0,0,0,0,0,0,0,0,0,0,0,0,0,0,0,0,0,0,0,0,0,0,0,0,0,0,0,0,0,0,0,0,0,0,0,0,0,0,0,0,0,0,0,0,0,0,0,0,0,0,0,0,0,0,0,0,0,0,0,0,0,0,0,0,0,0,0,0,0,0,0,0,0,0,0,0,0,0,0,0,0,0,0,0,0,0,0,0,0],"id":2,"left_children":[1,3,5,7,9,11,13,-1,15,17,19,21,23,25,27,29,31,-1,33,-1,-1,35,37,39,-1,41,43,-1,45,47,49,-1,-1,51,-1,53,-1,55,57,-1,-1,-1,59,-1,-1,-1,-1,61,-1,-1,-1,63,65,-1,-1,-1,-1,67,-1,69,-1,-1,-1,71,73,-1,75,-1,77,79,81,83,-1,-1,85,-1,-1,-1,-1,87,89,-1,-1,91,93,-1,-1,-1,-1,95,-1,-1,-1,-1,-1,-1,-1],"loss_changes":[4.874992E2,1.426168E2,1.6951013E2,5.323816E1,1.1385933E2,1.6280316E2,1.496382E2,0E0,3.8123108E1,1.00842125E2,1.0722708E2,1.2318945E2,8.041866E1,9.595804E1,8.673223E1,2.768509E1,3.9930546E1,0E0,8.510347E1,0E0,0E0,5.1244568E1,9.467657E1,9.611977E0,0E0,8.6514496E1,6.100263E1,0E0,7.000708E1,1.0011536E1,3.4896515E1,0E0,0E0,6.2635834E1,0E0,5.1660217E1,0E0,1.6738338E1,1.0398168E2,0E0,0E0,0E0,7.5173584E1,0E0,0E0,0E0,0E0,1.3125977E1,0E0,0E0,0E0,1.2647037E2,2.0101837E1,0E0,0E0,0E0,0E0,8.3889595E1,0E0,6.5460556E1,0E0,0E0,0E0,7.93945E1,1.355929E2,0E0,7.430832E0,0E0,7.3206596E0,4.3345596E1,4.9172745E1,5.28918E1,0E0,0E0,5.196723E1,0E0,0E0,0E0,0E0,4.168924E1,2.0171478E1,0E0,0E0,8.971877E1,9.346497E0,0E0,0E0,0E0,0E0,1.0690063E1,0E0,0E0,0E0,0E0,0E0,0E0,0E0],"parents":[2147483647,0,0,1,1,2,2,3,3,4,4,5,5,6,6,8,8,9,9,10,10,11,11,12,12,13,13,14,14,15,15,16,16,18,18,21,21,22,22,23,23,25,25,26,26,28,28,29,29,30,30,33,33,35,35,37,37,38,38,42,42,47,47,51,51,52,52,57,57,59,59,63,63,64,64,66,66,68,68,69,69,70,70,71,71,74,74,79,79,80,80,83,83,84,84,89,89],"right_children":[2,4,6,8,10,12,14,-1,16,18,20,22,24,26,28,30,32,-1,34,-1,-1,36,38,40,-1,42,44,-1,46,48,50,-1,-1,52,-1,54,-1,56,58,-1,-1,-1,60,-1,-1,-1,-1,62,-1,-1,-1,64,66,-1,-1,-1,-1,68,-1,70,-1,-1,-1,72,74,-1,76,-1,78,80,82,84,-1,-1,86,-1,-1,-1,-1,88,90,-1,-1,92,94,-1,-1,-1,-1,96,-1,-1,-1,-1,-1,-1,-1],"split_conditions":[1.6874886E8,1.01E0,3.2222223E0,-1.4620392E0,6.55859E1,2.4380952E-1,-1.2711511E0,-8.413632E-3,1.1E1,-3.5E1,-3.6647207E-1,2E0,1.4375E0,2.1138702E9,-4.190396E0,9.434853E-2,-2.6757733E-3,-9.434405E-3,7.260045E-2,7.2122077E-3,-9.746195E-3,4E0,2.2737331E0,0E0,-9.028017E-3,-2.3002884E-1,2.3690577E-1,5.5826176E-3,8.308796E0,8.149257E6,9.356162E-1,8.2885865E-3,-8.799086E-3,2.5E0,-9.288979E-3,-4.5424187E-1,3.631774E-3,1.3887241E-1,1E0,1.4403822E-3,8.196906E-3,-9.190973E-3,8.633242E2,-9.585271E-3,8.375752E-3,-9.825809E-3,8.3238175E-3,1.889753E0,1.4499476E-3,-8.559239E-3,8.31513E-3,1.8895349E-2,4.1E1,-9.93193E-3,2.8081033E-3,3.6135368E-4,9.158802E-3,8.970096E-3,-9.774669E-3,4.950434E-2,-8.972608E-3,6.0227658E-3,8.948631E-3,3.715652E0,1.13300495E-1,3.3814515E-4,4.950695E7,-9.178461E-3,6.194202E-2,-1.999336E-2,6.018426E-1,6.143883E-1,-9.107438E-3,8.547434E-3,8.8544186E8,9.292863E-3,2.866995E-3,2.0990367E-3,8.859419E-3,6.0468445E0,-1.2135382E0,-9.212842E-3,8.292998E-3,-8.7945557E-1,0E0,-9.778353E-3,4.5701046E-3,8.3751865E-3,-8.873917E-3,1.41564E3,9.242302E-5,6.8382206E-3,-2.2098273E-3,1.7519135E-3,8.084517E-3,8.4107565E-3,1.7577332E-3],"split_indices":[2,60,30,100,121,38,64,0,57,12,124,59,30,18,76,25,20,0,99,0,0,58,68,36,0,67,92,0,23,101,13,0,0,47,0,69,0,112,115,0,0,0,85,0,0,0,0,94,0,0,0,37,16,0,0,0,0,6,0,25,0,0,0,94,86,0,2,0,13,70,45,83,0,0,104,0,0,0,0,33,93,0,0,100,42,0,0,0,0,60,0,0,0,0,0,0,0],"split_type":[0,0,0,0,0,0,0,0,0,0,0,0,0,0,0,0,0,0,0,0,0,0,0,0,0,0,0,0,0,0,0,0,0,0,0,0,0,0,0,0,0,0,0,0,0,0,0,0,0,0,0,0,0,0,0,0,0,0,0,0,0,0,0,0,0,0,0,0,0,0,0,0,0,0,0,0,0,0,0,0,0,0,0,0,0,0,0,0,0,0,0,0,0,0,0,0,0],"sum_hessian":[1.3271556E3,6.7398773E2,6.531679E2,2.3892894E2,4.3505884E2,3.6489835E2,2.8826956E2,5.4997473E0,2.3342918E2,3.841341E2,5.092474E1,3.181142E2,4.678416E1,2.0763397E2,8.063559E1,2.2046576E2,1.2963436E1,1.7248346E1,3.6688574E2,1.1678439E1,3.92463E1,2.0915651E2,1.0895768E2,3.703515E1,9.749012E0,1.7792218E2,2.971179E1,1.2928079E1,6.770751E1,2.0925162E2,1.1214136E1,5.2141485E0,7.7492876E0,3.5338696E2,1.3498779E1,2.0194243E2,7.214078E0,2.5607006E1,8.335068E1,8.713823E0,2.8321325E1,1.199866E1,1.6592352E2,2.4497326E1,5.2144647E0,6.2493114E1,5.214396E0,2.0053732E2,8.714296E0,5.9997854E0,5.21435E0,2.8231595E2,7.107101E1,1.9422844E2,7.713993E0,9.713926E0,1.589308E1,3.6105896E1,4.7244778E1,1.5667448E2,9.249036E0,9.075141E1,1.09785904E2,2.1446312E2,6.785284E1,9.714156E0,6.135685E1,1.174874E1,2.4357159E1,1.3921155E2,1.7462936E1,2.0421371E2,1.02494E1,1.6392797E1,5.146004E1,5.364261E1,7.714241E0,8.214081E0,1.6143076E1,1.3463747E1,1.257478E2,1.2248748E1,5.2141886E0,1.0953467E2,9.467905E1,4.4745926E1,6.714117E0,5.214466E0,8.249281E0,1.1578416E2,9.963647E0,5.542906E1,5.4105606E1,8.464108E0,8.6214935E1,1.0732037E2,8.463782E0],"tree_param":{"num_deleted":"0","num_feature":"125","num_nodes":"97","size_leaf_vector":"1"}},{"base_weights":[-2.1214716E-2,5.11023E-1,-6.9565064E-1,-1.5459445E0,6.7076534E-1,-1.0503007E0,1.06494375E-1,-9.739848E-3,6.272418E-3,9.6274585E-1,-2.8743455E-1,1.6515951E-1,-1.2943288E0,1.1390538E0,-4.9486175E-1,1.0417591E0,-9.311996E-3,-9.704883E-3,2.5220022E-1,-9.369943E-3,8.6530733E-1,-1.6338792E0,-3.1713942E-1,1.4758921E0,-2.4927251E-1,-1.3205957E0,6.6098875E-1,1.103569E0,-9.110236E-3,-9.655855E-1,9.238624E-1,-8.753131E-3,1.3722483E0,-8.368447E-1,-9.883517E-3,-8.012338E-1,8.597757E-3,8.69915E-3,8.578227E-4,-8.687978E-3,8.251506E-3,-9.754752E-3,5.614127E-3,-9.19343E-3,1.6112169E0,1.1502488E0,-8.746833E-3,-9.65643E-3,8.670162E-3,1.2412297E0,-8.756479E-3,8.549097E-3,6.404485E-4,-9.664134E-3,1.3148428E-1,-1.5153537E0,7.098613E-1,2.8003606E-3,9.443965E-3,-5.188E-1,1.2044879E0,-6.3139394E-2,1.5002494E0,9.696832E-1,-9.104107E-3,-9.70739E-3,4.562297E-3,7.5208717E-3,-8.247869E-3,-8.98829E-3,8.336647E-3,1.4515278E0,8.240257E-1,8.324485E-3,-8.477455E-3,-0E0,9.087699E-3,-1.0098053E-1,8.825143E-3,1.6710051E0,1.099926E0,1.1683364E0,-4.3061098E-1,8.287442E-3,-8.485263E-3,8.736778E-3,1.7246915E-3,6.41026E-3,-8.522834E-3,6.3349223E-3,-0E0,-9.516209E-3,4.192327E-3],"categories":[],"categories_nodes":[],"categories_segments":[],"categories_sizes":[],"default_left":[0,0,0,0,0,0,0,0,0,0,0,0,0,0,0,0,0,0,0,0,0,0,0,0,0,0,0,0,0,0,0,0,0,0,0,0,0,0,0,0,0,0,0,0,0,0,0,0,0,0,0,0,0,0,0,0,0,0,0,0,0,0,0,0,0,0,0,0,0,0,0,0,0,0,0,0,0,0,0,0,0,0,0,0,0,0,0,0,0,0,0,0,0],"id":3,"left_children":[1,3,5,7,9,11,13,-1,-1,15,17,19,21,23,25,27,-1,-1,29,-1,31,33,35,37,39,41,43,45,-1,47,49,-1,51,53,-1,55,-1,-1,-1,-1,-1,-1,-1,-1,57,59,-1,-1,-1,61,-1,-1,-1,-1,63,65,67,-1,-1,69,71,73,75,77,-1,-1,-1,-1,-1,-1,-1,79,81,-1,-1,-1,-1,83,-1,85,87,89,91,-1,-1,-1,-1,-1,-1,-1,-1,-1,-1],"loss_changes":[4.749111E2,2.4269826E2,1.6691287E2,5.9108116E1,1.9265692E2,1.213009E2,1.1195785E2,0E0,0E0,1.17508026E2,1.4303229E2,9.640136E1,1.1050366E2,3.225299E1,1.089577E2,9.102234E1,0E0,0E0,9.920902E1,0E0,6.862351E1,6.1972168E1,8.691899E1,1.5986938E1,3.818847E1,1.0137636E2,1.1298486E2,6.7403625E1,0E0,1.112917E2,6.7232254E1,0E0,1.5951355E1,7.934778E1,0E0,7.920741E1,0E0,0E0,0E0,0E0,0E0,0E0,0E0,0E0,7.104973E0,4.5730713E1,0E0,0E0,0E0,2.5031494E1,0E0,0E0,0E0,0E0,6.455781E1,5.1009987E1,4.4065147E1,0E0,0E0,4.471745E1,4.268329E1,3.4584152E1,2.6167435E1,2.4933008E1,0E0,0E0,0E0,0E0,0E0,0E0,0E0,1.9089783E1,8.36743E1,0E0,0E0,0E0,0E0,3.5106537E1,0E0,1.2437378E1,5.56326E1,1.5690338E1,7.76216E1,0E0,0E0,0E0,0E0,0E0,0E0,0E0,0E0,0E0,0E0],"parents":[2147483647,0,0,1,1,2,2,3,3,4,4,5,5,6,6,9,9,10,10,11,11,12,12,13,13,14,14,15,15,18,18,20,20,21,21,22,22,23,23,24,24,25,25,26,26,27,27,29,29,30,30,32,32,33,33,35,35,44,44,45,45,49,49,54,54,55,55,56,56,59,59,60,60,61,61,62,62,63,63,71,71,72,72,77,77,79,79,80,80,81,81,82,82],"right_children":[2,4,6,8,10,12,14,-1,-1,16,18,20,22,24,26,28,-1,-1,30,-1,32,34,36,38,40,42,44,46,-1,48,50,-1,52,54,-1,56,-1,-1,-1,-1,-1,-1,-1,-1,58,60,-1,-1,-1,62,-1,-1,-1,-1,64,66,68,-1,-1,70,72,74,76,78,-1,-1,-1,-1,-1,-1,-1,80,82,-1,-1,-1,-1,84,-1,86,88,90,92,-1,-1,-1,-1,-1,-1,-1,-1,-1,-1],"split_conditions":[4.2895832E4,-8.355E1,1.544928E-1,1.45E1,3.3123028E-2,3.8891224E1,-2.1488863E-1,-9.739848E-3,6.272418E-3,1.1043E2,5.3651266E-2,4.941442E-1,2.4545455E0,1.45E1,3.6666667E0,2.151677E-1,-9.311996E-3,-9.704883E-3,1.4581923E-1,-9.369943E-3,1.2424709E0,7.053162E1,6E2,2.356E1,2.3962289E-1,5.784644E2,4.1398004E-1,6.23E2,-9.110236E-3,5.3933E2,4.834762E9,-8.753131E-3,5.875E0,1.5403323E0,-9.883517E-3,1.1142542E-1,8.597757E-3,8.69915E-3,8.578227E-4,-8.687978E-3,8.251506E-3,-9.754752E-3,5.614127E-3,-9.19343E-3,7.5848975E3,-2.3880672E-1,-8.746833E-3,-9.65643E-3,8.670162E-3,2.4159454E-1,-8.756479E-3,8.549097E-3,6.404485E-4,-9.664134E-3,1.927E1,-9.4E0,5.797101E-2,2.8003606E-3,9.443965E-3,4.5382246E-1,-9.9E-1,0E0,1.5856354E-3,-1.0346484E0,-9.104107E-3,-9.70739E-3,4.562297E-3,7.5208717E-3,-8.247869E-3,-8.98829E-3,8.336647E-3,4.148689E-2,3.494E1,8.324485E-3,-8.477455E-3,-0E0,9.087699E-3,-1.2566E2,8.825143E-3,8.041667E0,8.7647057E-1,2.8490593E0,5.277778E-1,8.287442E-3,-8.485263E-3,8.736778E-3,1.7246915E-3,6.41026E-3,-8.522834E-3,6.3349223E-3,-0E0,-9.516209E-3,4.192327E-3],"split_indices":[3,84,14,30,37,17,66,0,0,55,37,77,122,87,30,117,0,0,88,0,29,85,52,121,15,119,75,95,0,55,0,0,103,29,0,70,0,0,0,0,0,0,0,0,116,70,0,0,0,80,0,0,0,0,52,84,37,0,0,45,12,31,42,93,0,0,0,0,0,0,0,25,60,0,0,0,0,12,0,91,98,94,41,0,0,0,0,0,0,0,0,0,0],"split_type":[0,0,0,0,0,0,0,0,0,0,0,0,0,0,0,0,0,0,0,0,0,0,0,0,0,0,0,0,0,0,0,0,0,0,0,0,0,0,0,0,0,0,0,0,0,0,0,0,0,0,0,0,0,0,0,0,0,0,0,0,0,0,0,0,0,0,0,0,0,0,0,0,0,0,0,0,0,0,0,0,0,0,0,0,0,0,0,0,0,0,0,0,0],"sum_hessian":[1.3213909E3,7.380176E2,5.833732E2,5.245531E1,6.855623E2,4.0503644E2,1.7833682E2,4.64909E1,5.964414E0,5.2604565E2,1.595166E2,6.724301E1,3.377934E2,6.58892E1,1.1244763E2,5.1229694E2,1.374876E1,3.949228E1,1.2002433E2,1.6746439E1,5.0496574E1,2.498057E2,8.798772E1,5.342688E1,1.2462318E1,6.59164E1,4.653123E1,5.0204794E2,1.0248985E1,4.217274E1,7.7851585E1,7.748386E0,4.2748188E1,7.384499E1,1.759607E2,7.159542E1,1.63923E1,4.4213955E1,9.212924E0,7.2486095E0,5.213709E0,5.298825E1,1.2928148E1,1.24976225E1,3.4033607E1,4.9454916E2,7.498785E0,3.1494652E1,1.0678091E1,7.010319E1,7.7483993E0,3.3284443E1,9.463745E0,3.4992535E1,3.8852463E1,4.8954346E1,2.2641073E1,7.713458E0,2.6320148E1,1.4962553E1,4.795866E2,1.1213639E1,5.8889545E1,2.7604898E1,1.1247562E1,4.224057E1,6.7137785E0,1.7392141E1,5.2489324E0,9.748107E0,5.2144456E0,2.8851987E2,1.9106671E2,5.2143993E0,5.99924E0,1.0213489E1,4.8676056E1,1.1462699E1,1.61422E1,1.7488174E2,1.1363813E2,1.504254E2,4.064131E1,5.2141376E0,6.2485614E0,1.664183E2,8.463448E0,1.0763853E2,5.9996033E0,1.3996185E2,1.0463547E1,1.8998423E1,2.1642889E1],"tree_param":{"num_deleted":"0","num_feature":"125","num_nodes":"93","size_leaf_vector":"1"}},{"base_weights":[2.0548502E-2,5.570127E-1,-6.852412E-1,1.1512034E0,-1.3809914E-2,8.156078E-2,-1.006026E0,-6.9880724E-1,1.2433017E0,4.6529773E-1,-8.2499796E-1,-1.3647426E0,4.9151418E-1,2.777044E-1,-1.330256E0,-9.1354875E-3,8.335846E-3,-8.674559E-3,1.309629E0,-3.8065693E-1,9.7266537E-1,-1.3607526E0,5.267118E-1,-9.6095605E-3,8.326486E-3,1.0670233E0,-5.928752E-1,-1.2302665E0,1.1614027E0,-5.7279927E-1,-9.838052E-3,1.3594174E0,-8.249938E-3,2.422711E-1,-9.586816E-3,1.0815305E0,-8.299397E-3,-9.795458E-3,8.853776E-1,-8.935512E-3,1.2682726E0,1.2976282E0,-8.45921E-3,6.8300096E-3,-9.553854E-3,6.785335E-3,-9.510264E-3,1.4878308E0,-1.6118187E-2,1.0785705E0,-9.426852E-1,1.028219E0,1.5354406E0,-9.248822E-3,7.567221E-1,6.4907104E-1,1.6590643E0,9.029427E-3,-8.203639E-3,8.053989E-3,1.4367331E-3,1.5733125E0,-2.0926294E-1,8.820427E-3,1.7261134E-3,8.303751E-3,-8.348683E-3,-1.6229328E-2,9.394507E-3,5.87471E-2,-9.7386325E-3,-8.6086E-3,6.029559E-3,5.109663E-1,1.6103224E0,1.3702425E0,-8.986723E-3,-7.9548424E-1,1.0580183E0,9.715446E-3,1.0275936E0,1.7641531E-3,8.703569E-3,-8.596621E-3,8.256139E-3,-8.328725E-3,8.280589E-3,7.4443775E-1,-9.273713E-3,-2.7176563E-2,8.333696E-3,1.6695886E0,7.504834E-1,8.6214056E-4,8.414403E-3,-9.284467E-3,8.2993945E-3,1.352261E0,-2.1988519E-1,3.3575355E-4,9.080195E-3,-8.588161E-3,1.234409E0,-8.434363E-3,8.28829E-3,2.7392744E-3,8.626652E-3,8.293818E-3,5.6566397E-4,-0E0,8.281291E-3,-8.666661E-3,8.231785E-3,-6.0968287E-2,9.0381075E-3,8.246175E-3,-8.3897775E-3],"categories":[],"categories_nodes":[],"categories_segments":[],"categories_sizes":[],"default_left":[0,0,0,0,0,0,0,0,0,0,0,0,0,0,0,0,0,0,0,0,0,0,0,0,0,0,0,0,0,0,0,0,0,0,0,0,0,0,0,0,0,0,0,0,0,0,0,0,0,0,0,0,0,0,0,0,0,0,0,0,0,0,0,0,0,0,0,0,0,0,0,0,0,0,0,0,0,0,0,0,0,0,0,0,0,0,0,0,0,0,0,0,0,0,0,0,0,0,0,0,0,0,0,0,0,0,0,0,0,0,0,0,0,0,0,0,0],"id":4,"left_children":[1,3,5,7,9,11,13,15,17,19,21,23,25,27,29,-1,-1,-1,31,33,35,37,39,-1,-1,41,43,45,47,49,-1,51,-1,53,-1,55,-1,-1,57,-1,59,61,-1,-1,-1,-1,-1,63,65,67,69,71,73,-1,75,77,79,-1,-1,-1,-1,81,83,-1,-1,-1,-1,85,-1,87,-1,-1,-1,89,91,93,-1,95,97,-1,99,-1,-1,-1,-1,-1,-1,101,-1,103,-1,105,107,-1,-1,-1,-1,109,111,-1,-1,-1,113,-1,-1,-1,-1,-1,-1,-1,-1,-1,-1,115,-1,-1,-1],"loss_changes":[5.0976657E2,2.6055707E2,1.4363974E2,6.498059E1,1.5226907E2,1.0129229E2,1.7180359E2,4.866752E1,7.158472E1,1.0596379E2,1.0665727E2,6.345997E1,8.455089E1,1.1116228E2,1.5169861E2,0E0,0E0,0E0,5.2709045E1,8.8538666E1,4.460846E1,1.3905257E2,7.166176E1,0E0,0E0,5.7021767E1,1.1989622E2,5.363675E1,2.1425056E1,9.168243E1,0E0,1.7270752E1,0E0,6.98872E1,0E0,3.4706055E1,0E0,0E0,5.1431267E1,0E0,8.636581E0,3.5354446E1,0E0,0E0,0E0,0E0,0E0,1.0594017E1,3.329612E1,2.4786247E1,1.2286639E2,5.746147E1,1.50234375E1,0E0,8.3958824E1,5.19538E1,7.1074066E0,0E0,0E0,0E0,0E0,1.1132294E1,3.723872E1,0E0,0E0,0E0,0E0,3.3122826E1,0E0,7.960116E1,0E0,0E0,0E0,1.1568615E1,7.95697E0,1.3965569E1,0E0,5.0763935E1,2.6701157E1,0E0,1.3953615E1,0E0,0E0,0E0,0E0,0E0,0E0,5.5705574E1,0E0,3.359464E1,0E0,6.6486206E0,7.3027887E0,0E0,0E0,0E0,0E0,2.1126274E1,3.745253E1,0E0,0E0,0E0,2.9300137E1,0E0,0E0,0E0,0E0,0E0,0E0,0E0,0E0,0E0,0E0,3.3897778E1,0E0,0E0,0E0],"parents":[2147483647,0,0,1,1,2,2,3,3,4,4,5,5,6,6,7,7,8,8,9,9,10,10,11,11,12,12,13,13,14,14,18,18,19,19,20,20,21,21,22,22,25,25,26,26,27,27,28,28,29,29,31,31,33,33,35,35,38,38,40,40,41,41,47,47,48,48,49,49,50,50,51,51,52,52,54,54,55,55,56,56,61,61,62,62,67,67,69,69,73,73,74,74,75,75,77,77,78,78,80,80,87,87,89,89,91,91,92,92,97,97,98,98,102,102,113,113],"right_children":[2,4,6,8,10,12,14,16,18,20,22,24,26,28,30,-1,-1,-1,32,34,36,38,40,-1,-1,42,44,46,48,50,-1,52,-1,54,-1,56,-1,-1,58,-1,60,62,-1,-1,-1,-1,-1,64,66,68,70,72,74,-1,76,78,80,-1,-1,-1,-1,82,84,-1,-1,-1,-1,86,-1,88,-1,-1,-1,90,92,94,-1,96,98,-1,100,-1,-1,-1,-1,-1,-1,102,-1,104,-1,106,108,-1,-1,-1,-1,110,112,-1,-1,-1,114,-1,-1,-1,-1,-1,-1,-1,-1,-1,-1,116,-1,-1,-1],"split_conditions":[6.626456E4,2.109E1,-2.1488863E-1,-7.391E1,1.5855176E8,5.4395636E2,3.8891224E1,1E1,-1.4159764E-1,8.907656E0,7.2177136E-1,4.438049E0,2.9971136E9,1.6E0,2.7358559E1,-9.1354875E-3,8.335846E-3,-8.674559E-3,5.7260484E-2,2E-1,7.260045E-2,7E0,1.1146077E1,-9.6095605E-3,8.326486E-3,2.0116596E-1,2.7775183E0,-2.5232E2,2.04E0,-3.0783846E1,-9.838052E-3,1.4E1,-8.249938E-3,1.5641745E2,-9.586816E-3,4.3824703E-2,-8.299397E-3,-9.795458E-3,-5.128564E-1,-8.935512E-3,-2.024005E0,2.8790758E9,-8.45921E-3,6.8300096E-3,-9.553854E-3,6.785335E-3,-9.510264E-3,3.6933289E0,2.116402E-2,9.122257E-2,-4.0301066E-2,-1.2541127E-1,3.4166667E-1,-9.248822E-3,2.583004E6,4.6279494E-2,2.9179644E-2,9.029427E-3,-8.203639E-3,8.053989E-3,1.4367331E-3,1.7431192E-1,2.4380751E9,8.820427E-3,1.7261134E-3,8.303751E-3,-8.348683E-3,5.261033E10,9.394507E-3,4.770756E-3,-9.7386325E-3,-8.6086E-3,6.029559E-3,2.6984127E0,6.112934E7,-1.04E0,-8.986723E-3,8.2945764E2,4.3870625E-1,9.715446E-3,1.2546E2,1.7641531E-3,8.703569E-3,-8.596621E-3,8.256139E-3,-8.328725E-3,8.280589E-3,1.3E1,-9.273713E-3,8.408681E2,8.333696E-3,-1.4707663E0,-3.788E1,8.6214056E-4,8.414403E-3,-9.284467E-3,8.2993945E-3,3.0666666E0,9.450944E-1,3.3575355E-4,9.080195E-3,-8.588161E-3,4.5517242E-1,-8.434363E-3,8.28829E-3,2.7392744E-3,8.626652E-3,8.293818E-3,5.6566397E-4,-0E0,8.281291E-3,-8.666661E-3,8.231785E-3,6.756757E-3,9.0381075E-3,8.246175E-3,-8.3897775E-3],"split_indices":[3,60,66,84,2,96,17,30,70,26,83,89,18,8,26,0,0,0,63,75,99,30,80,0,0,45,94,60,8,107,0,16,0,1,0,61,0,0,23,0,69,2,0,0,0,0,0,5,54,13,112,69,41,0,120,25,25,0,0,0,0,54,18,0,0,0,0,2,0,67,0,0,0,4,18,12,0,85,83,0,53,0,0,0,0,0,0,35,0,1,0,80,12,0,0,0,0,91,67,0,0,0,54,0,0,0,0,0,0,0,0,0,0,25,0,0,0],"split_type":[0,0,0,0,0,0,0,0,0,0,0,0,0,0,0,0,0,0,0,0,0,0,0,0,0,0,0,0,0,0,0,0,0,0,0,0,0,0,0,0,0,0,0,0,0,0,0,0,0,0,0,0,0,0,0,0,0,0,0,0,0,0,0,0,0,0,0,0,0,0,0,0,0,0,0,0,0,0,0,0,0,0,0,0,0,0,0,0,0,0,0,0,0,0,0,0,0,0,0,0,0,0,0,0,0,0,0,0,0,0,0,0,0,0,0,0,0],"sum_hessian":[1.3453417E3,7.650371E2,5.803046E2,3.7517795E2,3.898592E2,1.7060994E2,4.0969467E2,1.7210884E1,3.5796707E2,2.4468494E2,1.4517424E2,3.6954456E1,1.3365549E2,8.2163216E1,3.2753143E2,1.1996441E1,5.214443E0,7.24829E0,3.5071878E2,9.123859E1,1.5344637E2,1.043606E2,4.081364E1,3.174005E1,5.214408E0,8.777316E1,4.5882324E1,2.9954823E1,5.2208393E1,1.486009E2,1.7893054E2,3.4547003E2,5.2487464E0,6.474528E1,2.6493307E1,1.479479E2,5.498458E0,8.322293E1,2.1137669E1,9.497021E0,3.131662E1,8.152526E1,6.2479033E0,1.8142057E1,2.7740267E1,5.7129054E0,2.4241919E1,4.1245995E1,1.0962399E1,2.6604183E1,1.2199672E2,1.2284891E2,2.2262111E2,1.224904E1,5.249624E1,8.6099365E1,6.1848537E1,1.5889641E1,5.2480288E0,2.2604618E1,8.712002E0,6.931394E1,1.2211317E1,3.278393E1,8.462063E0,5.2142754E0,5.748123E0,1.0961795E1,1.5642387E1,6.0519295E1,6.147742E1,6.499129E0,1.1634978E2,1.6177761E1,2.0644336E2,4.274843E1,9.747809E0,1.8462172E1,6.763719E1,4.1707783E1,2.0140755E1,8.462489E0,6.0851456E1,6.9975433E0,5.2137737E0,5.7477255E0,5.2140694E0,4.5025402E1,1.54938965E1,1.09633255E1,5.214436E0,1.9176633E2,1.4677032E1,9.213249E0,3.353518E1,1.324793E1,5.214242E0,5.542519E1,1.2212002E1,9.713318E0,1.0427437E1,6.997314E0,3.8028088E1,5.74918E0,5.2141457E0,7.713005E0,1.8405331E2,5.2141957E0,9.462836E0,1.0213537E1,4.521165E1,6.9986033E0,5.2133985E0,1.1211302E1,2.6816786E1,5.21363E0,5.997671E0],"tree_param":{"num_deleted":"0","num_feature":"125","num_nodes":"117","size_leaf_vector":"1"}},{"base_weights":[-7.5015664E-2,4.8719156E-1,-8.5121393E-1,-1.5417613E0,6.4729506E-1,-1.2378343E0,1.5143724E-2,-9.657597E-3,6.2072985E-3,7.370504E-1,-9.467303E-3,-1.5667988E0,-3.8408118E-1,7.6726246E-1,-7.1527934E-1,1.1560708E0,2.7813873E-1,-6.527922E-2,-1.7722709E0,-1.5588382E0,9.576433E-1,-8.969942E-3,1.161643E0,7.5643843E-1,-1.542861E0,1.2177665E0,-8.560571E-3,5.9587055E-1,-1.1992149E0,-9.1906525E-3,6.528492E-3,-9.805644E-3,-0E0,7.5453105E-3,-9.665455E-3,1.4191169E0,-8.5212635E-3,1.405335E0,-8.188968E-3,-8.474837E-3,7.5222733E-3,-9.655705E-3,7.5229546E-3,7.9739445E-1,1.479507E0,7.893571E-1,-1.1270815E0,8.573832E-3,-9.650414E-3,-8.917077E-3,8.218432E-3,1.1732392E-3,8.615334E-3,8.456689E-5,1.6335995E0,-8.7541565E-3,9.574164E-1,1.5622826E0,-0E0,-8.813007E-3,8.91002E-1,-9.504996E-3,6.863908E-3,2.5081236E-3,9.054846E-3,-3.788535E-2,1.0587829E0,8.642988E-3,1.0489199E0,8.273567E-3,-8.325354E-3,9.804217E-1,-8.584112E-3,-8.444455E-3,8.193914E-3,8.631413E-3,7.743817E-1,-8.586445E-3,1.5249797E0,-8.321022E-3,1.0550379E0,5.1063863E-3,-8.677686E-3,4.0346524E-3,9.41355E-3,5.6952494E-3,-8.172588E-3],"categories":[],"categories_nodes":[],"categories_segments":[],"categories_sizes":[],"default_left":[0,0,0,0,0,0,0,0,0,0,0,0,0,0,0,0,0,0,0,0,0,0,0,0,0,0,0,0,0,0,0,0,0,0,0,0,0,0,0,0,0,0,0,0,0,0,0,0,0,0,0,0,0,0,0,0,0,0,0,0,0,0,0,0,0,0,0,0,0,0,0,0,0,0,0,0,0,0,0,0,0,0,0,0,0,0,0],"id":5,"left_children":[1,3,5,7,9,11,13,-1,-1,15,-1,17,19,21,23,25,27,29,31,33,35,-1,37,39,41,43,-1,45,47,-1,-1,-1,49,-1,-1,51,-1,53,-1,-1,-1,-1,-1,55,57,59,61,-1,-1,-1,-1,-1,-1,-1,63,-1,65,67,69,-1,71,-1,-1,-1,-1,73,75,-1,77,-1,-1,79,-1,-1,-1,-1,81,-1,83,-1,85,-1,-1,-1,-1,-1,-1],"loss_changes":[5.610637E2,2.4188551E2,1.8191779E2,5.8220154E1,1.566145E2,1.03265015E2,9.198764E1,0E0,0E0,1.2719406E2,0E0,8.163556E1,1.6774664E2,8.413066E1,1.0412923E2,6.2230743E1,1.5045726E2,8.193413E1,7.2275085E1,6.422464E1,6.160116E1,0E0,5.045295E1,5.6034374E1,6.36866E1,3.5124207E1,0E0,8.852501E1,1.193024E2,0E0,0E0,0E0,6.388444E1,0E0,0E0,1.2928719E1,0E0,2.005223E1,0E0,0E0,0E0,0E0,0E0,5.456092E1,2.6372375E1,6.188063E1,5.212477E1,0E0,0E0,0E0,0E0,0E0,0E0,0E0,8.2677E0,0E0,1.3523689E1,1.2217194E1,3.24057E1,0E0,5.387886E1,0E0,0E0,0E0,0E0,3.326744E1,1.8711075E1,0E0,6.419423E1,0E0,0E0,4.4448334E1,0E0,0E0,0E0,0E0,4.943912E1,0E0,7.31987E0,0E0,4.4098145E1,0E0,0E0,0E0,0E0,0E0,0E0],"parents":[2147483647,0,0,1,1,2,2,3,3,4,4,5,5,6,6,9,9,11,11,12,12,13,13,14,14,15,15,16,16,17,17,18,18,19,19,20,20,22,22,23,23,24,24,25,25,27,27,28,28,32,32,35,35,37,37,43,43,44,44,45,45,46,46,54,54,56,56,57,57,58,58,60,60,65,65,66,66,68,68,71,71,76,76,78,78,80,80],"right_children":[2,4,6,8,10,12,14,-1,-1,16,-1,18,20,22,24,26,28,30,32,34,36,-1,38,40,42,44,-1,46,48,-1,-1,-1,50,-1,-1,52,-1,54,-1,-1,-1,-1,-1,56,58,60,62,-1,-1,-1,-1,-1,-1,-1,64,-1,66,68,70,-1,72,-1,-1,-1,-1,74,76,-1,78,-1,-1,80,-1,-1,-1,-1,82,-1,84,-1,86,-1,-1,-1,-1,-1,-1],"split_conditions":[6.626456E4,-8.8155E1,6.2493186E0,1.45E1,3.5922128E-1,1.5605387E-1,3.08937E0,-9.657597E-3,6.2072985E-3,3.628E1,-9.467303E-3,-8.2373637E-1,7.5115125E4,3.62E2,1.1820393E7,5.7260484E-2,4.6333613E8,1.2132601E1,2.5E0,5E0,6.5913975E-1,-8.969942E-3,5.5891577E-2,1.8791668E-1,3.9999995E-1,4.6752235E-1,-8.560571E-3,-7.313945E-1,-2.841705E0,-9.1906525E-3,6.528492E-3,-9.805644E-3,1.2727273E-1,7.5453105E-3,-9.665455E-3,3.846154E-2,-8.5212635E-3,1.4098028E0,-8.188968E-3,-8.474837E-3,7.5222733E-3,-9.655705E-3,7.5229546E-3,-6.685955E-1,8.674684E7,-2.125094E0,1.775E2,8.573832E-3,-9.650414E-3,-8.917077E-3,8.218432E-3,1.1732392E-3,8.615334E-3,8.456689E-5,4.2590708E-1,-8.7541565E-3,-3.564809E-1,5.0333332E-2,1.5703518E-2,-8.813007E-3,7.260045E-2,-9.504996E-3,6.863908E-3,2.5081236E-3,9.054846E-3,9.9E1,-7.1770793E-1,8.642988E-3,-2.5625E1,8.273567E-3,-8.325354E-3,5.92E1,-8.584112E-3,-8.444455E-3,8.193914E-3,8.631413E-3,1.7969208E-3,-8.586445E-3,0E0,-8.321022E-3,4.941822E0,5.1063863E-3,-8.677686E-3,4.0346524E-3,9.41355E-3,5.6952494E-3,-8.172588E-3],"split_indices":[3,84,109,30,76,14,94,0,0,60,0,23,116,95,101,63,104,90,8,16,27,0,25,92,38,27,0,64,23,0,0,0,61,0,0,37,0,29,0,0,0,0,0,80,101,93,21,0,0,0,0,0,0,0,83,0,93,25,25,0,99,0,0,0,0,16,64,0,32,0,0,60,0,0,0,0,25,0,21,0,40,0,0,0,0,0,0],"split_type":[0,0,0,0,0,0,0,0,0,0,0,0,0,0,0,0,0,0,0,0,0,0,0,0,0,0,0,0,0,0,0,0,0,0,0,0,0,0,0,0,0,0,0,0,0,0,0,0,0,0,0,0,0,0,0,0,0,0,0,0,0,0,0,0,0,0,0,0,0,0,0,0,0,0,0,0,0,0,0,0,0,0,0,0,0,0,0],"sum_hessian":[1.2838677E3,7.441446E2,5.3972314E2,5.3689125E1,6.9045544E2,3.735983E2,1.6612482E2,4.772491E1,5.964211E0,6.674656E2,2.2989866E1,2.6867487E2,1.0492345E2,8.233665E1,8.378818E1,3.4754785E2,3.1991776E2,3.28785E1,2.3579636E2,5.618636E1,4.873709E1,1.0494484E1,7.184216E1,2.9851202E1,5.3936974E1,3.408003E2,6.74755E0,2.6401587E2,5.590187E1,1.4491317E1,1.8387186E1,2.148759E2,2.0920456E1,5.464191E0,5.0722168E1,4.1990475E1,6.7466164E0,6.659451E1,5.2476525E0,6.4967647E0,2.3354437E1,4.847315E1,5.463822E0,1.3283957E2,2.0796074E2,2.3805542E2,2.5960445E1,1.0675052E1,4.522682E1,9.994213E0,1.0926242E1,8.961793E0,3.3028683E1,9.959771E0,5.663474E1,7.248827E0,1.2559074E2,1.972482E2,1.0712536E1,8.496776E0,2.2955864E2,2.0246468E1,5.7139783E0,7.9633846E0,4.8671356E1,1.0961575E1,1.1462916E2,1.500038E2,4.7244408E1,5.213993E0,5.498543E0,2.2256163E2,6.997024E0,5.748923E0,5.212652E0,3.3031605E1,8.159756E1,6.4987326E0,4.0745674E1,5.498379E0,2.1706325E2,7.509797E1,6.499588E0,1.4427125E1,2.631855E1,2.1181604E2,5.2472043E0],"tree_param":{"num_deleted":"0","num_feature":"125","num_nodes":"87","size_leaf_vector":"1"}},{"base_weights":[1.950618E-2,4.8979807E-1,-5.684636E-1,-9.122385E-1,6.609238E-1,-7.266152E-1,8.989216E-1,6.924165E-2,-9.585911E-3,9.0610033E-1,-1.2546226E-1,5.670767E-1,-9.054836E-1,1.1848553E0,-8.155806E-3,1.0962871E0,-9.128401E-3,9.8463094E-1,-9.198955E-3,-6.940147E-1,1.3763536E0,1.1948249E0,-9.1005275E-3,-1.2475158E0,1.0843065E-1,-6.8972176E-3,1.5188822E0,-0E0,9.056021E-3,8.064105E-1,1.6563126E0,-1.6212423E0,5.890281E-1,1.1956326E-4,8.873901E-3,-8.209463E-3,7.896023E-3,-5.329275E-1,-1.7391506E0,9.1861284E-1,-1.0668696E0,8.336936E-3,-8.296866E-3,8.880313E-3,2.1087432E-3,8.158142E-3,-8.184634E-3,8.6949056E-1,-8.80878E-3,8.800779E-3,2.3953186E-3,6.745547E-3,-9.688995E-3,8.477202E-3,-8.7035054E-1,-1.6200923E0,4.1333982E-1,-9.757771E-3,5.254415E-1,1.2687457E0,-8.6561665E-3,-9.556278E-3,5.562365E-3,-8.652122E-3,9.2767537E-1,-9.214295E-3,8.3380705E-3,-9.66179E-3,6.7756963E-3,-9.049157E-3,8.5262674E-1,9.122905E-3,-8.25001E-3,1.5500075E0,-1.03268875E-2,9.746057E-1,-8.394619E-3,-8.562345E-3,1.1992229E0,8.96965E-3,1.4742125E-3,-8.283197E-3,8.28763E-3,1.0190786E0,-8.299817E-3,1.4778936E0,-0E0,-8.206957E-3,5.3589316E-3,8.438782E-3,2.0758898E-3,8.175719E-3,-8.19771E-3],"categories":[],"categories_nodes":[],"categories_segments":[],"categories_sizes":[],"default_left":[0,0,0,0,0,0,0,0,0,0,0,0,0,0,0,0,0,0,0,0,0,0,0,0,0,0,0,0,0,0,0,0,0,0,0,0,0,0,0,0,0,0,0,0,0,0,0,0,0,0,0,0,0,0,0,0,0,0,0,0,0,0,0,0,0,0,0,0,0,0,0,0,0,0,0,0,0,0,0,0,0,0,0,0,0,0,0,0,0,0,0,0,0],"id":6,"left_children":[1,3,5,7,9,11,13,15,-1,17,19,21,23,25,-1,27,-1,29,-1,31,33,35,-1,37,39,41,43,45,-1,47,49,51,53,-1,-1,-1,-1,55,57,59,61,-1,-1,-1,-1,-1,-1,63,-1,-1,-1,-1,-1,-1,65,67,69,-1,71,73,-1,-1,-1,-1,75,-1,-1,-1,-1,-1,77,-1,-1,79,81,83,-1,-1,85,-1,-1,-1,-1,87,-1,89,91,-1,-1,-1,-1,-1,-1],"loss_changes":[3.6972507E2,1.78618E2,1.3803358E2,7.975107E1,1.2860641E2,1.2475476E2,4.2293507E1,7.929153E1,0E0,1.0913742E2,1.346118E2,9.775695E1,1.6469672E2,2.1967941E1,0E0,2.0844486E1,0E0,5.6362366E1,0E0,1.3825563E2,2.0997505E1,5.6079544E1,0E0,1.21980286E2,1.13942444E2,3.3205315E1,8.932716E0,3.0741974E1,0E0,6.3408096E1,8.532593E0,6.18143E1,7.863986E1,0E0,0E0,0E0,0E0,1.5119333E2,9.4250305E1,6.6750275E1,8.910696E1,0E0,0E0,0E0,0E0,0E0,0E0,5.8036743E1,0E0,0E0,0E0,0E0,0E0,0E0,5.232125E1,6.192917E1,7.591792E1,0E0,4.8587307E1,2.400412E1,0E0,0E0,0E0,0E0,4.6167297E1,0E0,0E0,0E0,0E0,0E0,5.9046673E1,0E0,0E0,1.3236084E1,3.2957817E1,4.3628143E1,0E0,0E0,2.0279488E1,0E0,0E0,0E0,0E0,4.2688934E1,0E0,7.9813538E0,3.1516026E1,0E0,0E0,0E0,0E0,0E0,0E0],"parents":[2147483647,0,0,1,1,2,2,3,3,4,4,5,5,6,6,7,7,9,9,10,10,11,11,12,12,13,13,15,15,17,17,19,19,20,20,21,21,23,23,24,24,25,25,26,26,27,27,29,29,30,30,31,31,32,32,37,37,38,38,39,39,40,40,47,47,54,54,55,55,56,56,58,58,59,59,64,64,70,70,73,73,74,74,75,75,78,78,83,83,85,85,86,86],"right_children":[2,4,6,8,10,12,14,16,-1,18,20,22,24,26,-1,28,-1,30,-1,32,34,36,-1,38,40,42,44,46,-1,48,50,52,54,-1,-1,-1,-1,56,58,60,62,-1,-1,-1,-1,-1,-1,64,-1,-1,-1,-1,-1,-1,66,68,70,-1,72,74,-1,-1,-1,-1,76,-1,-1,-1,-1,-1,78,-1,-1,80,82,84,-1,-1,86,-1,-1,-1,-1,88,-1,90,92,-1,-1,-1,-1,-1,-1],"split_conditions":[2.2483986E9,-1.4956927E0,3.2884616E-1,-3.6247984E-1,3.4188036E-2,2.2207139E0,-1.3241434E0,1.3E-1,-9.585911E-3,1.1043E2,4E0,-3.6222863E-1,5.3333335E0,2.9150758E0,-8.155806E-3,9.61E0,-9.128401E-3,2.5E0,-9.198955E-3,1.993227E-1,-1.13E0,-4.8715E1,-9.1005275E-3,4.141432E2,-8.2E0,1.4079219E7,-1.6500719E0,1.24121275E1,9.056021E-3,9.024588E0,-1.0589846E0,9.928057E-2,-1.8871603E0,1.1956326E-4,8.873901E-3,-8.209463E-3,7.896023E-3,3.3510177E0,1.2296833E3,-1.2245094E0,2.675E1,8.336936E-3,-8.296866E-3,8.880313E-3,2.1087432E-3,8.158142E-3,-8.184634E-3,-3.5E1,-8.80878E-3,8.800779E-3,2.3953186E-3,6.745547E-3,-9.688995E-3,8.477202E-3,1.0099151E3,4.3496277E2,1.716E1,-9.757771E-3,1.0434783E0,4.3940536E1,-8.6561665E-3,-9.556278E-3,5.562365E-3,-8.652122E-3,2.1428572E-2,-9.214295E-3,8.3380705E-3,-9.66179E-3,6.7756963E-3,-9.049157E-3,-2.1343334E-2,9.122905E-3,-8.25001E-3,-1.2124548E0,2.2493147E2,6.025178E-1,-8.394619E-3,-8.562345E-3,-7.75E0,8.96965E-3,1.4742125E-3,-8.283197E-3,8.28763E-3,-2.150219E0,-8.299817E-3,1.6990729E-1,-1.8236114E-2,-8.206957E-3,5.3589316E-3,8.438782E-3,2.0758898E-3,8.175719E-3,-8.19771E-3],"split_indices":[0,109,38,100,37,68,69,52,0,55,47,82,30,68,0,116,0,47,0,92,12,84,0,1,81,78,64,17,0,109,93,86,64,0,0,0,0,62,119,93,73,0,0,0,0,0,0,12,0,0,0,0,0,0,26,97,52,0,122,26,0,0,0,0,37,0,0,0,0,0,42,0,0,64,33,70,0,0,21,0,0,0,0,93,0,45,42,0,0,0,0,0,0],"split_type":[0,0,0,0,0,0,0,0,0,0,0,0,0,0,0,0,0,0,0,0,0,0,0,0,0,0,0,0,0,0,0,0,0,0,0,0,0,0,0,0,0,0,0,0,0,0,0,0,0,0,0,0,0,0,0,0,0,0,0,0,0,0,0,0,0,0,0,0,0,0,0,0,0,0,0,0,0,0,0,0,0,0,0,0,0,0,0,0,0,0,0,0,0],"sum_hessian":[1.3360372E3,7.4306757E2,5.9296967E2,8.005925E1,6.630083E2,5.360238E2,5.694582E1,4.0088028E1,3.9971222E1,5.060816E2,1.5692671E2,6.443625E1,4.7158755E2,5.1699112E1,5.24671E0,2.634854E1,1.3739488E1,4.9258716E2,1.3494422E1,1.1443781E2,4.2488895E1,5.1445618E1,1.2990632E1,3.5307635E2,1.18511215E2,1.0960951E1,4.073816E1,1.045863E1,1.5889909E1,3.9126108E2,1.0132609E2,6.667356E1,4.776425E1,9.96176E0,3.2527138E1,5.496093E0,4.5949528E1,1.4505885E2,2.080175E2,7.061036E1,4.790086E1,5.2144465E0,5.746505E0,3.2526974E1,8.211185E0,5.211762E0,5.2468677E0,3.8251587E2,8.745218E0,9.336329E1,7.9627957E0,5.712122E0,6.096144E1,2.7559538E1,2.0204714E1,6.766536E1,7.739349E1,1.9184373E2,1.6173773E1,6.2865555E1,7.7448034E0,3.497564E1,1.2925221E1,7.744649E0,3.747712E2,1.4990264E1,5.21445E0,6.1953003E1,5.7123547E0,1.2240628E1,6.515286E1,1.0428576E1,5.745197E0,5.1905273E1,1.0960279E1,3.6877383E2,5.997385E0,7.2445536E0,5.790831E1,4.31945E1,8.7107725E0,5.7461405E0,5.2141395E0,3.6327606E2,5.4977746E0,4.7200436E1,1.0707873E1,5.2473464E0,3.5802872E2,3.8989986E1,8.210446E0,5.212222E0,5.4956517E0],"tree_param":{"num_deleted":"0","num_feature":"125","num_nodes":"93","size_leaf_vector":"1"}},{"base_weights":[7.725502E-3,8.2862854E-1,-3.7481734E-1,9.5830774E-1,-9.298088E-3,2.1285728E-1,-8.281091E-1,1.0428313E0,-8.98119E-3,-4.0808037E-1,7.6588106E-1,-1.0103595E0,7.6169795E-1,1.1069345E0,-8.758204E-3,-1.3807483E0,2.25262E-1,9.19105E-1,-8.98359E-3,-1.5257648E0,-6.0581493E-1,-8.754765E-3,1.3156447E0,1.1571736E0,-8.385705E-3,-1.81925E-1,-9.675492E-3,6.038766E-1,-9.261374E-3,-8.644001E-3,1.0387934E0,-1.8156052E0,8.93263E-1,-1.2877928E0,4.677119E-2,-0E0,8.575259E-3,-4.8269567E-1,1.2249141E0,-9.167849E-3,6.796673E-3,9.1606593E-1,-8.918541E-3,1.2031211E0,-6.3516355E-1,8.138038E-3,-9.7188195E-3,9.042996E-3,-0E0,7.833007E-3,-1.5739754E0,1.1792921E0,-6.7017466E-1,8.103956E-3,-8.892588E-3,1.292968E0,-4.1685387E-1,-8.399553E-3,1.1416131E0,6.7398804E-1,1.4818935E0,-8.983334E-3,8.240774E-3,8.231147E-3,-8.167141E-3,-9.686585E-3,7.132956E-3,1.5563473E0,-9.484151E-2,3.349636E-1,-9.5215915E-3,8.890811E-1,1.4996208E0,8.171879E-3,-8.766856E-3,1.3639317E0,-1.0582725E-1,1.006445E0,-8.555196E-3,1.617111E0,4.370174E-5,8.995286E-3,2.440558E-3,-8.343898E-3,8.181501E-3,1.0710177E0,-8.920898E-3,1.1232615E0,-8.877518E-3,1.6152216E0,8.411813E-1,4.1028485E-4,1.5640237E0,8.169203E-3,-8.427915E-3,-3.3609164E-1,7.313612E-3,8.677669E-3,1.739107E-3,-8.706084E-2,8.558753E-3,4.7074496E-3,9.4068535E-3,8.473388E-3,3.7080268E-3,-8.520833E-3,7.5555467E-3,8.823814E-3,1.7943901E-3,-8.740247E-3,8.2423035E-3,8.269542E-3,-8.351536E-3],"categories":[],"categories_nodes":[],"categories_segments":[],"categories_sizes":[],"default_left":[0,0,0,0,0,0,0,0,0,0,0,0,0,0,0,0,0,0,0,0,0,0,0,0,0,0,0,0,0,0,0,0,0,0,0,0,0,0,0,0,0,0,0,0,0,0,0,0,0,0,0,0,0,0,0,0,0,0,0,0,0,0,0,0,0,0,0,0,0,0,0,0,0,0,0,0,0,0,0,0,0,0,0,0,0,0,0,0,0,0,0,0,0,0,0,0,0,0,0,0,0,0,0,0,0,0,0,0,0,0,0,0,0],"id":7,"left_children":[1,3,5,7,-1,9,11,13,-1,15,17,19,21,23,-1,25,27,29,-1,31,33,-1,35,37,-1,39,-1,41,-1,-1,43,45,47,49,51,-1,-1,53,55,-1,-1,57,-1,59,61,-1,-1,-1,63,-1,65,67,69,-1,-1,71,73,-1,75,77,79,-1,-1,-1,-1,-1,-1,81,83,85,-1,87,89,-1,-1,91,93,95,-1,97,-1,-1,-1,-1,-1,99,-1,101,-1,103,105,-1,107,-1,-1,109,-1,-1,-1,111,-1,-1,-1,-1,-1,-1,-1,-1,-1,-1,-1,-1,-1],"loss_changes":[4.194445E2,1.4768106E2,2.4291788E2,9.458154E1,0E0,1.3642314E2,1.4972357E2,7.100104E1,0E0,1.15815544E2,8.24505E1,9.4202515E1,7.42272E1,5.4555878E1,0E0,4.5944794E1,8.789754E1,6.3335297E1,0E0,1.4335815E2,1.17042366E2,0E0,2.1395508E1,4.3125336E1,0E0,6.2071083E1,0E0,7.1590805E1,0E0,0E0,5.3453217E1,7.148657E1,1.8177835E1,1.0571292E2,1.0912487E2,0E0,0E0,4.2246677E1,4.182245E1,0E0,0E0,5.0676834E1,0E0,2.3514175E1,4.6355743E1,0E0,0E0,0E0,3.1604824E1,0E0,1.23332214E2,2.631903E1,1.01499664E2,0E0,0E0,2.6714355E1,4.1105602E1,0E0,2.3057396E1,4.9659145E1,2.1262863E1,0E0,0E0,0E0,0E0,0E0,0E0,7.729393E0,3.4060146E1,7.022385E1,0E0,7.62865E1,1.4847107E1,0E0,0E0,1.6128517E1,3.4373405E1,3.410676E1,0E0,1.1668152E1,0E0,0E0,0E0,0E0,0E0,2.5905796E1,0E0,1.2656082E1,0E0,8.554016E0,6.2437683E1,0E0,1.1110443E1,0E0,0E0,3.9929897E1,0E0,0E0,0E0,3.4448788E1,0E0,0E0,0E0,0E0,0E0,0E0,0E0,0E0,0E0,0E0,0E0,0E0,0E0],"parents":[2147483647,0,0,1,1,2,2,3,3,5,5,6,6,7,7,9,9,10,10,11,11,12,12,13,13,15,15,16,16,17,17,19,19,20,20,22,22,23,23,25,25,27,27,30,30,31,31,32,32,33,33,34,34,37,37,38,38,41,41,43,43,44,44,48,48,50,50,51,51,52,52,55,55,56,56,58,58,59,59,60,60,67,67,68,68,69,69,71,71,72,72,75,75,76,76,77,77,79,79,85,85,87,87,89,89,90,90,92,92,95,95,99,99],"right_children":[2,4,6,8,-1,10,12,14,-1,16,18,20,22,24,-1,26,28,30,-1,32,34,-1,36,38,-1,40,-1,42,-1,-1,44,46,48,50,52,-1,-1,54,56,-1,-1,58,-1,60,62,-1,-1,-1,64,-1,66,68,70,-1,-1,72,74,-1,76,78,80,-1,-1,-1,-1,-1,-1,82,84,86,-1,88,90,-1,-1,92,94,96,-1,98,-1,-1,-1,-1,-1,100,-1,102,-1,104,106,-1,108,-1,-1,110,-1,-1,-1,112,-1,-1,-1,-1,-1,-1,-1,-1,-1,-1,-1,-1,-1],"split_conditions":[1.199E1,1.0518527E9,1.6874886E8,2.1208581E-1,-9.298088E-3,3.888889E-1,1.4265734E-1,5.3917354E-1,-8.98119E-3,1.5882353E0,5.635053E1,1.5455213E0,1.2E1,2.9364872E-1,-8.758204E-3,5E-1,2.808611E-1,-3.5E1,-8.98359E-3,5E2,4.9977174E-1,-8.754765E-3,6.851471E6,-2.4201506E-1,-8.385705E-3,1.3846154E0,-9.675492E-3,1.3707024E2,-9.261374E-3,-8.644001E-3,7.3333335E0,2.535413E1,-7.87E0,1.5506303E0,-2.439E1,-0E0,8.575259E-3,-8.5E-1,3.7958133E0,-9.167849E-3,6.796673E-3,2.451433E0,-8.918541E-3,1.071637E0,1.1368334E2,8.138038E-3,-9.7188195E-3,9.042996E-3,-1.365003E-1,7.833007E-3,1.2725E2,5.5517906E-1,3.0299526E-1,8.103956E-3,-8.892588E-3,6.3265306E-1,5.356518E5,-8.399553E-3,-1.1479E2,1.1183977E2,1.6177288E-1,-8.983334E-3,8.240774E-3,8.231147E-3,-8.167141E-3,-9.686585E-3,7.132956E-3,1.927E1,-7E-2,9.231261E-3,-9.5215915E-3,2.23E2,4.414687E-3,8.171879E-3,-8.766856E-3,-9E0,2.5453584E0,1.5714285E0,-8.555196E-3,5.6708094E-2,4.370174E-5,8.995286E-3,2.440558E-3,-8.343898E-3,8.181501E-3,7.180115E1,-8.920898E-3,1.4159292E-1,-8.877518E-3,2.0207259E-1,1.9E1,4.1028485E-4,7.60686E7,8.169203E-3,-8.427915E-3,4.8434763E2,7.313612E-3,8.677669E-3,1.739107E-3,-5.9809012E0,8.558753E-3,4.7074496E-3,9.4068535E-3,8.473388E-3,3.7080268E-3,-8.520833E-3,7.5555467E-3,8.823814E-3,1.7943901E-3,-8.740247E-3,8.2423035E-3,8.269542E-3,-8.351536E-3],"split_indices":[60,18,2,63,0,54,51,110,0,34,121,29,73,82,0,98,83,12,0,52,77,0,3,110,0,103,0,85,0,0,103,96,56,29,81,0,0,49,94,0,0,68,0,29,33,0,0,0,124,0,73,77,83,0,0,98,2,0,123,85,14,0,0,0,0,0,0,52,56,6,0,95,6,0,0,12,68,34,0,25,0,0,0,0,0,33,0,51,0,112,35,0,104,0,0,17,0,0,0,93,0,0,0,0,0,0,0,0,0,0,0,0,0],"split_type":[0,0,0,0,0,0,0,0,0,0,0,0,0,0,0,0,0,0,0,0,0,0,0,0,0,0,0,0,0,0,0,0,0,0,0,0,0,0,0,0,0,0,0,0,0,0,0,0,0,0,0,0,0,0,0,0,0,0,0,0,0,0,0,0,0,0,0,0,0,0,0,0,0,0,0,0,0,0,0,0,0,0,0,0,0,0,0,0,0,0,0,0,0,0,0,0,0,0,0,0,0,0,0,0,0,0,0,0,0,0,0,0,0],"sum_hessian":[1.3333561E3,4.2422888E2,9.0912726E2,4.0524576E2,1.8983105E1,3.9530655E2,5.138207E2,3.9375638E2,1.148938E1,1.8565797E2,2.0964859E2,4.6160275E2,5.2217945E1,3.8551108E2,8.245316E0,7.3391556E1,1.1226642E2,1.9840765E2,1.1240932E1,2.0141296E2,2.601898E2,8.991066E0,4.322688E1,3.7926602E2,6.245057E0,2.3423445E1,4.996811E1,9.552942E1,1.6736998E1,7.992307E0,1.9041534E2,1.80278E2,2.1134954E1,1.27493935E2,1.3269585E2,1.0205531E1,3.3021347E1,1.4454969E1,3.6481104E2,1.1497979E1,1.1925467E1,8.503847E1,1.0490953E1,1.7396118E2,1.6454172E1,5.211181E0,1.7506682E2,1.0426922E1,1.0708032E1,1.1174518E1,1.1631941E2,5.1688534E1,8.100732E1,5.210062E0,9.244907E0,3.5085638E2,1.3954661E1,6.2451215E0,7.879334E1,6.1689735E1,1.1227144E2,1.1240625E1,5.2135468E0,5.213388E0,5.4946437E0,1.0464419E2,1.1675224E1,4.0232246E1,1.1456287E1,4.4293453E1,3.6713867E1,1.21103676E2,2.297527E2,5.2121253E0,8.742536E0,6.733512E1,1.1458225E1,5.4694393E1,6.995341E0,1.0231151E2,9.959932E0,3.227301E1,7.9592366E0,6.2439237E0,5.212364E0,3.3305004E1,1.0988446E1,1.11859406E2,9.244271E0,1.9370032E2,3.605238E1,9.71095E0,5.762417E1,5.2120566E0,6.2461686E0,1.3209141E1,4.1485252E1,9.384957E1,8.461935E0,1.145802E1,2.1846985E1,9.1012024E1,2.0847382E1,1.7903046E2,1.4669857E1,6.9941735E0,2.9058207E1,4.916316E1,8.461009E0,7.9955707E0,5.2135706E0,5.213946E0,6.2440743E0],"tree_param":{"num_deleted":"0","num_feature":"125","num_nodes":"113","size_leaf_vector":"1"}},{"base_weights":[-1.0306913E-2,8.5936517E-1,-4.5015532E-1,9.912899E-1,-9.284074E-3,-7.1084666E-1,4.9325654E-1,1.1949902E0,-0E0,-1.4083257E-2,-1.0573403E0,6.551925E-1,-9.0027405E-3,1.246655E0,-8.2667535E-3,-9.428061E-3,1.1538527E0,-7.328426E-1,5.383482E-1,-1.3946427E0,-1.1298917E-1,-8.72037E-3,7.910808E-1,-8.117105E-3,1.2952728E0,8.147731E-3,-1.3222893E-1,8.673153E-1,-1.3650584E0,7.975739E-1,-8.991283E-3,-1.6372243E0,-2.631681E-1,-1.257148E0,1.0521854E0,9.202764E-1,-8.5860565E-3,1.3658586E0,-3.670759E-1,8.174469E-3,-8.38901E-3,7.681364E-3,-8.140382E-3,-9.63406E-3,1.4405692E-1,9.55069E-1,-8.3548445E-3,-1.9515811E-1,-1.8430501E0,8.0656964E-1,-1.2573262E0,3.728289E-1,-9.5268665E-3,-8.267581E-3,1.3761252E0,1.0483754E0,-8.511148E-3,9.149819E-1,1.5926013E0,-8.750834E-3,8.183597E-3,7.8507755E-3,-8.646069E-3,3.6494124E-1,1.4552637E0,1.2162817E0,-9.168446E-3,-9.708002E-3,6.070193E-3,-1.8538304E-1,7.679463E-3,5.617844E-3,-9.435928E-3,-8.360944E-3,8.560814E-3,1.1578487E-3,7.960182E-3,1.152068E0,-8.103507E-3,1.120961E0,-8.799597E-3,1.6348749E0,1.9709733E-3,1.0712166E0,-9.000657E-3,8.3364565E-3,1.1517676E-3,9.034756E-3,1.7655535E-3,-8.499666E-3,8.074737E-3,1.5698521E0,6.525872E-1,9.350247E-1,8.923086E-3,8.4711835E-3,2.0480573E-3,-8.342982E-3,8.039727E-3,2.005107E-3,8.51295E-3,1.115927E0,-8.8993125E-3,5.2826335E-3,8.749983E-5,-8.061173E-3,7.098338E-3],"categories":[],"categories_nodes":[],"categories_segments":[],"categories_sizes":[],"default_left":[0,0,0,0,0,0,0,0,0,0,0,0,0,0,0,0,0,0,0,0,0,0,0,0,0,0,0,0,0,0,0,0,0,0,0,0,0,0,0,0,0,0,0,0,0,0,0,0,0,0,0,0,0,0,0,0,0,0,0,0,0,0,0,0,0,0,0,0,0,0,0,0,0,0,0,0,0,0,0,0,0,0,0,0,0,0,0,0,0,0,0,0,0,0,0,0,0,0,0,0,0,0,0,0,0,0,0],"id":8,"left_children":[1,3,5,7,-1,9,11,13,15,17,19,21,-1,23,-1,-1,25,27,29,31,33,-1,35,-1,37,-1,39,41,43,45,-1,47,49,51,53,55,-1,57,59,-1,-1,-1,-1,-1,61,63,-1,65,67,69,71,73,-1,-1,75,77,-1,79,81,-1,-1,-1,-1,83,85,87,-1,-1,-1,89,-1,-1,-1,-1,-1,-1,-1,91,-1,93,-1,95,-1,97,-1,-1,-1,-1,-1,-1,-1,99,101,103,-1,-1,-1,-1,-1,-1,-1,105,-1,-1,-1,-1,-1],"loss_changes":[5.1127573E2,1.603346E2,2.1895822E2,8.627368E1,0E0,1.6750989E2,7.078787E1,5.2998962E1,1.6045148E2,9.287281E1,1.4686328E2,5.8532593E1,0E0,4.9597656E1,0E0,0E0,2.8628784E1,1.0437222E2,7.925981E1,9.2156494E1,1.6578217E2,0E0,5.5545357E1,0E0,4.1452515E1,0E0,3.482022E1,4.859855E1,6.2197006E1,4.6454575E1,0E0,8.162158E1,6.653842E1,6.646674E1,5.4629494E1,5.523178E1,0E0,3.1027893E1,4.018236E1,0E0,0E0,0E0,0E0,0E0,5.3524464E1,3.1508987E1,0E0,8.484315E1,6.336438E1,2.229287E1,4.9272892E1,4.9651447E1,0E0,0E0,1.1247742E1,4.3892685E1,0E0,6.2807137E1,9.165649E0,0E0,0E0,0E0,0E0,8.132333E1,1.2921303E1,7.726774E0,0E0,0E0,0E0,3.546225E1,0E0,0E0,0E0,0E0,0E0,0E0,0E0,2.9248718E1,0E0,9.694473E0,0E0,9.627441E0,0E0,5.9550762E1,0E0,0E0,0E0,0E0,0E0,0E0,0E0,9.2651825E0,7.999415E1,7.9108505E0,0E0,0E0,0E0,0E0,0E0,0E0,0E0,4.8790398E1,0E0,0E0,0E0,0E0,0E0],"parents":[2147483647,0,0,1,1,2,2,3,3,5,5,6,6,7,7,8,8,9,9,10,10,11,11,13,13,16,16,17,17,18,18,19,19,20,20,22,22,24,24,26,26,27,27,28,28,29,29,31,31,32,32,33,33,34,34,35,35,37,37,38,38,44,44,45,45,47,47,48,48,49,49,50,50,51,51,54,54,55,55,57,57,58,58,63,63,64,64,65,65,69,69,77,77,79,79,81,81,83,83,91,91,92,92,93,93,101,101],"right_children":[2,4,6,8,-1,10,12,14,16,18,20,22,-1,24,-1,-1,26,28,30,32,34,-1,36,-1,38,-1,40,42,44,46,-1,48,50,52,54,56,-1,58,60,-1,-1,-1,-1,-1,62,64,-1,66,68,70,72,74,-1,-1,76,78,-1,80,82,-1,-1,-1,-1,84,86,88,-1,-1,-1,90,-1,-1,-1,-1,-1,-1,-1,92,-1,94,-1,96,-1,98,-1,-1,-1,-1,-1,-1,-1,100,102,104,-1,-1,-1,-1,-1,-1,-1,106,-1,-1,-1,-1,-1],"split_conditions":[1.199E1,1.0518527E9,2.063E1,5.3362628E-3,-9.284074E-3,7.276149E1,3.3330735E-2,2.88814E-1,1.9339193E-1,2.2165E1,1.452297E1,-2.5986046E-1,-9.0027405E-3,-4.4770926E-1,-8.2667535E-3,-9.428061E-3,2.7501488E0,-6.327997E-1,2.5731707E-1,-1.8474436E1,2.0122592E-1,-8.72037E-3,4.033658E1,-8.117105E-3,2.6921727E-5,8.147731E-3,6.115854E-1,3.75E-1,7.384E1,7.828094E8,-8.991283E-3,-1.748327E-16,2.73E0,1.3E-1,-1.499E1,2.4746142E-1,-8.5860565E-3,6.385542E-1,2.2567973E-1,8.174469E-3,-8.38901E-3,7.681364E-3,-8.140382E-3,-9.63406E-3,2.534253E5,1.4448349E-1,-8.3548445E-3,1.2986862E1,4.6922517E0,2.9711256E0,-3.6647207E-1,1.4E1,-9.5268665E-3,-8.267581E-3,-1.1173234E0,8.641394E-2,-8.511148E-3,4.897541E-1,-2.5E-1,-8.750834E-3,8.183597E-3,7.8507755E-3,-8.646069E-3,1.3E1,4.8704743E-1,-1.0760926E-1,-9.168446E-3,-9.708002E-3,6.070193E-3,2.1627487E-1,7.679463E-3,5.617844E-3,-9.435928E-3,-8.360944E-3,8.560814E-3,1.1578487E-3,7.960182E-3,3.93E1,-8.103507E-3,8.101224E3,-8.799597E-3,1.5085641E-2,1.9709733E-3,2.0296107E-1,-9.000657E-3,8.3364565E-3,1.1517676E-3,9.034756E-3,1.7655535E-3,-8.499666E-3,8.074737E-3,5.29E0,7.402934E-1,7.279103E2,8.923086E-3,8.4711835E-3,2.0480573E-3,-8.342982E-3,8.039727E-3,2.005107E-3,8.51295E-3,-6.51E0,-8.8993125E-3,5.2826335E-3,8.749983E-5,-8.061173E-3,7.098338E-3],"split_indices":[60,18,21,19,0,17,117,76,92,52,90,114,0,70,0,0,68,112,28,32,92,0,43,0,124,0,33,86,53,104,0,20,53,52,81,110,0,98,9,0,0,0,0,0,104,14,0,97,99,68,124,48,0,0,76,25,0,41,56,0,0,0,0,57,83,124,0,0,0,15,0,0,0,0,0,0,0,21,0,18,0,6,0,20,0,0,0,0,0,0,0,53,98,104,0,0,0,0,0,0,0,12,0,0,0,0,0],"split_type":[0,0,0,0,0,0,0,0,0,0,0,0,0,0,0,0,0,0,0,0,0,0,0,0,0,0,0,0,0,0,0,0,0,0,0,0,0,0,0,0,0,0,0,0,0,0,0,0,0,0,0,0,0,0,0,0,0,0,0,0,0,0,0,0,0,0,0,0,0,0,0,0,0,0,0,0,0,0,0,0,0,0,0,0,0,0,0,0,0,0,0,0,0,0,0,0,0,0,0,0,0,0,0,0,0,0,0],"sum_hessian":[1.336131E3,4.4801443E2,8.881165E2,4.2778845E2,2.0225985E1,6.965798E2,1.9153674E2,3.5459656E2,7.3191895E1,2.3228662E2,4.6429318E2,1.7954987E2,1.1986884E1,3.4885165E2,5.7448936E0,2.7719364E1,4.5472527E1,1.01447334E2,1.3083928E2,3.4129782E2,1.2299535E2,8.9885845E0,1.7056128E2,5.2450843E0,3.4360657E2,3.3767113E1,1.1705414E1,2.8328918E1,7.3118416E1,1.1835527E2,1.2484014E1,2.802687E2,6.1029118E1,6.235685E1,6.0638504E1,1.6282027E2,7.7410045E0,3.3014993E2,1.34566555E1,5.2121906E0,6.4932237E0,2.283572E1,5.4931974E0,5.394925E1,1.916917E1,1.1186375E2,6.491527E0,3.561275E1,2.4465594E2,2.9090899E1,3.193822E1,1.7165194E1,4.5191658E1,5.992997E0,5.4645504E1,1.5582727E2,6.992994E0,1.1263105E2,2.1751888E2,8.244242E0,5.212414E0,1.1177319E1,7.991852E0,5.2500847E1,5.93629E1,1.8884762E1,1.6727987E1,2.3869739E2,5.958568E0,1.1954156E1,1.7136742E1,6.2122817E0,2.5725937E1,6.4916587E0,1.0673534E1,8.956248E0,4.568926E1,1.5058253E2,5.2447367E0,1.0513287E2,7.4981756E0,2.0930771E2,8.211161E0,4.001624E1,1.2484607E1,5.0403828E1,8.95907E0,1.0426519E1,8.458243E0,6.74519E0,5.2089663E0,8.045197E1,7.013057E1,8.379035E1,2.1342522E1,2.0109859E2,8.2091255E0,5.9954786E0,3.402076E1,8.207096E0,7.224487E1,5.9392796E1,1.0737776E1,7.382936E1,9.960986E0,5.243036E0,5.4149757E1],"tree_param":{"num_deleted":"0","num_feature":"125","num_nodes":"107","size_leaf_vector":"1"}},{"base_weights":[-7.485183E-3,5.554901E-1,-5.854402E-1,1.1837296E0,2.0043828E-1,-7.470975E-1,8.5170877E-1,-8.419738E-3,1.2647148E0,-6.5121347E-1,6.318418E-1,-1.2334557E0,-1.3506666E-1,1.2665555E0,-8.669796E-3,8.36694E-1,1.508201E0,3.7686193E-1,-9.631565E-3,-9.1842245E-3,8.0213165E-1,-1.4927565E0,6.641563E-1,-1.0418799E0,3.6837414E-1,1.6262223E0,-9.338831E-2,4.9485676E-3,-7.261985E-2,1.6110873E0,8.861562E-5,-6.817886E-1,1.1580288E0,9.0649873E-1,-8.866619E-3,-1.21367194E-1,-1.674841E0,1.4902049E0,-8.711986E-3,-1.6268235E0,1.0898567E0,-9.220922E-3,6.790062E-1,9.28985E-3,2.3913574E-3,8.149719E-3,-8.305299E-3,8.120913E-3,-8.382589E-3,1.3925415E-3,8.544991E-3,-9.2320405E-3,2.6826528E-1,8.306446E-3,-1.6796269E-1,1.0848715E0,-4.7649515E-1,1.2106934E0,-9.092031E-3,-3.8011312E-3,-1.8264743E0,2.4905372E-3,9.110574E-3,-9.560884E-3,8.03334E-3,8.941966E-3,8.892903E-4,8.734722E-1,-8.804165E-3,6.388873E-3,-8.303365E-3,-8.446262E-3,8.186947E-3,-8.228992E-3,1.1661477E0,-9.160815E-3,6.450194E-3,1.7220096E-3,9.020505E-3,8.532372E-3,-8.855718E-3,-9.647299E-3,4.921905E-3,1.0237669E0,-8.410671E-3,1.3256215E0,9.265134E-2,1.1724641E0,-8.284181E-3,3.8746268E-1,1.4636605E0,-9.004152E-3,1.2374568E0,8.752038E-3,7.0198154E-1,6.68639E-3,-8.6638415E-3,5.8594195E-4,7.7622123E-3,8.956267E-3,1.972534E-3,5.7172887E-3,-8.812685E-3],"categories":[],"categories_nodes":[],"categories_segments":[],"categories_sizes":[],"default_left":[0,0,0,0,0,0,0,0,0,0,0,0,0,0,0,0,0,0,0,0,0,0,0,0,0,0,0,0,0,0,0,0,0,0,0,0,0,0,0,0,0,0,0,0,0,0,0,0,0,0,0,0,0,0,0,0,0,0,0,0,0,0,0,0,0,0,0,0,0,0,0,0,0,0,0,0,0,0,0,0,0,0,0,0,0,0,0,0,0,0,0,0,0,0,0,0,0,0,0,0,0,0,0],"id":9,"left_children":[1,3,5,7,9,11,13,-1,15,17,19,21,23,25,-1,27,29,31,-1,-1,33,35,37,39,41,43,45,-1,47,49,-1,51,53,55,-1,57,59,61,-1,63,65,-1,67,-1,-1,-1,-1,-1,-1,-1,-1,-1,69,-1,71,73,75,77,-1,79,81,-1,-1,-1,-1,-1,-1,83,-1,-1,-1,-1,-1,-1,85,-1,-1,-1,-1,-1,-1,-1,-1,87,-1,89,91,93,-1,95,97,-1,99,-1,101,-1,-1,-1,-1,-1,-1,-1,-1],"loss_changes":[4.2787186E2,1.4724919E2,1.5121272E2,5.6335968E1,1.570073E2,1.7289334E2,7.087456E1,0E0,2.1779816E1,1.8690335E2,1.18837944E2,1.6115555E2,1.19555046E2,2.9125717E1,0E0,1.2187851E1,2.1287964E1,6.619014E1,0E0,0E0,7.154492E1,7.006067E1,7.879108E1,1.1822285E2,1.1406965E2,9.055717E0,3.3762974E1,0E0,3.3364838E1,1.3485321E1,0E0,3.8082104E1,3.1186756E1,6.409213E1,0E0,7.9609436E1,6.256842E1,7.0760345E0,0E0,6.622713E1,1.0987295E1,0E0,6.976389E1,0E0,0E0,0E0,0E0,0E0,0E0,0E0,0E0,0E0,3.6480083E1,0E0,3.5696056E1,5.118402E1,7.07316E1,7.8249397E0,0E0,6.737317E1,5.796283E1,0E0,0E0,0E0,0E0,0E0,0E0,5.2939194E1,0E0,0E0,0E0,0E0,0E0,0E0,3.6868286E1,0E0,0E0,0E0,0E0,0E0,0E0,0E0,0E0,5.2430374E1,0E0,2.3207031E1,6.546319E1,3.0225449E1,0E0,5.3009914E1,1.5673187E1,0E0,6.718836E0,0E0,7.40222E1,0E0,0E0,0E0,0E0,0E0,0E0,0E0,0E0],"parents":[2147483647,0,0,1,1,2,2,3,3,4,4,5,5,6,6,8,8,9,9,10,10,11,11,12,12,13,13,15,15,16,16,17,17,20,20,21,21,22,22,23,23,24,24,25,25,26,26,28,28,29,29,31,31,32,32,33,33,35,35,36,36,37,37,39,39,40,40,42,42,52,52,54,54,55,55,56,56,57,57,59,59,60,60,67,67,74,74,83,83,85,85,86,86,87,87,89,89,90,90,92,92,94,94],"right_children":[2,4,6,8,10,12,14,-1,16,18,20,22,24,26,-1,28,30,32,-1,-1,34,36,38,40,42,44,46,-1,48,50,-1,52,54,56,-1,58,60,62,-1,64,66,-1,68,-1,-1,-1,-1,-1,-1,-1,-1,-1,70,-1,72,74,76,78,-1,80,82,-1,-1,-1,-1,-1,-1,84,-1,-1,-1,-1,-1,-1,86,-1,-1,-1,-1,-1,-1,-1,-1,88,-1,90,92,94,-1,96,98,-1,100,-1,102,-1,-1,-1,-1,-1,-1,-1,-1],"split_conditions":[1.6874886E8,1.01E0,3.2884616E-1,-1.4620392E0,8.907656E0,3.2222223E0,1.45E1,-8.419738E-3,6.3095236E-1,5.461E-2,-3.440363E-1,1.7453442E1,4.8265854E-1,3.586E2,-8.669796E-3,4.2805938E5,6.86E0,2.3655914E-1,-9.631565E-3,-9.1842245E-3,2.6502663E-1,2.2737331E0,-2.1488863E-1,2.1428572E-1,-8.493402E-2,1E1,-4.9288625E-1,4.9485676E-3,-7.436043E-1,-1.0450472E-1,8.861562E-5,4.318182E-1,2.2955604E0,6.7777777E0,-8.866619E-3,-3.2560688E-2,9.783713E-1,3.75476E1,-8.711986E-3,3.14E1,-4.190396E0,-9.220922E-3,8.95916E2,9.28985E-3,2.3913574E-3,8.149719E-3,-8.305299E-3,8.120913E-3,-8.382589E-3,1.3925415E-3,8.544991E-3,-9.2320405E-3,6.3470432E1,8.306446E-3,3.1654677E-1,-3.351E1,1.7124825E0,8.4126005E-3,-9.092031E-3,-1.2665667E-1,-4.5424187E-1,2.4905372E-3,9.110574E-3,-9.560884E-3,8.03334E-3,8.941966E-3,8.892903E-4,3.7741116E2,-8.804165E-3,6.388873E-3,-8.303365E-3,-8.446262E-3,8.186947E-3,-8.228992E-3,1.718743E-1,-9.160815E-3,6.450194E-3,1.7220096E-3,9.020505E-3,8.532372E-3,-8.855718E-3,-9.647299E-3,4.921905E-3,-1.1348461E0,-8.410671E-3,1.1333333E0,1.9998096E-1,-2.3E1,-8.284181E-3,7.4333336E1,0E0,-9.004152E-3,-6.9770724E-1,8.752038E-3,2.0090115E4,6.68639E-3,-8.6638415E-3,5.8594195E-4,7.7622123E-3,8.956267E-3,1.972534E-3,5.7172887E-3,-8.812685E-3],"split_indices":[2,60,38,100,26,30,87,0,98,92,67,100,77,60,0,78,55,54,0,0,117,68,66,61,114,57,20,0,79,70,0,41,68,103,0,66,33,43,0,103,76,0,1,0,0,0,0,0,0,0,0,0,96,0,38,12,20,4,0,20,69,0,0,0,0,0,0,119,0,0,0,0,0,0,88,0,0,0,0,0,0,0,0,64,0,103,92,81,0,1,79,0,23,0,116,0,0,0,0,0,0,0,0],"split_type":[0,0,0,0,0,0,0,0,0,0,0,0,0,0,0,0,0,0,0,0,0,0,0,0,0,0,0,0,0,0,0,0,0,0,0,0,0,0,0,0,0,0,0,0,0,0,0,0,0,0,0,0,0,0,0,0,0,0,0,0,0,0,0,0,0,0,0,0,0,0,0,0,0,0,0,0,0,0,0,0,0,0,0,0,0,0,0,0,0,0,0,0,0,0,0,0,0,0,0,0,0,0,0],"sum_hessian":[1.3136968E3,6.648281E2,6.488687E2,2.3877155E2,4.260566E2,5.839988E2,6.4869934E1,5.996431E0,2.3277512E2,1.4256282E2,2.8349377E2,3.243734E2,2.5962534E2,5.6380676E1,8.489254E0,8.652325E1,1.4625188E2,7.838644E1,6.417638E1,1.7723408E1,2.657704E2,2.858422E2,3.853121E1,9.297543E1,1.6664992E2,4.4927288E1,1.1453387E1,7.5316635E1,1.120661E1,1.3629173E2,9.960137E0,3.29086E1,4.547784E1,2.5603012E2,9.740245E0,3.410807E1,2.5173413E2,2.9047693E1,9.483518E0,7.334814E1,1.9627293E1,1.9967382E1,1.4668253E2,3.696998E1,7.957312E0,5.211526E0,6.241862E0,5.2106404E0,5.9959693E0,8.705698E0,1.2758604E2,1.49897E1,1.7918901E1,3.352344E1,1.1954395E1,2.2737985E2,2.8650282E1,1.8881336E1,1.5226734E1,2.1406685E1,2.3032744E2,7.9589543E0,2.108874E1,6.8140945E1,5.207194E0,1.0422444E1,9.204847E0,1.3644852E2,1.0234015E1,1.2172717E1,5.746184E0,6.741903E0,5.212493E0,5.991166E0,2.2138869E2,1.6477222E1,1.2173059E1,8.456434E0,1.0424902E1,1.0672456E1,1.0734229E1,2.2386978E2,6.4576607E0,1.2945995E2,6.988573E0,1.9201878E2,2.9369892E1,1.2321956E2,6.240386E0,2.5630287E1,1.663885E2,1.0741998E1,1.8627895E1,5.4598076E1,6.862148E1,1.8134312E1,7.495975E0,9.455673E0,1.5693283E2,1.0422855E1,8.205039E0,5.888302E1,9.738463E0],"tree_param":{"num_deleted":"0","num_feature":"125","num_nodes":"103","size_leaf_vector":"1"}},{"base_weights":[2.4999058E-2,7.517473E-1,-4.2985076E-1,8.9410347E-1,-9.320417E-3,2.0469806E-1,-8.976051E-1,-1.0113817E0,9.9231946E-1,-4.5879554E-2,1.4256535E0,-1.1061617E0,1.9649285E-1,-9.165654E-3,5.99314E-3,1.0641328E0,-8.906478E-3,-5.1343626E-1,6.3082206E-1,8.417937E-3,3.809105E-4,-1.34697E0,-1.0523338E-1,1.3202946E0,-8.510399E-1,1.1325645E0,-8.802745E-3,-1.3841206E0,1.8735062E-1,9.5972615E-1,-9.038401E-3,-1.5023844E0,4.9091482E-1,4.9195105E-1,-9.195514E-3,8.8517455E-4,8.39033E-3,-9.317072E-3,6.358316E-3,1.169208E0,-8.160237E-3,-9.591397E-3,7.157924E-1,7.0171076E-1,-9.241066E-3,-8.572153E-3,1.1680086E0,9.001912E-2,-1.7511619E0,-8.521046E-3,8.092118E-3,-8.897778E-3,1.1393983E0,1.2668301E0,1.3424598E-1,8.283565E-3,3.8324334E-4,1.0052526E0,-8.582773E-3,-8.100579E-3,1.3516229E0,-9.0910485E-3,7.407973E-3,-1.8264773E0,3.558864E-3,-0E0,1.4868299E0,1.4331508E0,8.090304E-1,-9.1560725E-3,8.333186E-3,8.1852665E-3,3.6690557E-1,-5.9124758E-3,1.5431485E0,-9.613132E-3,2.085349E-3,8.263841E-3,-8.04485E-3,1.8463326E-3,9.075E-3,5.989476E-1,1.5285295E0,-8.429944E-3,9.692419E-1,-8.557189E-3,1.0328856E0,-8.154968E-3,8.185765E-3,8.353274E-3,2.0550007E-3,6.977215E-3,-8.6680595E-3,8.133686E-3,4.0757824E-3,2.8447346E-3,7.1063144E-3,-0E0,8.40519E-3],"categories":[],"categories_nodes":[],"categories_segments":[],"categories_sizes":[],"default_left":[0,0,0,0,0,0,0,0,0,0,0,0,0,0,0,0,0,0,0,0,0,0,0,0,0,0,0,0,0,0,0,0,0,0,0,0,0,0,0,0,0,0,0,0,0,0,0,0,0,0,0,0,0,0,0,0,0,0,0,0,0,0,0,0,0,0,0,0,0,0,0,0,0,0,0,0,0,0,0,0,0,0,0,0,0,0,0,0,0,0,0,0,0,0,0,0,0,0,0],"id":10,"left_children":[1,3,5,7,-1,9,11,13,15,17,19,21,23,-1,-1,25,-1,27,29,-1,-1,31,33,35,37,39,-1,41,43,45,-1,47,49,51,-1,-1,-1,-1,-1,53,-1,-1,55,57,-1,-1,59,61,63,-1,-1,-1,65,67,69,-1,-1,71,-1,-1,73,-1,-1,75,-1,77,79,81,83,-1,-1,-1,85,87,89,-1,-1,-1,-1,-1,-1,91,93,-1,95,-1,97,-1,-1,-1,-1,-1,-1,-1,-1,-1,-1,-1,-1],"loss_changes":[4.4465933E2,1.9210583E2,2.4588728E2,9.2681366E1,0E0,1.0829524E2,1.0953531E2,4.447519E1,9.34635E1,9.2146774E1,1.8422882E1,9.543964E1,9.079955E1,0E0,0E0,8.870361E1,0E0,1.0662924E2,9.488014E1,0E0,0E0,9.332141E1,8.263935E1,1.3137444E1,8.501566E1,4.5908447E1,0E0,8.6255615E1,9.963081E1,5.900699E1,0E0,1.1933368E2,6.2924885E1,8.669704E1,0E0,0E0,0E0,0E0,0E0,4.3483337E1,0E0,0E0,7.8513136E0,5.6882984E1,0E0,0E0,5.109117E1,1.06940544E2,4.9391724E1,0E0,0E0,0E0,1.861504E1,2.8281616E1,1.1852356E2,0E0,0E0,2.5444244E1,0E0,0E0,2.5211334E1,0E0,0E0,4.6496826E1,0E0,3.1236996E1,1.0456741E1,2.1194702E1,4.421569E1,0E0,0E0,0E0,4.9326958E1,3.2024952E1,8.533752E0,0E0,0E0,0E0,0E0,0E0,0E0,5.9357254E1,1.332489E1,0E0,1.6568947E1,0E0,1.7950035E1,0E0,0E0,0E0,0E0,0E0,0E0,0E0,0E0,0E0,0E0,0E0,0E0],"parents":[2147483647,0,0,1,1,2,2,3,3,5,5,6,6,7,7,8,8,9,9,10,10,11,11,12,12,15,15,17,17,18,18,21,21,22,22,23,23,24,24,25,25,27,27,28,28,29,29,31,31,32,32,33,33,39,39,42,42,43,43,46,46,47,47,48,48,52,52,53,53,54,54,57,57,60,60,63,63,65,65,66,66,67,67,68,68,72,72,73,73,74,74,81,81,82,82,84,84,86,86],"right_children":[2,4,6,8,-1,10,12,14,16,18,20,22,24,-1,-1,26,-1,28,30,-1,-1,32,34,36,38,40,-1,42,44,46,-1,48,50,52,-1,-1,-1,-1,-1,54,-1,-1,56,58,-1,-1,60,62,64,-1,-1,-1,66,68,70,-1,-1,72,-1,-1,74,-1,-1,76,-1,78,80,82,84,-1,-1,-1,86,88,90,-1,-1,-1,-1,-1,-1,92,94,-1,96,-1,98,-1,-1,-1,-1,-1,-1,-1,-1,-1,-1,-1,-1],"split_conditions":[3.628E1,1.0518527E9,1.6874886E8,-1.5768622E-1,-9.320417E-3,1.9027027E1,6.6666665E0,2.5121479E-15,2.88814E-1,5E-1,4.688057E-2,6.644113E0,2.846154E-1,-9.165654E-3,5.99314E-3,4.111455E-2,-8.906478E-3,5.4888077E-2,6.75E-1,8.417937E-3,3.809105E-4,6.2324E2,7.5914633E-1,1.544928E-1,1.7158443E-1,7.6380354E-1,-8.802745E-3,3.6632035E0,7.657658E-1,1.7661192E2,-9.038401E-3,1.4E0,6.826986E-1,3.9440992E-1,-9.195514E-3,8.8517455E-4,8.39033E-3,-9.317072E-3,6.358316E-3,9.143444E7,-8.160237E-3,-9.591397E-3,3.815888E1,1.0191798E7,-9.241066E-3,-8.572153E-3,-9.470937E-3,1E0,1.6802325E0,-8.521046E-3,8.092118E-3,-8.897778E-3,2.6923078E-1,-7.038345E-1,4.5E1,8.283565E-3,3.8324334E-4,-1.5954E2,-8.582773E-3,-8.100579E-3,-8.99E0,-9.0910485E-3,7.407973E-3,1.4742659E2,3.558864E-3,-1.169384E0,1.8920138E-1,-7.5174534E-1,-1.986124E-1,-9.1560725E-3,8.333186E-3,8.1852665E-3,-1.0879723E0,2.665533E1,2.1532543E-2,-9.613132E-3,2.085349E-3,8.263841E-3,-8.04485E-3,1.8463326E-3,9.075E-3,3.69353E-2,1.3244986E4,-8.429944E-3,1.2765957E-1,-8.557189E-3,1.5E1,-8.154968E-3,8.185765E-3,8.353274E-3,2.0550007E-3,6.977215E-3,-8.6680595E-3,8.133686E-3,4.0757824E-3,2.8447346E-3,7.1063144E-3,-0E0,8.40519E-3],"split_indices":[60,18,2,67,0,90,30,50,76,54,25,109,86,0,0,19,0,25,118,0,0,55,98,14,13,110,0,68,98,96,0,91,83,41,0,0,0,0,0,101,0,0,96,101,0,0,114,7,50,0,0,0,54,64,35,0,0,123,0,0,12,0,0,107,0,23,102,80,64,0,0,0,69,33,107,0,0,0,0,0,0,25,116,0,86,0,16,0,0,0,0,0,0,0,0,0,0,0,0],"split_type":[0,0,0,0,0,0,0,0,0,0,0,0,0,0,0,0,0,0,0,0,0,0,0,0,0,0,0,0,0,0,0,0,0,0,0,0,0,0,0,0,0,0,0,0,0,0,0,0,0,0,0,0,0,0,0,0,0,0,0,0,0,0,0,0,0,0,0,0,0,0,0,0,0,0,0,0,0,0,0,0,0,0,0,0,0,0,0,0,0,0,0,0,0,0,0,0,0,0,0],"sum_hessian":[1.3432003E3,5.1753485E2,8.2566547E2,4.913317E2,2.6203188E1,3.4983456E2,4.7583093E2,2.3425365E1,4.679063E2,2.90253E2,5.9581573E1,4.0021912E2,7.5611824E1,1.7471224E1,5.9541416E0,4.5667276E2,1.1233544E1,1.7239612E2,1.1785686E2,4.987645E1,9.705122E0,3.218279E2,7.83912E1,3.6744545E1,3.886728E1,4.4643912E2,1.0233663E1,7.7084114E1,9.5312004E1,1.04376015E2,1.3480844E1,2.9721637E2,2.4611532E1,5.818064E1,2.0210554E1,9.203461E0,2.7541084E1,2.670037E1,1.2166907E1,4.4119324E2,5.2458715E0,6.2166553E1,1.49175625E1,7.658778E1,1.8724222E1,6.9943533E0,9.738166E1,3.9806377E1,2.5741E2,7.984189E0,1.6627344E1,1.2473708E1,4.5706932E1,4.0237576E2,3.881748E1,5.2141E0,9.703463E0,6.859993E1,7.9878564E0,5.491261E0,9.18904E1,1.6467855E1,2.3338524E1,2.502052E2,7.204806E0,1.0702286E1,3.5004646E1,2.9297153E2,1.09404236E2,1.6723507E1,2.2093971E1,3.377103E1,3.48289E1,1.0952515E1,8.093789E1,2.420018E2,8.20339E0,5.213876E0,5.4884095E0,8.456966E0,2.654768E1,3.1332193E1,2.6163934E2,5.9959397E0,1.03408295E2,7.986751E0,2.6842148E1,5.740049E0,5.2124653E0,7.273071E1,8.207177E0,2.3837225E1,7.4949694E0,2.3255864E2,2.9080694E1,5.5467125E1,4.7941174E1,1.0458606E1,1.6383543E1],"tree_param":{"num_deleted":"0","num_feature":"125","num_nodes":"99","size_leaf_vector":"1"}},{"base_weights":[-4.7837175E-2,4.6120912E-1,-7.1007985E-1,-1.5045543E0,6.16221E-1,8.709079E-2,-1.0514843E0,-9.438692E-3,6.6757454E-3,1.1595076E0,1.9600391E-1,5.8639127E-1,-1.081937E0,1.6338956E-1,-1.3428642E0,-8.461911E-3,1.2311422E0,4.0724316E-1,-9.377417E-3,8.3014816E-1,-8.779222E-3,-9.369563E-3,6.695816E-3,-9.147565E-3,8.362558E-1,-1.448589E0,5.2513075E-3,9.610879E-2,1.3089304E0,5.6118846E-1,-9.24226E-3,1.016781E0,-8.393145E-3,1.2716756E0,-8.536775E-3,-1.5624133E0,4.4475226E-3,7.3360563E-3,-8.68698E-3,1.0601009E0,1.5889018E0,1.0053571E-1,1.0312796E0,-7.973713E-3,1.1738197E0,7.968373E-3,-0E0,-1.6838038E0,2.7440605E-1,1.2335302E0,-8.7806275E-3,8.699714E-3,1.0281935E0,5.3823066E-1,-1.3599063E0,1.1693829E0,-8.552112E-3,1.4174824E0,1.3009606E-1,2.4448447E-3,-1.7514906E0,8.829585E-3,-8.397337E-3,1.3278575E0,-0E0,8.0190925E-3,-0E0,-4.730469E-1,1.0293875E0,7.954868E-3,-9.413941E-3,1.2778114E0,-8.141663E-3,1.5819036E0,6.425835E-4,8.798076E-3,-8.58891E-3,-9.573587E-3,-7.859737E-1,5.040713E-3,8.404692E-3,-1.1876392E0,5.1704035E-3,1.2434219E0,-8.243786E-3,1.3672994E0,-0E0,1.4453072E-3,8.840245E-3,4.9259355E-3,-9.201522E-3,-9.388232E-3,7.4626314E-3,7.1091037E-3,-0E0,-9.6406104E-5,7.514574E-3],"categories":[],"categories_nodes":[],"categories_segments":[],"categories_sizes":[],"default_left":[0,0,0,0,0,0,0,0,0,0,0,0,0,0,0,0,0,0,0,0,0,0,0,0,0,0,0,0,0,0,0,0,0,0,0,0,0,0,0,0,0,0,0,0,0,0,0,0,0,0,0,0,0,0,0,0,0,0,0,0,0,0,0,0,0,0,0,0,0,0,0,0,0,0,0,0,0,0,0,0,0,0,0,0,0,0,0,0,0,0,0,0,0,0,0,0,0],"id":11,"left_children":[1,3,5,7,9,11,13,-1,-1,15,17,19,21,23,25,-1,27,29,-1,31,-1,-1,-1,-1,33,35,-1,37,39,41,-1,43,-1,45,-1,47,-1,-1,-1,49,51,53,55,-1,57,-1,-1,59,61,63,-1,-1,65,67,69,71,-1,73,75,-1,77,-1,-1,79,-1,-1,-1,81,83,-1,-1,85,-1,87,-1,-1,-1,-1,89,-1,-1,91,-1,93,-1,95,-1,-1,-1,-1,-1,-1,-1,-1,-1,-1,-1],"loss_changes":[4.4227542E2,2.2566484E2,1.560621E2,5.802233E1,1.5579831E2,9.983843E1,1.42681E2,0E0,0E0,6.1719757E1,1.6838129E2,6.8682816E1,9.722574E1,1.0329617E2,8.275067E1,0E0,2.4667542E1,1.2168378E2,0E0,5.1761566E1,0E0,0E0,0E0,0E0,6.546698E1,8.364972E1,0E0,5.0867867E1,1.5967834E1,7.093957E1,0E0,4.2862465E1,0E0,1.8994942E1,0E0,6.740106E1,0E0,0E0,0E0,7.2728165E1,6.4378357E0,1.0792328E2,6.2367157E1,0E0,2.357898E1,0E0,0E0,4.2338867E1,5.4924973E1,1.5756699E1,0E0,0E0,1.4860859E1,6.575557E1,5.9791504E1,4.81577E1,0E0,1.5262451E1,6.0396976E1,0E0,3.544507E1,0E0,0E0,1.1368271E1,0E0,0E0,0E0,4.6637054E1,5.1627365E1,0E0,0E0,1.6627213E1,0E0,1.3487747E1,0E0,0E0,0E0,0E0,7.0371E1,0E0,0E0,5.51656E1,0E0,1.6278275E1,0E0,2.5086792E1,0E0,0E0,0E0,0E0,0E0,0E0,0E0,0E0,0E0,0E0,0E0],"parents":[2147483647,0,0,1,1,2,2,3,3,4,4,5,5,6,6,9,9,10,10,11,11,12,12,13,13,14,14,16,16,17,17,19,19,24,24,25,25,27,27,28,28,29,29,31,31,33,33,35,35,39,39,40,40,41,41,42,42,44,44,47,47,48,48,49,49,52,52,53,53,54,54,55,55,57,57,58,58,60,60,63,63,67,67,68,68,71,71,73,73,78,78,81,81,83,83,85,85],"right_children":[2,4,6,8,10,12,14,-1,-1,16,18,20,22,24,26,-1,28,30,-1,32,-1,-1,-1,-1,34,36,-1,38,40,42,-1,44,-1,46,-1,48,-1,-1,-1,50,52,54,56,-1,58,-1,-1,60,62,64,-1,-1,66,68,70,72,-1,74,76,-1,78,-1,-1,80,-1,-1,-1,82,84,-1,-1,86,-1,88,-1,-1,-1,-1,90,-1,-1,92,-1,94,-1,96,-1,-1,-1,-1,-1,-1,-1,-1,-1,-1,-1],"split_conditions":[5.9380605E4,-8.8155E1,-2.1488863E-1,1.45E1,8.66E0,2.9971136E9,3.8891224E1,-9.438692E-3,6.6757454E-3,-1.19609274E-1,7.106914E-1,2.2229668E-1,1.4999579E0,1.1866984E0,1E0,-8.461911E-3,-3.5E1,1.8888364E0,-9.377417E-3,5.2878463E-1,-8.779222E-3,-9.369563E-3,6.695816E-3,-9.147565E-3,2.3487325E2,1.25E3,5.2513075E-3,3.1014131E-2,7.402934E-1,3.8666666E-1,-9.24226E-3,5.1764656E-2,-8.393145E-3,1.8811E2,-8.536775E-3,1.3389225E0,4.4475226E-3,7.3360563E-3,-8.68698E-3,1.3925025E-1,-1.0310783E0,1.045519E2,6.288664E-1,-7.973713E-3,1.0150113E-2,7.968373E-3,-0E0,-5.1331983E0,-1.052E3,6.568342E-2,-8.7806275E-3,8.699714E-3,2.4532517E-2,3.6698148E-1,-2.841705E0,6.853923E-2,-8.552112E-3,9.592764E-1,-1.426E3,2.4448447E-3,2.6557332E-2,8.829585E-3,-8.397337E-3,1.1904762E-1,-0E0,8.0190925E-3,-0E0,9.99999E-1,8E1,7.954868E-3,-9.413941E-3,8.641394E-2,-8.141663E-3,-2.0535663E-2,6.425835E-4,8.798076E-3,-8.58891E-3,-9.573587E-3,-6.988483E-2,5.040713E-3,8.404692E-3,2.7871576E-1,5.1704035E-3,2.808611E-1,-8.243786E-3,-1.1272353E2,-0E0,1.4453072E-3,8.840245E-3,4.9259355E-3,-9.201522E-3,-9.388232E-3,7.4626314E-3,7.1091037E-3,-0E0,-9.6406104E-5,7.514574E-3],"split_indices":[3,84,66,30,60,18,17,0,0,70,27,76,76,29,10,0,84,105,0,54,0,0,0,0,85,53,0,25,98,54,0,83,0,60,0,82,0,0,0,14,69,85,49,0,6,0,0,76,123,25,0,0,14,77,23,117,0,20,123,0,6,0,0,86,0,0,0,86,53,0,0,25,0,42,0,0,0,0,23,0,0,19,0,83,0,46,0,0,0,0,0,0,0,0,0,0,0],"split_type":[0,0,0,0,0,0,0,0,0,0,0,0,0,0,0,0,0,0,0,0,0,0,0,0,0,0,0,0,0,0,0,0,0,0,0,0,0,0,0,0,0,0,0,0,0,0,0,0,0,0,0,0,0,0,0,0,0,0,0,0,0,0,0,0,0,0,0,0,0,0,0,0,0,0,0,0,0,0,0,0,0,0,0,0,0,0,0,0,0,0,0,0,0,0,0,0,0],"sum_hessian":[1.3101694E3,7.402328E2,5.6993665E2,5.335468E1,6.868781E2,1.7037837E2,3.995583E2,4.7644848E1,5.709832E0,2.9831467E2,3.8856345E2,1.20054245E2,5.032413E1,7.684893E1,3.2270935E2,6.7432923E0,2.9157138E2,3.531393E2,3.5424126E1,1.0932739E2,1.0726847E1,3.8407757E1,1.1916373E1,1.895922E1,5.7889713E1,3.0954245E2,1.31669035E1,1.9408054E1,2.7216333E2,3.3118158E2,2.195772E1,1.0234085E2,6.9865437E0,4.9904736E1,7.9849796E0,2.956311E2,1.3911342E1,1.1416486E1,7.9915686E0,1.4709435E2,1.2506897E2,1.684576E2,1.62724E2,5.23879E0,9.710206E1,3.970717E1,1.0197567E1,2.7773608E2,1.7895006E1,1.3909967E2,7.994675E0,9.849039E1,2.6578587E1,1.3031061E2,3.8146988E1,1.5548189E2,7.242106E0,7.7960495E1,1.914157E1,7.9548087E0,2.6978128E2,1.0414154E1,7.480852E0,1.2888995E2,1.02097225E1,1.662397E1,9.954616E0,4.210842E1,8.820219E1,5.203108E0,3.2943882E1,1.502373E2,5.2445917E0,6.8507126E1,9.453364E0,1.0411185E1,8.730385E0,2.329305E2,3.685079E1,6.784669E1,6.1043266E1,2.8937344E1,1.3171077E1,8.2211624E1,5.9905605E0,1.4003001E2,1.0207289E1,8.703013E0,5.9804115E1,1.34098215E1,2.3440966E1,2.3474415E1,5.462929E0,7.200414E1,1.020748E1,1.0949274E1,1.2908073E2],"tree_param":{"num_deleted":"0","num_feature":"125","num_nodes":"97","size_leaf_vector":"1"}},{"base_weights":[3.128833E-2,5.5793583E-1,-7.0185816E-1,-2.667208E-1,9.251427E-1,3.484906E-1,-9.445766E-1,-9.425351E-3,8.457573E-2,9.776435E-1,-8.712536E-3,-9.158111E-3,9.082891E-1,-1.7134862E-1,-1.2746269E0,-1.1995457E0,6.159748E-1,1.2642283E0,5.920378E-1,1.1895049E0,-8.474728E-3,2.2424091E-1,-9.238517E-3,-6.431541E-1,-1.7747738E0,-9.429149E-3,6.008724E-1,1.0749756E0,-7.409561E-1,1.5508145E0,8.8564086E-1,2.5723615E-1,1.4135017E0,1.4744763E0,-2.3076922E-1,8.1535435E-1,-1.2317227E0,-1.033422E0,9.993342E-1,6.1599654E-3,-9.512974E-3,8.0164E-3,-0E0,-8.258264E-3,1.2602233E0,7.298203E-3,-9.203587E-3,1.6480645E0,8.11632E-1,1.0181147E0,-8.408624E-3,6.8311465E-1,-9.332529E-3,3.29073E-4,8.22113E-3,6.171964E-4,8.517624E-3,-8.397381E-3,8.059109E-3,1.1220113E0,-8.484774E-3,-9.237981E-3,6.021903E-3,-9.422225E-3,-1.398792E-1,8.328952E-3,-0E0,1.4436991E0,-8.113412E-3,2.6355877E-3,8.577123E-3,-8.255302E-3,8.675663E-3,1.1169258E0,-4.4843485E-3,-8.720983E-3,8.539828E-1,1.4272302E0,-2.5391957E-1,1.0827981E0,-1.2064373E0,7.996459E-3,-7.968179E-3,1.6211526E0,-0E0,8.507484E-1,8.117543E-3,-8.294955E-3,8.015786E-3,-8.638498E-3,1.0416796E0,1.4815928E-4,8.515276E-3,-8.414242E-3,8.119678E-3,-0E0,8.590475E-3,7.3105157E-3,-9.20888E-3,8.70776E-3,2.3565397E-3,-8.050062E-3,8.101998E-3,3.0785545E-3,8.383073E-3,1.188056E0,-8.190162E-3,6.772136E-3,-6.549165E-4],"categories":[],"categories_nodes":[],"categories_segments":[],"categories_sizes":[],"default_left":[0,0,0,0,0,0,0,0,0,0,0,0,0,0,0,0,0,0,0,0,0,0,0,0,0,0,0,0,0,0,0,0,0,0,0,0,0,0,0,0,0,0,0,0,0,0,0,0,0,0,0,0,0,0,0,0,0,0,0,0,0,0,0,0,0,0,0,0,0,0,0,0,0,0,0,0,0,0,0,0,0,0,0,0,0,0,0,0,0,0,0,0,0,0,0,0,0,0,0,0,0,0,0,0,0,0,0,0,0],"id":12,"left_children":[1,3,5,7,9,11,13,-1,15,17,-1,-1,19,21,23,25,27,29,31,33,-1,35,-1,37,39,-1,41,43,45,47,49,51,53,55,57,59,61,63,65,-1,-1,-1,-1,-1,67,-1,-1,69,71,73,-1,75,-1,-1,-1,-1,-1,-1,-1,77,-1,-1,-1,-1,79,-1,81,83,-1,-1,-1,-1,-1,85,87,-1,89,91,93,95,97,-1,-1,99,101,103,-1,-1,-1,-1,105,-1,-1,-1,-1,-1,-1,-1,-1,-1,-1,-1,-1,-1,-1,107,-1,-1,-1],"loss_changes":[5.2515015E2,2.4055916E2,1.4548691E2,1.3875822E2,7.694849E1,1.2942108E2,1.1674185E2,0E0,1.3670276E2,5.7702026E1,0E0,0E0,6.2997185E1,9.322364E1,9.954321E1,7.216491E1,8.94982E1,3.0681915E1,6.2347412E1,3.25468E1,0E0,9.756532E1,0E0,9.328005E1,6.197003E1,0E0,8.951122E0,5.484749E1,8.7281456E1,9.763306E0,4.625801E1,1.491942E2,1.8076767E1,1.7419907E1,3.5993702E1,6.289019E1,4.9185696E1,8.594371E1,1.8721703E1,0E0,0E0,0E0,0E0,0E0,5.4446365E1,0E0,0E0,6.787018E0,5.1331963E1,1.3878799E1,0E0,5.76024E1,0E0,0E0,0E0,0E0,0E0,0E0,0E0,3.1713188E1,0E0,0E0,0E0,0E0,7.632056E1,0E0,2.9910175E1,2.4427567E1,0E0,0E0,0E0,0E0,0E0,1.2830704E1,3.129467E1,0E0,6.3536545E1,2.0677399E1,3.6839077E1,1.7010891E1,5.3804676E1,0E0,0E0,8.212021E0,3.0008463E1,1.3102669E1,0E0,0E0,0E0,0E0,4.8624496E1,0E0,0E0,0E0,0E0,0E0,0E0,0E0,0E0,0E0,0E0,0E0,0E0,0E0,0E0,2.4827118E1,0E0,0E0,0E0],"parents":[2147483647,0,0,1,1,2,2,3,3,4,4,5,5,6,6,8,8,9,9,12,12,13,13,14,14,15,15,16,16,17,17,18,18,19,19,21,21,23,23,24,24,26,26,27,27,28,28,29,29,30,30,31,31,32,32,33,33,34,34,35,35,36,36,37,37,38,38,44,44,47,47,48,48,49,49,51,51,59,59,64,64,66,66,67,67,73,73,74,74,76,76,77,77,78,78,79,79,80,80,83,83,84,84,85,85,90,90,105,105],"right_children":[2,4,6,8,10,12,14,-1,16,18,-1,-1,20,22,24,26,28,30,32,34,-1,36,-1,38,40,-1,42,44,46,48,50,52,54,56,58,60,62,64,66,-1,-1,-1,-1,-1,68,-1,-1,70,72,74,-1,76,-1,-1,-1,-1,-1,-1,-1,78,-1,-1,-1,-1,80,-1,82,84,-1,-1,-1,-1,-1,86,88,-1,90,92,94,96,98,-1,-1,100,102,104,-1,-1,-1,-1,106,-1,-1,-1,-1,-1,-1,-1,-1,-1,-1,-1,-1,-1,-1,108,-1,-1,-1],"split_conditions":[6.626456E4,-5.13625E1,4.220443E1,6.4577657E-1,8.9960083E8,1.2527629E0,-2.1488863E-1,-9.425351E-3,1.6727272E0,2.109E1,-8.712536E-3,-9.158111E-3,5.6708094E-2,-3.29E0,2.7358559E1,1.8267244E1,4.834762E9,-1.0589846E0,2.5E1,3E2,-8.474728E-3,1.9212297E-1,-9.238517E-3,2.884441E1,-2.1E2,-9.429149E-3,1.4641439E7,-1.7842978E0,-1.1319E2,1.4242424E-1,1.4974162E-1,7.040073E-1,2.061479E0,1.1678601E2,7.2E2,6.20479E9,4.811985E-1,2.0238094E0,1.0434783E0,6.1599654E-3,-9.512974E-3,8.0164E-3,-0E0,-8.258264E-3,1.2041546E-1,7.298203E-3,-9.203587E-3,1.6E1,1.0381566E0,2.859941E5,-8.408624E-3,6.527187E1,-9.332529E-3,3.29073E-4,8.22113E-3,6.171964E-4,8.517624E-3,-8.397381E-3,8.059109E-3,1.25E1,-8.484774E-3,-9.237981E-3,6.021903E-3,-9.422225E-3,-2.439E1,8.328952E-3,3.125E-1,5.6708094E-2,-8.113412E-3,2.6355877E-3,8.577123E-3,-8.255302E-3,8.675663E-3,6.0794044E-1,7.9247896E7,-8.720983E-3,-3.332E1,-1.4186362E0,4.4455686E-1,1.4005913E1,-1.2566E2,7.996459E-3,-7.968179E-3,-7.3E-1,4.5071406E0,2.3E-1,8.117543E-3,-8.294955E-3,8.015786E-3,-8.638498E-3,1.49695E3,1.4815928E-4,8.515276E-3,-8.414242E-3,8.119678E-3,-0E0,8.590475E-3,7.3105157E-3,-9.20888E-3,8.70776E-3,2.3565397E-3,-8.050062E-3,8.101998E-3,3.0785545E-3,8.383073E-3,1.784209E6,-8.190162E-3,6.772136E-3,-6.549165E-4],"split_indices":[3,32,17,98,120,29,66,0,34,60,0,0,25,81,26,90,0,93,21,60,0,75,0,90,81,0,2,93,60,51,88,116,62,26,95,78,102,34,108,0,0,0,0,0,110,0,0,16,99,78,0,1,0,0,0,0,0,0,0,87,0,0,0,0,81,0,27,25,0,0,0,0,0,98,2,0,81,93,4,26,12,0,0,56,5,21,0,0,0,0,60,0,0,0,0,0,0,0,0,0,0,0,0,0,0,101,0,0,0],"split_type":[0,0,0,0,0,0,0,0,0,0,0,0,0,0,0,0,0,0,0,0,0,0,0,0,0,0,0,0,0,0,0,0,0,0,0,0,0,0,0,0,0,0,0,0,0,0,0,0,0,0,0,0,0,0,0,0,0,0,0,0,0,0,0,0,0,0,0,0,0,0,0,0,0,0,0,0,0,0,0,0,0,0,0,0,0,0,0,0,0,0,0,0,0,0,0,0,0,0,0,0,0,0,0,0,0,0,0,0,0],"sum_hessian":[1.3591274E3,7.916358E2,5.6749164E2,2.4332294E2,5.4831287E2,1.0589206E2,4.615996E2,4.3650482E1,1.9967244E2,5.383359E2,9.97701E0,2.1195263E1,8.46968E1,1.3905212E2,3.225475E2,5.7801346E1,1.4187111E2,3.0688882E2,2.3144704E2,7.696353E1,7.733263E0,1.123734E2,2.6678722E1,1.4385045E2,1.7869704E2,4.2405025E1,1.53963175E1,1.0652075E2,3.5350353E1,1.7244124E2,1.344476E2,1.6566083E2,6.578621E1,6.4521255E1,1.2442275E1,8.048579E1,3.188761E1,1.1678824E2,2.706221E1,5.9598904E0,1.7273715E2,5.2063932E0,1.0189924E1,6.237911E0,1.0028284E2,1.1413736E1,2.3936615E1,1.5081795E2,2.162329E1,1.2845143E2,5.996168E0,1.3846379E2,2.7197033E1,9.704955E0,5.6081253E1,9.451848E0,5.5069412E1,7.2339473E0,5.208328E0,7.225883E1,8.226958E0,2.5932693E1,5.954916E0,5.9583397E1,5.7204838E1,1.6373274E1,1.0688937E1,9.479239E1,5.490452E0,7.705782E0,1.4311217E2,5.494489E0,1.61288E1,1.1774866E2,1.0702775E1,8.491419E0,1.2997238E2,5.9566517E1,1.2692311E1,2.6320156E1,3.0884684E1,5.2053933E0,5.483544E0,8.434141E1,1.0450981E1,7.854839E1,3.9200268E1,5.496411E0,5.2063637E0,8.238091E0,1.2173428E2,9.945705E0,4.962081E1,7.481712E0,5.2105994E0,1.0197445E1,1.6122711E1,5.4561195E0,2.5428564E1,7.638652E1,7.954883E0,5.240988E0,5.209993E0,6.2165276E1,1.6383114E1,1.1599246E2,5.7418246E0,1.0429022E2,1.1702239E1],"tree_param":{"num_deleted":"0","num_feature":"125","num_nodes":"109","size_leaf_vector":"1"}},{"base_weights":[4.019505E-2,6.200453E-1,-5.814018E-1,8.7580806E-1,-2.5582567E-1,1.2462062E-1,-9.8185205E-1,9.4826776E-1,-9.008051E-3,-1.4332322E0,2.1083169E-1,5.408291E-1,-1.1649386E0,7.390621E-1,-1.1549152E0,-9.777655E-1,1.0379493E0,7.189046E-3,-9.396353E-3,5.900313E-1,-9.086326E-3,1.0214728E0,-6.793784E-1,-9.354747E-3,8.128595E-3,1.4072306E0,-8.372492E-3,1.0407885E-1,-1.3445841E0,7.2227716E-3,-9.05387E-3,-7.2383416E-1,1.1049984E0,9.511483E-1,-8.800759E-3,-8.271214E-3,1.1876091E0,-1.3459582E0,7.6937526E-3,1.8999468E-3,8.8712815E-3,-8.885315E-3,9.189315E-1,4.9486348E-1,-1.5504549E0,-8.920994E-3,8.1467545E-3,8.0855453E-1,1.4053012E0,-3.622468E-1,1.2205797E0,1.4130932E0,-4.288761E-1,8.060918E-3,-9.300346E-3,7.6646265E-3,-8.119711E-3,-8.610456E-3,7.4394005E-3,-1.7368212E0,1.12924956E-1,1.193795E0,2.4023287E-1,-1.8666072E-1,1.4921714E0,-8.57333E-3,8.243191E-3,1.4319758E0,-0E0,1.5291146E0,5.7895255E-4,8.294062E-3,-8.607555E-3,-1.8093141E0,8.032307E-3,-8.664135E-3,1.2125049E0,1.2926909E0,-0E0,-1.2321737E0,8.938666E-1,-8.49542E-3,8.050339E-3,-0E0,1.564594E0,7.946837E-3,2.026026E-3,-7.954144E-3,8.0627045E-3,8.125574E-3,2.3207834E-3,-9.503706E-3,4.442976E-3,8.996361E-3,1.7668448E-3,8.807478E-3,4.3151244E-3,8.016278E-3,-8.250041E-3,-9.353646E-3,3.0623712E-3,1.2482369E0,-8.550707E-3,8.08817E-3,-8.227914E-3,1.0701407E-3,1.618181E0,-0E0,7.6320614E-3,2.3891549E-3,8.361392E-3],"categories":[],"categories_nodes":[],"categories_segments":[],"categories_sizes":[],"default_left":[0,0,0,0,0,0,0,0,0,0,0,0,0,0,0,0,0,0,0,0,0,0,0,0,0,0,0,0,0,0,0,0,0,0,0,0,0,0,0,0,0,0,0,0,0,0,0,0,0,0,0,0,0,0,0,0,0,0,0,0,0,0,0,0,0,0,0,0,0,0,0,0,0,0,0,0,0,0,0,0,0,0,0,0,0,0,0,0,0,0,0,0,0,0,0,0,0,0,0,0,0,0,0,0,0,0,0,0,0,0,0],"id":13,"left_children":[1,3,5,7,9,11,13,15,-1,17,19,21,23,25,27,29,31,-1,-1,33,-1,35,37,-1,-1,39,-1,41,43,-1,-1,45,47,49,-1,-1,51,53,-1,-1,-1,-1,55,57,59,-1,-1,61,63,65,67,69,71,-1,-1,-1,-1,-1,-1,73,75,77,79,81,83,-1,-1,85,87,89,-1,-1,-1,91,-1,-1,93,95,97,99,101,-1,-1,103,105,-1,-1,-1,-1,-1,-1,-1,-1,-1,-1,-1,-1,-1,-1,-1,-1,107,-1,-1,-1,-1,109,-1,-1,-1,-1],"loss_changes":[4.882305E2,1.5772354E2,1.8536974E2,1.0530237E2,8.810404E1,1.2672571E2,1.2518265E2,9.221448E1,0E0,5.791423E1,8.6370834E1,1.0594495E2,1.1206731E2,6.2404045E1,9.175192E1,4.824341E1,6.0678772E1,0E0,0E0,8.1633835E1,0E0,5.8117447E1,7.5597626E1,0E0,0E0,9.016712E0,0E0,7.612277E1,1.2653577E2,0E0,0E0,4.7276047E1,4.1173462E1,3.0667282E1,0E0,0E0,4.5752914E1,5.9969543E1,0E0,0E0,0E0,0E0,5.5212696E1,7.352435E1,9.37218E1,0E0,0E0,5.323178E1,3.4462524E1,4.0037823E1,1.8041832E1,1.4930557E1,4.1722397E1,0E0,0E0,0E0,0E0,0E0,0E0,6.675458E1,6.174064E1,1.8358398E1,9.870253E1,3.5328053E1,2.5084259E1,0E0,0E0,7.0101166E0,2.9494242E1,6.652771E0,0E0,0E0,0E0,5.5150146E1,0E0,0E0,7.616808E0,2.422586E1,3.1113058E1,3.749401E1,6.653311E1,0E0,0E0,3.0636223E1,1.4246521E1,0E0,0E0,0E0,0E0,0E0,0E0,0E0,0E0,0E0,0E0,0E0,0E0,0E0,0E0,0E0,0E0,2.1958122E1,0E0,0E0,0E0,0E0,7.4920044E0,0E0,0E0,0E0,0E0],"parents":[2147483647,0,0,1,1,2,2,3,3,4,4,5,5,6,6,7,7,9,9,10,10,11,11,12,12,13,13,14,14,15,15,16,16,19,19,21,21,22,22,25,25,27,27,28,28,31,31,32,32,33,33,36,36,37,37,42,42,43,43,44,44,47,47,48,48,49,49,50,50,51,51,52,52,59,59,60,60,61,61,62,62,63,63,64,64,67,67,68,68,69,69,73,73,76,76,77,77,78,78,79,79,80,80,83,83,84,84,101,101,106,106],"right_children":[2,4,6,8,10,12,14,16,-1,18,20,22,24,26,28,30,32,-1,-1,34,-1,36,38,-1,-1,40,-1,42,44,-1,-1,46,48,50,-1,-1,52,54,-1,-1,-1,-1,56,58,60,-1,-1,62,64,66,68,70,72,-1,-1,-1,-1,-1,-1,74,76,78,80,82,84,-1,-1,86,88,90,-1,-1,-1,92,-1,-1,94,96,98,100,102,-1,-1,104,106,-1,-1,-1,-1,-1,-1,-1,-1,-1,-1,-1,-1,-1,-1,-1,-1,108,-1,-1,-1,-1,110,-1,-1,-1,-1],"split_conditions":[1.6874886E8,3.4188036E-2,1.1087E2,1.4938E2,6.61157E-2,-1.2673975E0,-3.0424944E-1,-8.994E1,-9.008051E-3,-2.5232E2,-7.225E1,1.1546881E8,6.720659E-1,8.5E-2,-7.5433E2,-2.5410603E1,-2.9711482E-1,7.189046E-3,-9.396353E-3,6.7777777E0,-9.086326E-3,-2.0013295E-2,2.1111112E0,-9.354747E-3,8.128595E-3,1.1E1,-8.372492E-3,1.3333334E0,-1.169384E0,7.2227716E-3,-9.05387E-3,1E0,3.8666666E-1,-5.65524E-2,-8.800759E-3,-8.271214E-3,2.6921727E-5,1.2857143E0,7.6937526E-3,1.8999468E-3,8.8712815E-3,-8.885315E-3,2.8475E1,5.5864286E0,1.12E0,-8.920994E-3,8.1467545E-3,2.94E0,-9.076923E-1,9.0185E2,1.6842105E0,2.1977642E-1,-5.9809012E0,8.060918E-3,-9.300346E-3,7.6646265E-3,-8.119711E-3,-8.610456E-3,7.4394005E-3,8.308796E0,-1.8024E2,1.1761815E-1,6.4593806E0,3.2049524E2,-1.313063E0,-8.57333E-3,8.243191E-3,1.7743356E-16,2.883589E-16,1.1E1,5.7895255E-4,8.294062E-3,-8.607555E-3,7.24E2,8.032307E-3,-8.664135E-3,-2.3257736E1,-7.038345E-1,1.7770814E4,9.99999E-1,1.037037E0,-8.49542E-3,8.050339E-3,-2.70195E2,-3.5637383E1,7.946837E-3,2.026026E-3,-7.954144E-3,8.0627045E-3,8.125574E-3,2.3207834E-3,-9.503706E-3,4.442976E-3,8.996361E-3,1.7668448E-3,8.807478E-3,4.3151244E-3,8.016278E-3,-8.250041E-3,-9.353646E-3,3.0623712E-3,1E-2,-8.550707E-3,8.08817E-3,-8.227914E-3,1.0701407E-3,-1.4677447E-3,-0E0,7.6320614E-3,2.3891549E-3,8.361392E-3],"split_indices":[2,37,60,55,37,64,31,84,0,60,123,101,13,121,123,89,67,0,0,103,0,114,8,0,0,113,0,8,23,0,0,41,54,110,0,0,124,91,0,0,0,0,52,107,7,0,0,60,82,26,122,67,93,0,0,0,0,0,0,23,123,92,26,1,80,0,0,20,82,113,0,0,0,95,0,0,66,64,2,86,8,0,0,21,65,0,0,0,0,0,0,0,0,0,0,0,0,0,0,0,0,49,0,0,0,0,114,0,0,0,0],"split_type":[0,0,0,0,0,0,0,0,0,0,0,0,0,0,0,0,0,0,0,0,0,0,0,0,0,0,0,0,0,0,0,0,0,0,0,0,0,0,0,0,0,0,0,0,0,0,0,0,0,0,0,0,0,0,0,0,0,0,0,0,0,0,0,0,0,0,0,0,0,0,0,0,0,0,0,0,0,0,0,0,0,0,0,0,0,0,0,0,0,0,0,0,0,0,0,0,0,0,0,0,0,0,0,0,0,0,0,0,0,0,0],"sum_hessian":[1.3532372E3,7.0075336E2,6.524839E2,5.4303674E2,1.5771664E2,2.3562299E2,4.1686087E2,5.2931305E2,1.3723639E1,4.485552E1,1.1286112E2,1.78844E2,5.6778996E1,3.750881E1,3.7935208E2,2.2903076E1,5.0641E2,5.4495673E0,3.940595E1,9.56534E1,1.720773E1,1.2881784E2,5.0026157E1,4.585816E1,1.0920837E1,2.9784866E1,7.723942E0,4.9187138E1,3.3016492E2,5.451051E0,1.7452024E1,1.793231E1,4.884777E2,8.34413E1,1.2212097E1,6.9776945E0,1.2184014E2,3.8861683E1,1.1164476E1,8.45509E0,2.1329779E1,1.4449967E1,3.4737167E1,3.277816E1,2.9738678E2,1.272087E1,5.21144E0,2.4823363E2,2.4024405E2,1.3693637E1,6.974766E1,1.0740074E2,1.44394045E1,5.2084036E0,3.365328E1,2.8507812E1,6.2293563E0,9.718971E0,2.3059189E1,2.6780453E2,2.9582235E1,1.4675182E2,1.0148183E2,1.1947969E1,2.2829608E2,8.480052E0,5.2135844E0,5.930243E1,1.0445232E1,9.795863E1,9.442105E0,5.2141976E0,9.225207E0,2.6259738E2,5.2071466E0,1.0711776E1,1.887046E1,1.3605083E2,1.0700989E1,3.0677528E1,7.080429E1,6.740016E0,5.2079535E0,1.0455229E1,2.1784085E2,5.1103844E1,8.198583E0,5.236755E0,5.208478E0,9.0013954E1,7.944677E0,2.5589575E2,6.701641E0,1.0423592E1,8.446868E0,6.497319E1,7.107764E1,5.206387E0,5.494602E0,2.3218977E1,7.4585524E0,6.2820206E1,7.98409E0,5.209486E0,5.245743E0,8.9536295E0,2.0888722E2,1.07046175E1,5.2115585E1,7.9501395E0,2.0093709E2],"tree_param":{"num_deleted":"0","num_feature":"125","num_nodes":"111","size_leaf_vector":"1"}},{"base_weights":[2.638947E-2,-5.419941E-1,5.8333844E-1,-1.06727004E-1,-1.2506173E0,1.1444863E0,4.589124E-2,-1.4793088E0,9.2904046E-2,2.4094317E-2,-1.4300469E0,1.2927138E0,-1.2496559E-1,-5.423742E-1,6.634499E-1,-9.3357E-3,7.327264E-3,4.3314105E-1,-8.341152E-1,9.2891794E-1,-8.669159E-3,3.3761534E-1,-1.5853829E0,1.5522892E0,9.250993E-1,6.6356403E-3,-9.043699E-3,2.6143825E-1,-1.6070274E0,1.041613E0,-4.6090913E-1,6.0472304E-1,-9.023537E-3,-1.3591943E0,7.161928E-3,-0E0,8.781446E-3,-8.244781E-3,8.798161E-3,-1.6769427E0,7.285578E-3,1.5541214E-3,1.6107228E0,-8.326086E-3,1.0631671E0,-8.8968503E-1,1.0415025E0,7.317841E-3,-9.394951E-3,-8.503647E-3,1.2075185E0,-9.165251E-3,1.0100048E0,-1.2721471E-1,1.0347236E0,-9.336114E-3,6.00784E-2,-1.7721258E0,4.3336377E-3,8.529766E-3,7.0704633E-1,5.8150445E-3,-0E0,-9.23799E-3,1.919267E-1,1.3185694E0,-8.004343E-3,-8.868175E-2,1.3492956E0,3.935679E-4,8.853624E-3,-1.4195113E0,1.1411995E0,1.1568505E0,-8.159132E-3,6.892504E-3,-8.435555E-3,-9.456013E-3,3.5640572E-3,4.2771403E-4,7.957535E-3,7.6935883E-3,-8.425883E-3,8.278078E-3,-0E0,8.061414E-3,-8.193575E-3,-1.3109044E-2,1.5069897E0,6.6763246E-3,-9.330511E-3,-2.6387024E-1,8.585695E-3,-4.7555146E-1,1.34198E0,-8.059373E-3,7.990057E-3,8.053669E-3,-8.100945E-3,8.439379E-3,8.392874E-1,-8.3680255E-3,7.947732E-3,7.990659E-3,-8.62213E-3,1.4987477E0,2.629448E-1,-0E0,8.076595E-3,8.045353E-3,1.1515055E-3,8.286295E-3,-8.293997E-3,8.026461E-3,-8.009587E-3],"categories":[],"categories_nodes":[],"categories_segments":[],"categories_sizes":[],"default_left":[0,0,0,0,0,0,0,0,0,0,0,0,0,0,0,0,0,0,0,0,0,0,0,0,0,0,0,0,0,0,0,0,0,0,0,0,0,0,0,0,0,0,0,0,0,0,0,0,0,0,0,0,0,0,0,0,0,0,0,0,0,0,0,0,0,0,0,0,0,0,0,0,0,0,0,0,0,0,0,0,0,0,0,0,0,0,0,0,0,0,0,0,0,0,0,0,0,0,0,0,0,0,0,0,0,0,0,0,0,0,0,0,0,0,0],"id":14,"left_children":[1,3,5,7,9,11,13,15,17,19,21,23,25,27,29,-1,-1,31,33,35,-1,37,39,41,43,-1,-1,45,47,49,51,53,-1,55,-1,-1,-1,-1,-1,57,-1,-1,59,-1,61,63,65,-1,-1,-1,67,-1,69,71,73,-1,75,77,-1,-1,79,-1,-1,-1,81,83,-1,85,87,-1,-1,89,91,93,-1,-1,-1,-1,-1,-1,-1,-1,-1,-1,95,-1,-1,97,99,-1,-1,101,-1,103,105,-1,-1,-1,-1,-1,107,-1,-1,-1,-1,109,111,113,-1,-1,-1,-1,-1,-1,-1],"loss_changes":[4.252066E2,2.0372903E2,2.0386234E2,1.14215256E2,5.8707672E1,6.3349854E1,1.2680211E2,5.9710083E1,1.1360726E2,4.9603985E1,6.2064697E1,2.562735E1,8.5250435E1,1.5363123E2,7.333985E1,0E0,0E0,1.0071881E2,1.1526137E2,1.51444E1,0E0,5.1855354E1,5.8291992E1,1.0771301E1,4.5411674E1,0E0,0E0,9.190752E1,6.2359222E1,5.9056503E1,8.738118E1,7.833602E1,0E0,5.644191E1,0E0,0E0,0E0,0E0,0E0,4.9572876E1,0E0,0E0,9.41391E0,0E0,1.071843E1,4.3215096E1,4.569951E1,0E0,0E0,0E0,2.3389297E1,0E0,1.2944681E1,1.5058841E2,5.1354446E1,0E0,4.7614285E1,5.0733215E1,0E0,0E0,6.9486666E0,0E0,0E0,0E0,4.9373196E1,2.472158E1,0E0,3.291834E1,2.4825714E1,0E0,0E0,5.5946793E1,3.7676605E1,4.6300934E1,0E0,0E0,0E0,0E0,0E0,0E0,0E0,0E0,0E0,0E0,3.0248255E1,0E0,0E0,3.1286373E1,8.292267E0,0E0,0E0,3.5857246E1,0E0,4.0694168E1,2.1281906E1,0E0,0E0,0E0,0E0,0E0,1.4121142E1,0E0,0E0,0E0,0E0,1.2805328E1,5.039315E1,2.9567225E1,0E0,0E0,0E0,0E0,0E0,0E0,0E0],"parents":[2147483647,0,0,1,1,2,2,3,3,4,4,5,5,6,6,7,7,8,8,9,9,10,10,11,11,12,12,13,13,14,14,17,17,18,18,19,19,21,21,22,22,23,23,24,24,27,27,28,28,29,29,30,30,31,31,33,33,39,39,42,42,44,44,45,45,46,46,50,50,52,52,53,53,54,54,56,56,57,57,60,60,64,64,65,65,67,67,68,68,71,71,72,72,73,73,84,84,87,87,88,88,91,91,93,93,94,94,100,100,105,105,106,106,107,107],"right_children":[2,4,6,8,10,12,14,16,18,20,22,24,26,28,30,-1,-1,32,34,36,-1,38,40,42,44,-1,-1,46,48,50,52,54,-1,56,-1,-1,-1,-1,-1,58,-1,-1,60,-1,62,64,66,-1,-1,-1,68,-1,70,72,74,-1,76,78,-1,-1,80,-1,-1,-1,82,84,-1,86,88,-1,-1,90,92,94,-1,-1,-1,-1,-1,-1,-1,-1,-1,-1,96,-1,-1,98,100,-1,-1,102,-1,104,106,-1,-1,-1,-1,-1,108,-1,-1,-1,-1,110,112,114,-1,-1,-1,-1,-1,-1,-1],"split_conditions":[-4.8118927E1,3.780295E1,2.109E1,6.1E-1,2.3502763E2,3.8216233E-3,3.888889E-1,7.17E2,8.2490016E8,1.21E2,2.0011003E0,-1.0713791E0,3E0,3.4808787E8,3.4277197E-2,-9.3357E-3,7.327264E-3,3.5922128E-1,3.4214468E0,1.834204E2,-8.669159E-3,9.454392E9,7.42839E-2,5.7692308E-2,-1.64E0,6.6356403E-3,-9.043699E-3,8.907656E0,2.635659E-1,1.2151058E2,1E0,4.130435E0,-9.023537E-3,8.411215E-2,7.161928E-3,-0E0,8.781446E-3,-8.244781E-3,8.798161E-3,4.9472427E1,7.285578E-3,1.5541214E-3,2E1,-8.326086E-3,1.4905775E4,6.315E1,8.163265E-2,7.317841E-3,-9.394951E-3,-8.503647E-3,-1.4897943E0,-9.165251E-3,6.912442E-2,6.024096E-3,2.4792124E-1,-9.336114E-3,3.0552635E-3,-8.76E0,4.3336377E-3,8.529766E-3,4.9815493E0,5.8150445E-3,-0E0,-9.23799E-3,2.534253E5,7.1719456E-1,-8.004343E-3,-9.872632E0,-7.0839447E-1,3.935679E-4,8.853624E-3,6.527187E1,6.984355E-3,8.624722E-2,-8.159132E-3,6.892504E-3,-8.435555E-3,-9.456013E-3,3.5640572E-3,4.2771403E-4,7.957535E-3,7.6935883E-3,-8.425883E-3,8.278078E-3,4.7856646E0,8.061414E-3,-8.193575E-3,1.9204951E4,7.386364E-1,6.6763246E-3,-9.330511E-3,7.54504E0,8.585695E-3,-1.4317173E1,8.647531E-3,-8.059373E-3,7.990057E-3,8.053669E-3,-8.100945E-3,8.439379E-3,1.5068493E0,-8.3680255E-3,7.947732E-3,7.990659E-3,-8.62213E-3,6.1317463E0,-3.2254286E0,4E0,8.076595E-3,8.045353E-3,1.1515055E-3,8.286295E-3,-8.293997E-3,8.026461E-3,-8.009587E-3],"split_indices":[32,97,60,98,1,19,54,95,104,16,94,93,113,0,37,0,0,76,112,85,0,101,6,54,21,0,0,26,41,1,7,91,0,61,0,0,0,0,0,100,0,0,35,0,78,53,54,0,0,0,93,0,37,24,102,0,49,84,0,0,5,0,0,0,104,98,0,89,100,0,0,1,102,88,0,0,0,0,0,0,0,0,0,0,5,0,0,0,98,0,0,100,0,49,6,0,0,0,0,0,8,0,0,0,0,22,64,16,0,0,0,0,0,0,0],"split_type":[0,0,0,0,0,0,0,0,0,0,0,0,0,0,0,0,0,0,0,0,0,0,0,0,0,0,0,0,0,0,0,0,0,0,0,0,0,0,0,0,0,0,0,0,0,0,0,0,0,0,0,0,0,0,0,0,0,0,0,0,0,0,0,0,0,0,0,0,0,0,0,0,0,0,0,0,0,0,0,0,0,0,0,0,0,0,0,0,0,0,0,0,0,0,0,0,0,0,0,0,0,0,0,0,0,0,0,0,0,0,0,0,0,0,0],"sum_hessian":[1.3418618E3,6.634561E2,6.784057E2,4.1210117E2,2.5135498E2,3.308582E2,3.4754752E2,5.229472E1,3.5980643E2,3.0566772E1,2.2078821E2,2.9678302E2,3.4075165E1,1.7741293E2,1.7013457E2,4.683784E1,5.4568787E0,2.6403888E2,9.5767555E1,